{"architecture": "mlp-49x64x32x1", "b1": [-0.004338861553763983, -0.020919865573502342, 0.009813039466893545, -0.01283931133548833, 0.018707289371000028, 0.01731843031800846, 0.005594902116387787, 0.01961168906680288, -0.003113687265771067, 0.006580020693208316, -0.024297827830999076, 0.00021915558072955953, 0.00662876375293616, -0.014042716861859629, 0.043208520936358116, 0.01804620710143274, 0.0013153209181360167, -0.0015504016089187445, 0.016749047861240672, -0.018339583723452225, -0.029974832306003195, -0.015972871502551108, 0.011878747614947612, -0.013106836170324295, -0.012363554428078046, 0.005787288746932166, -0.005823520535224228, -0.015706706920353582, -0.0006227851171589725, -0.0010092059354102347, -0.005613542185140282, -0.003745108794499333, 0.021176638738090583, 0.011511236465452794, -0.0025479628714197757, 0.02115566812663929, -0.0002870659445505475, 0.0003321695273478002, 0.006277126525582899, -0.014315927631234803, 0.011999363224726346, 0.010888483300315995, -0.03345422059071103, -0.0121424336238836, -0.004533002063186253, -0.00414002426557733, -0.0039031852268843806, -0.008172676023014804, 0.009729334888105842, -0.01233134398060958, 0.024518980759531576, -0.001734475623390267, -0.0024876248017940074, 0.0023124129903566246, -0.02079631478551877, -0.008731910375311914, -0.006215025306498741, -0.00022323502362909975, -0.002442090629174346, -0.002402904257808089, 0.0057660800590052155, 0.012766039599139366, -3.449791558565166e-05, 0.004421506461083433], "b2": [0.011275588653048167, -0.016486997318924047, 0.01677499702633984, 0.019843048519700944, -0.020470023719648487, -0.0098354245107634, 0.0009498186448982314, 0.024471714365429866, -0.009858539434080587, -0.008872779543969249, 0.00993811280878549, -0.0177941324001644, -0.013360922178882531, -0.0010903164053438852, 0.005091626994039558, 0.010619578480416083, 0.008966489745670086, 0.0113303156636118, 0.00233786557258623, -0.0063767536269824215, 0.0012653256849356612, 0.032775025643769204, 0.01052428555775492, -0.021763100915431176, -0.006430256047202984, 0.020873635494411086, -0.006255894506449794, -0.0029632099346553527, 0.007183249124251897, -0.007141774459688468, -0.008599360380939065, -0.007529960825872307], "b3": 0.5015002243317188, "hidden1_size": 64, "hidden2_size": 32, "input_size": 49, "replay_size": 48, "sample_count": 13080, "updated_at": "2026-05-09T17:21:43.378530", "version": 1, "w1": [[-0.048064496965147245, -0.05294500996652161, -0.017852427957019117, 0.03786368828194476, -0.04358649681408176, 0.004756984550070502, -0.0036225901559078138, 0.03535789614188955, 0.0024105008025093297, 0.016079092847713146, 0.0191895246741751, -0.016650444514816565, -0.05293869632736587, 0.03167243651278765, 0.06526073478803271, -0.031614377689003825, 0.034909854256442135, 0.021473105949616284, -0.03393707359745145, 0.0326717968753746, 0.0290235852439352, -0.04914374298753899, 0.02765149805098673, 0.05200884937702076, -0.05758692145922459, -0.03781074174975968, 0.002380384897150155, 0.03268865152536777, 0.04306704606415432, -0.045131783301024526, -0.009990361067745713, 0.057868272891984575, 0.0457424410065493, -0.03775072304719971, -0.007833969636412978, 0.03149810881081476, 0.007255454739171552, -0.014388469186812365, -0.03625253151263859, 0.017466481745482154, -0.032670869313645746, 0.05423483636259037, 0.03901584152762212, -0.016602811643029135, 0.04455431781035056, 0.054517492376621776, 0.04246733969835117, 0.022528371706599278, 0.056562381019229786], [-0.03255770738286838, 0.06479490012919217, 0.02755341691241595, -0.03445834339238172, -0.011982620386198036, 0.021666104329465675, 0.00246587604930956, 0.07067023849217989, -0.07748752022387924, 0.0801556752006593, 0.0465648451834105, -0.038800766820357185, -0.08623174156878952, 0.09868445461104391, 0.1228511912251841, 0.03430070077525403, -0.09022850118052336, -0.09969696363769141, 0.039499855490161884, -0.0010555338680299862, 0.08948863549683155, -0.07353986290372318, 0.019170552156448254, -0.05486951882980783, -0.021290605263621115, -0.09974579696206408, 0.07166881711484002, 0.009381544581078422, -0.051236474648885776, 0.04738451729348792, 0.04377855168196671, -0.05549181202566865, -0.05201028501122457, 0.06990434512684893, -0.0009909035525264647, -0.04437289075205911, -0.0032554960247004505, 0.019936888255111723, 0.008086603844695095, 0.03920057764870867, 0.046903102911496554, -0.016860528559448335, 0.044985767781714606, -0.018405924292553392, 0.008014439821094552, -0.0072877857171218165, -0.06176137739223443, -0.08632356595305334, 0.0999721333616796], [0.01525021886734709, 0.011437372743479834, 0.03154155926072231, 0.03365386204233097, 0.0429020387843683, -0.026690890283353252, 0.052834049438265605, -0.0017969364510549252, -0.03594838784075659, 0.01250710121578281, 0.04323165333702925, -0.05069857778011012, 0.03744647736203408, -0.09156849982241098, 0.003429538894437062, -0.05081507036420739, 0.04487705460373045, 0.057458708897011365, 0.027790626981571157, -0.04167020866624952, -0.03688275399300044, 0.03848595456616582, -0.05844589130989796, -0.046424924442977224, 0.03044618513192012, 0.014984085536792369, 0.02589547096208323, 0.021637543482980637, 0.07318204425145998, -0.051992180161419314, -0.03397316676796427, 0.013492750875567224, 0.034971766098673224, -0.002366215915885635, -0.019887877234030217, 0.006118591971159216, -0.04137062469952986, 0.04095318407399158, 0.0394852006755758, 0.012509690674157761, 0.02014322736515076, -0.0577320971343827, 0.02831582716521429, -0.05208549830001474, 0.03073514498819714, -0.005854386659567953, 0.03878777516062436, 0.0006653627557249438, 0.021206229675658828], [0.004993349828127967, -0.028380874482712884, -0.014233749994634903, 0.0054255485417503595, 0.02498107479238942, -0.007006262428805012, -0.012827636485101582, -0.022245893974317643, -0.01857158048639066, -0.022318789506797606, 0.06699276976795536, -0.04494265271536562, -0.030653927005050985, 0.04976837328361268, 0.07819422117642884, -0.03859412598573769, 0.025904031980772402, -0.07194162742272354, -0.021900724797943624, -0.015651514734734456, 0.053585547890561414, -0.028077127953941447, -0.025113598634455742, -0.024954264796112183, -0.0034420671097590105, 0.01219159817827825, -0.04018230627173547, 0.07001897855715504, 0.00970893921279453, -0.04057728649795512, 0.009001817629020243, 0.01204907855632445, -0.07872041585281239, 0.07442685391124029, -0.05311206743593745, -0.029066427269467607, -0.007035466263953235, 0.0015229923647735108, 0.03075609150597006, 0.006433162693813971, 0.047063014826613805, 0.027072873116997964, -0.014198492457328939, -0.044859150920970266, 0.055895956670669364, -0.02929951271871367, -0.03187268207244508, -0.041767633404431834, 0.036575672260240125], [0.020506980171666956, -0.06488637945202165, -0.057665769703966065, 0.03950422287028724, -0.05511815459039011, 0.07295964881624663, 0.04390379016215, -0.06055233399206023, 0.022783282295586578, 0.0029278378407468103, -0.061623072390037344, 0.07813987727644184, 0.02132458138682015, -0.2205940136229292, -0.11306200399289705, 0.02555344434005125, 0.008169240460170743, 0.07922529750610355, 0.05641713225935058, 0.006725419187639356, -0.08728123350334066, 0.03927012274191656, -0.017068636646560133, -0.011552899111287413, 0.03733328438065203, 0.12899765541200067, -0.031447955087400295, -0.11994436191852846, 0.11079841560812813, -0.02059314878434606, -0.0017407461604943349, 0.012884387872726812, 0.04455531050130409, -0.13724343907651643, 0.018998088669169515, 0.014229160957206643, 0.07308013582692467, -0.04907337176793166, -0.013766691043503563, -0.027301595622322032, -0.0757987011326415, 0.03617008884350517, 0.04237230976997505, 0.03955977272051603, 0.04654290133233922, -0.03241432800419273, 0.11420209382079864, 0.045499747640971804, -0.09943356905930308], [0.01865336324620177, 0.014158263461461271, -0.000591476696150362, 0.05010653934708318, -0.03660538753620352, -0.04901657419547174, 0.03776539659415822, -0.047585575962103076, 0.009480794617219497, -0.08056479632698252, -0.07185824864977516, -0.007790119492149377, 0.08274883792456374, -0.12010787259598735, -0.06862911413172178, 0.024794201327379854, 0.06274336154441795, 0.07068460077975484, 0.057169591450373175, 0.059752888557423584, -0.09879966600917331, 0.01777790853407406, 0.014275213513935105, 0.03590139414539488, 0.09891219501923922, 0.04144118772371477, -0.0493873896993813, -0.10410457290940313, 0.02997711510148465, -0.06851802636894239, 0.04120310392159333, -0.02539632877157375, 0.09520880564711738, -0.07533823881949071, 0.013437593409227904, -0.024807312179678152, 0.06807876953070925, -0.02026911971550808, 0.007401272685929168, 0.006381444319460014, -0.0356461062005838, 0.05129700789619235, -0.028106715912698838, -0.02871896087245709, -0.05905395069156233, 0.04337434591014281, 0.12314730852046632, -0.01541817606695479, -0.11872795115510743], [0.024596707699015598, 0.013349173285816246, -0.0030885194411190194, -0.05601897742108029, -0.0485417573742646, 0.05740202317137194, -0.032912485683630144, 0.02038501279338033, -0.03051824302589781, 0.03274025067977885, -0.007285079610512224, 0.014009884480966107, -0.026118832830035906, -0.12718478636583033, -0.014825092318925315, -0.02208324795674974, 0.03139141911492121, 0.05623452694198204, -0.028245008380826407, -0.028239367933770163, -0.08229705909580669, 0.027845934665702884, -0.0701814482994433, -0.008174633362159634, 0.05022825461578762, -0.005225848685017415, 0.022389450915138498, -0.08974813581355438, 0.06759447163876939, -0.04805519715965978, 0.05414952288668794, 0.020133061589995793, 0.09710198337333766, -0.04199292732342022, -0.020757673127497992, 0.005992349273216736, 0.06187133437564714, -0.0035853697588786038, -0.0045540891330385705, -0.019315570929467528, -0.01947423802443046, -0.05446684606162445, -0.0392069903919557, -0.013126978128487008, 0.03834279215000838, -0.01983959542272294, 0.08487027877764751, -0.012981854595140662, 0.018553100200154833], [-0.025344299065017447, 0.0027986151848027794, -0.024328288529382895, -0.01749956505548324, 0.02008844424613051, -0.02355628578307819, 0.06224292628849401, -0.049589733768376394, 0.05626700389715228, 0.02004138304835744, -0.05920641110233175, -0.006173966622084968, 0.06128152818396459, -0.10781639561150493, -0.0675835562360705, -0.019488121821799282, -0.015927541405550274, 0.02004472094820853, 0.02087927864939955, 0.07959533813936759, -0.030617592816042496, -0.015300748589546935, -0.04794417394580551, -0.017143171834630357, 0.04186447307340524, 0.04706004506078854, -0.013832445177660604, 0.02685090343549728, 0.03828355592613844, -0.001691954196568656, 0.02317101301044926, 0.0273840255985989, 0.0978921166998375, 0.032065789779326226, -0.048345581787912525, -0.059913326196266666, 0.055693273443941774, -0.04119855231795471, 0.06676644391289732, -0.0033961087161840653, -0.05880489991441638, 0.016166709497237336, 0.04315636378930829, -0.009176046784571495, 0.046167809376430044, 0.0010117690469533792, 0.03504319751086449, -0.02943138039075886, -0.025220364415752945], [-0.017175550936987694, 0.047605748807896406, 0.05330293424172853, -0.03663082185872187, -0.005068441697896056, 0.010085975556864508, 0.022672374685894583, -0.03527890885570388, 0.023383512886072103, -0.014485259921597259, 0.019734045636872016, 0.05144218513589981, -0.047763594375457366, 0.05578050877950016, -0.0042997401409257474, 0.00013048958883314003, -0.02878807444463751, -0.05503249671094219, -0.002011250997094989, 0.037155666981418825, -0.024577286136481507, -0.01942072965024525, 0.007982331444725729, 0.027016372814132952, 0.0271179013207908, -0.0242280814564294, -0.008804818961333385, 0.05364262311288513, 0.022533035120337032, -0.015248489225311114, -0.053958242342062444, -0.03874433425426045, 0.009822248260961407, -0.004433595252030482, -0.0018901730074117856, -0.011240176187541383, 0.03974701901004313, -0.023059190317755898, 0.013204288825805459, 0.004556134727424013, 0.05510768942722036, 0.022444206179494483, -0.04943909810739596, -0.03462113240486333, 0.05267897454611849, -0.04548869781041536, 0.0040891713725416, -0.03294797802571977, -0.010215687882883814], [-0.002245921932378542, 0.04298235075403957, 0.016502161551931932, -0.017675107858462557, 0.005512106886401071, -0.04611694055271006, 0.02287686522742661, -0.03288904664354209, 0.037003614799219514, -0.010722242657608506, -0.042458436070544815, -0.04736903112409227, -0.05577773420668358, 0.06688640961769586, 0.032916105263131525, 0.057296816925490865, -0.042713270892311035, 0.04294190332124384, 0.006113363074913808, 0.024909758357647378, -0.032370678714195356, 0.0397427546503213, 0.04797193909791935, -0.012972851655464952, 0.045612188185801365, 0.024440949838132726, -0.03162342430292022, -0.008243217789341622, -0.03107457966672526, 0.035704893854341696, 0.01651146614148966, 0.015769522709819964, -0.03551373537983543, 0.04200637338486978, 0.04584808516461283, 0.037319010337734874, -0.01167532483706804, 0.04054873621975735, -0.052366966133904916, 0.02670861881717436, 0.022098920131849602, 0.05412060469163284, 0.02385121949000721, -0.007605100549024879, 0.02993166300213511, -0.010063476123281895, 0.026230385400876084, -0.026820477172796422, -0.03519456164708921], [-0.05540741631501083, -0.016149511528785895, 0.010916873671294689, -0.013176246057140453, 0.06289403210209439, -0.0560122345063075, -0.040705968128886896, 0.05983348036564244, -0.018282732871196722, -0.02335489673175811, 0.058351592290196576, -0.03379534335495874, -0.043282637285888666, 0.1351694730126069, 0.06830661856246237, 0.03229220263365717, -0.05417976673082406, -0.06656091030407836, 0.005979285590718572, -0.04443363886930516, 0.04809206354757502, -0.026565213469290295, -0.03959235173283582, -0.05276039097427959, -0.03335130135528119, -0.0636461847391002, 0.04075715735656097, 0.05641186293406917, -0.04757416230726011, -0.039485455503998665, -0.003380063382111402, 0.015080394735652855, -0.008528987796161642, 0.03298711725310017, 0.05869247008338899, 0.04444517868670138, -0.005937525675542839, -0.03970368198499552, 0.03343924237988246, 0.03857447659102506, 0.043502143655649035, 0.02568013112200805, -0.026545287095843216, 0.0007148387401290105, 0.04722390814661993, 0.04374846218937152, -0.06862176026943287, -0.027534931782063222, 0.024219317632837824], [-0.04825039410726703, 0.03964508519277783, -0.05159912141238392, -0.03413810243222326, -0.039294497488786814, -0.008196715635532058, -0.041769389107080813, 0.0007656002729689064, 0.046986716631269125, 0.045759354299867994, 0.027916194834319962, 0.04429566574879825, 0.01660942517870644, -0.03979971025001145, -0.028560864542394274, -0.05092916112552064, -0.031081087453928322, 0.011659458484178405, 0.013869464657660105, -0.0028847776478683556, -0.020765827163635682, 0.058025130322677095, 0.023675823171496933, 0.052767494867248806, 0.056199238834950455, -0.036607963460377715, -0.054834999717329344, 0.018583582657576345, 0.07441346657251639, -0.024141371478102372, -0.052769819798904376, -0.030478727430929713, -0.024100238935160473, -0.039449656546511995, -0.015324960425496742, 0.04889618448031808, 0.06416169389051275, -0.024861796136032815, 0.05494649146604, -0.038445069798984426, -0.001296405295342161, 0.03241102264331541, 0.049926709851130846, -0.03223827470481552, -0.03336414999337199, -0.05802687985154854, 0.03718972085795043, 0.04529064272023263, -0.06771595369944382], [-0.01171275546755239, 0.03364740846532043, -0.026939843850775032, -0.014410439996946044, 0.04420754453491454, 0.002886941476477978, -0.03206147490475882, 0.0487905875276035, 0.05864700601096018, -0.024351257581194264, -0.0912602452990763, 0.010167880166922414, 0.030260959596250154, -0.09103186452629902, -0.035038543850803426, -0.010262932346933321, 0.007473191798229541, 0.09257651674661974, 0.05957349673319293, 0.028341937689325823, -0.0835065090033417, -0.0035294760682015184, -0.04821920868068374, 0.03100728729667538, 0.016479931709109115, 0.00972811022471482, -0.04669686252954067, 0.012818575580148444, 0.029837423171986857, 0.029753546689292667, 0.010059082481128934, 0.05952568348169385, -0.023846926624507853, -0.08796126318172638, -0.027548304079327016, -0.058115103239618486, -0.036833567997956826, 0.00361174175892226, -0.00994485351957935, -0.04244063235117457, 0.0033329385908676015, 0.011370178449183782, 0.04598287395126199, -0.012201524014264815, -0.01361801228672687, -0.013417336094741546, 0.017718841322048852, 0.07635428033761664, 0.015946671434679836], [0.029950426034400575, -0.019821731580968185, 0.04589528916970876, 0.05034764593432724, 0.03476060082420755, -0.02034998000928954, 0.04288128824233401, 0.053175078063676585, 0.0042821647097165344, 0.05185750834303468, 0.0793965284263363, -0.03226217019658515, -0.034535210937138495, 0.18640773348686845, 0.06251917768664454, 0.027883732121898232, -0.01652632396405439, -0.08540105630025173, 0.006011472501045473, -0.04169810364264565, 0.13259307672640724, -0.06290504334922317, 0.0783391325239154, 0.01726309082653871, -0.08117456778447514, -0.12686267870051268, 0.08329224888035999, 0.11235806010751902, -0.14740483171751131, 0.03344095094306551, -0.020479555488814666, -0.07828865238003375, -0.04762993128026522, 0.05589508632153179, -0.04444543341421008, 0.003940437861648807, -0.04841084325272962, 0.022545669069066493, -0.053206605536013654, -0.006758095541202672, -0.0299961754152296, -0.05678555832156083, 0.031080383028075434, 0.06968546283758496, 0.016981814728774677, 0.02382113136492101, -0.10054150319149031, -0.03573865075524788, 0.07583885095688694], [-0.023466058966052177, -0.04517290137765384, -0.08604288720432318, -0.015404745494318256, -0.05500399864339704, -0.00032847103834456276, 0.004425252059931323, -0.056776455121566545, 0.012898698684772076, -0.076915340775416, -0.034664717505263655, -0.029334165171327687, 0.010414461577674299, -0.13186608035363734, -0.10008457456650571, -0.030173035272510085, 0.017267350698794814, 0.1270257914655861, 0.00664036388668382, 0.06122854302749324, -0.16325397765900387, 0.026522813605022386, -0.04679185682021688, -0.034604358398990856, 0.02319546626335049, 0.08097887404960531, -0.030932531646260673, -0.11385735273106495, 0.021578902017939564, -0.019464192800437354, -0.02868273583140066, 0.048123931591028984, 0.06692930302563961, -0.1190458035304327, -0.0048282429746600445, -0.0016381635771055842, 0.030510782822542416, -0.049547362206769696, 0.05115785519302085, -0.04154268591886004, 0.019791199849546633, -0.054371794663151896, -0.03199618133582913, -0.033686327889237325, -0.04979593008023382, -0.03170672055863838, 0.1389140061645079, 0.004764946000424919, -0.07443457783891333], [-0.02985172965578685, 0.02451165464533292, -0.0038147742424073186, -0.00381129263674161, 0.03596085889482229, 0.04624304359987843, -0.0459342521878722, 0.05360987107692523, -0.02779986069197828, -0.03499819962457367, -0.01486418042053562, 0.05770839606425659, 0.051348653663715306, -0.07913085192607387, -0.04535106603135608, 0.0079409640298708, 0.05726968125170432, 0.022520117907282533, -0.055782711920696046, 0.011976398881116951, 0.021577095856374455, 0.01988345778383809, 0.046878599262291855, 0.0420548564381072, 0.0030647322389781963, 0.03306178160180925, -0.04783417841094278, -0.04273885057430525, -0.007229866493455674, -0.02543147825587354, -0.0513806128731912, 0.02599375043954535, 0.06637792968849206, -0.05962934230118641, 0.01877940660081434, -0.008588438566287944, -0.03275975993348629, 0.058153868157235736, -0.010616138431488988, -0.002545004529424015, -0.002587399345755073, -0.04380544134048241, 0.04689529807857043, -0.00869390233709127, -0.043014798767261886, 0.047384089338107324, 0.06230865023914592, 0.010927676293211688, 0.038133894546891], [-0.0070796126446331115, 0.02229577862405406, -0.04045702585977153, -0.04469640357563349, -0.014864516207417012, -0.02545570618869427, 0.00598820286997764, 0.039123883985587506, 0.02310936186476169, -0.004471633133015443, -0.07202117768347714, 0.012407884415191318, 0.07856807669483858, -0.13479211804531002, -0.03555337075849385, -0.05516099737679112, 0.03486451861286998, 0.11427557678195226, -0.0038812792933824655, 0.077625454404644, -0.11055578315421692, 0.04884292170975797, 0.03167638307252377, 0.0011980550687567544, 0.06988877147642278, 0.06131158555790821, -0.002093362694728032, -0.07885123894261148, 0.09754499432121559, 0.019484214633567143, -0.020010272579158803, 0.033449316885183156, 0.037012499983330054, -0.09254059446660319, -0.04327351515664868, 0.012231491736163943, 0.02058596659739129, 0.019298735569736852, -0.024409793029464222, -0.033127164610767715, -0.030769035729062356, 0.0022743603129811857, 0.004027695990250241, 0.05439603881317981, -0.040270474643700274, -0.04270742534918942, 0.06942647395689039, -0.017072985093259743, -0.0782594510399067], [0.04738981706359149, 0.04499432913363092, 0.08888874582511123, 0.015342493631757062, -0.01625431604278405, -0.060431625365194364, 0.02909735680413234, 0.01872318044168686, 0.030632296164471315, 0.03883100643292353, 0.09283104413649261, -0.005677303466079592, -0.04666262310926313, 0.15274322362853202, 0.12355325577774263, 0.058192704082085496, -0.039199043474265505, -0.10662286835672392, 0.027550017739612936, -0.011991976968720076, 0.11682961963676423, 0.003359469770167583, 0.054197046194402396, 0.028924683574189335, -0.09270700073160765, -0.08658699836278161, -0.018928280567205323, 0.11082137716246662, -0.014695207375192688, 0.08535953959847963, 0.002773240181578411, -0.041171776107735925, -0.10776771310051352, 0.05532064301665821, 0.05324633994020686, 0.021397093143803645, 0.03876879682077844, -0.03414453776150171, -0.07909138576792653, -0.03476335496686861, 0.016404083756370813, -0.02317708432347708, -0.008429813097364701, -0.007524150501097409, -0.044016469747771826, 0.05343113350124329, -0.02792184066084237, 0.017535155046596543, 0.014069102693574587], [0.019655615352515175, -0.0006476031305144921, -0.02512346113678939, 0.037340858558934376, 0.0381920425256194, -0.005619867625346047, -0.03168788876449773, 0.039776436332769484, 0.01935260030523897, -0.014424820541596587, -0.028999639172008807, -0.006702171090685923, -0.0014563786923819735, -0.008964624094155701, -0.04551788450302509, 0.03673155941428533, 0.01625297979993946, 0.04879160429586143, -0.0037807588519737784, 0.06110494238521773, 0.03808358654575807, 0.0055784600829615, 0.03640135586946763, 0.021397122744631118, 0.023947823458362178, -0.0001587226771758095, -0.0327401761548829, 0.05196124697583659, 0.003205918790427638, 0.022406853243106817, 0.05900555963957633, -0.00860903530077976, 0.007387000903431938, -0.03863655358341896, -0.026979980624390817, -0.0015014604779607483, 0.027407468509952022, -0.025110713863502276, -0.0037338917089306096, 0.03641598531617621, -0.042521528093301626, 0.023447863387723353, -0.04086257888622835, 0.02708499297713011, 0.04221283090380243, 0.02503257598727421, -0.024088997472230818, 0.005908184847073587, -0.030866468884599787], [0.03982194110293778, 0.03107846857501493, 0.04277909205846514, -0.042044033465877394, -0.02993821246839829, 0.022638002510114004, 0.015351404224069458, 0.015702220806595404, 0.01631803375338766, 0.00899907563814683, -0.00678590410358043, 0.053907669331093366, 0.000786887187033395, -0.07681434568585213, -0.06570988308994115, -0.019140277535596193, 0.0050145882692426945, 0.007404980031236715, 0.056108042526122795, -0.036919047005074694, -0.07682442215114157, 0.019655803899826272, 0.006727611810122902, -0.02774628324002781, 0.027974932108441573, -0.007845888233662201, -0.031963164838449465, 0.02419804296563062, 0.03939013269365591, 0.003974036884301813, -0.03310873421274891, -0.02361475738586849, -0.027049088262918516, -0.0485469598645057, 0.05771204489928496, -0.030892494193887697, -0.020379132924656533, 0.021427263340416294, 0.03729722045953679, 0.04421778916883341, 0.01988312113158512, 0.04555022495802223, -0.0594202554044294, 0.034255120151356566, 0.004043871620418429, 0.05816635596193471, -0.014473411681386264, -0.05275726373884472, 0.04083778050099614], [0.004357437786003785, 0.02266333827449118, 0.0596756348331454, -0.013648656677791126, 0.058983227378812994, 0.03447425413166938, -0.011312847516294576, 0.02141014894203553, -0.04151455147749252, 0.0061865106309075225, 0.07634548345594534, 0.017049888154522526, -0.05708800020802802, 0.14311805176290682, 0.13061488360168635, 0.002136558964234135, -0.0752428512366504, -0.11269285895453354, 0.037881137478465304, 0.0011710379898305734, 0.11789386907926322, -0.07359971947555671, -0.02680967955472023, 0.029008225586593384, -0.0427964908284051, -0.04366062973158534, 0.03474995393210123, 0.053548783623012464, -0.098748640943187, -0.01471720039281363, 0.04743241793171878, 0.005518483635812267, -0.009502039075066774, 0.09865668315120259, -0.04688963943993461, -0.03227119555018075, -0.019148088483801895, 0.05245551485301758, -0.006526729916442317, 0.012292216003428794, -0.040406008379708175, 0.05294707778835776, -0.052982007166122135, -0.02374309221842316, -0.011090374749380079, 0.035624593891469894, -0.09289608312866944, -0.081326664472419, 0.04671325907968116], [0.025014727850632083, 0.03168143709267128, -0.010375756423339098, 0.008427895304685433, -0.026012567598655112, 0.008197506891741401, 0.02756914755917083, -0.04319845703908251, -0.01244882412246621, 0.0034488669334219535, 0.04841451517246389, 0.02781467400269752, 0.03216177453815318, -0.051688513690668396, 0.031277240847254396, 0.014360974637839457, -0.015800081168670863, -0.012769656209240183, 0.01777678003795248, -0.05111166758305478, -0.0033140505285153654, -0.006137891996078109, -0.008424991478882787, 0.020539925340489304, 0.0013177057981892115, 0.06523031592390818, -0.060238695624641105, 0.010808874131709965, -0.014076139294431262, -0.048641472768283435, 0.04704210610647372, -0.02366350605588051, -0.0013179455198887296, -0.003886801617721357, 0.0348721232903731, -0.017878392235916914, 0.01920878627427214, -0.016876636455336144, 0.02298189261184735, -0.02596011958972539, 0.03214317419142445, -0.007132757365665453, -0.04492449399142027, -0.03410930519080163, -0.00572782151431727, 0.01435022441800066, -0.016884489495991733, -0.038852639271155155, 0.025344389494215365], [-0.012572602058619117, 0.003957540309437318, -0.003855814487790484, -0.0152743884435689, -0.0529044103179687, -0.034008392560448755, 0.00882103369031047, 0.032933838430781626, 0.01234069104488129, -0.024759531780496866, -0.024240402455490744, 0.020717331635524222, -0.010395221537556096, -0.1387512439537566, -0.08026144150010422, -0.014368280316707756, -0.024972523416421467, 0.10012289889852158, 0.002307226143155594, 0.025529468613148996, -0.06480983883071303, -0.008002256466039533, -0.0766148292049893, 0.006148729051103996, 0.031346202194147556, 0.023182501123125785, -0.03243636375279084, -0.0678408805483624, 0.1159824724178431, -0.03778109790951645, -0.03810768408320319, 0.05064469594613586, 0.03361061238516438, -0.11172529131758226, -0.02680061324132753, -0.030352702555143635, 0.06752858178043752, 0.019874725236609783, 0.027310843358356377, -0.03443370100486911, -0.06079789632721537, -0.011436846986242137, 0.01389061358926956, 0.024849888741630875, -0.05933514866443929, -0.022001413830726176, 0.0890439878145793, -0.025073048722978893, -0.04266336921101135], [0.05607658637734513, 0.034715987246184125, 0.003514768249105595, 0.021362038717505884, -0.03735500832379694, 0.01823145733283752, -0.04755330170010406, -0.04265672855891318, -0.041206662312631474, -0.007741598198975608, 0.04090994054326503, -0.04485024800893599, 0.01662188483937556, 0.08132599067306256, 0.08734859447834423, -0.002934148871011338, 0.043420667057271795, 0.030631673787174456, 0.059096113386644555, 0.025518769552041496, 0.0034742687537233823, 0.04021470327805195, 0.047672250578039616, 0.034419786826553916, -0.04213497650523283, -0.09193920362443178, 0.020318202718078483, 2.2551859282724817e-05, -0.04377520499500274, 0.012071331197471755, 0.05560183016549426, 0.04026352266835051, -0.034384522686934704, 0.07182163827017451, -0.0004233756831840337, 0.0032954030730153383, 0.010519665233349615, -0.025273135784024417, 0.017518820965638747, -0.02966899803212579, -0.045890588136596654, -0.03796384338083844, -0.05827580503718811, 0.0026309447830860336, 0.030096600637800217, -0.05654098818614997, 0.002209048327048331, -0.0588205186803072, 0.00442015893508878], [-0.011068953437552974, -0.0051544344904906276, 0.04014496581843345, -0.012970302076885388, -0.04111130790658795, -0.024067779436630302, 0.03461570856299545, -0.04478790751974603, -0.019586100467900953, -0.016800923765247583, 0.061106027826166275, -0.029691460266169187, -0.06286397016765136, 0.07977433328949501, 0.039092795296940805, -0.023617798473321596, -0.06210224716360289, -0.014069852922690054, -0.034122201781022196, 0.01669322715558087, 0.02176709338615964, -0.05486921056066829, 0.01894883598992552, 0.02697858960618944, 0.03293676195374282, -0.04228238258638335, 0.03976545725067595, 0.041221468556424785, -0.021613270414904687, -0.03975833777622696, -0.047272382645045484, -0.016824086718372638, -0.006136000898649395, 0.07823191393858601, -0.021560960977492282, -0.019817083747309925, 0.034331191052040196, -0.056782607105151754, -0.057354563628076456, -0.02303736168918632, 0.003499168790653333, -0.05386490873740363, -0.03552812265412626, -0.07455854043436516, -0.05107553328400552, 0.04898229037601743, -0.08527510334011733, 0.03871852384304951, 0.08103068287200178], [0.046183650000422564, 0.06829386912959237, 0.04906798745075797, -0.020617350034500943, 0.05987401419484369, -0.020035712490894586, -0.03416923474877056, 0.04259558830560557, -0.03692780082366419, 0.04158046419574054, 0.009860147490206205, -0.03692749357558669, -0.007153106289713032, 0.011306673411664173, 0.06587706734189575, 0.046648358913867545, -0.025211119490668243, -0.06696177076157273, -0.03527585270771987, 0.015708095806233374, 0.08302724884957524, 0.022734874199799603, 0.07532152550315799, -0.044266077921707364, -0.018387558554990406, 0.01532220783959664, -0.046916684479046955, 0.07270618295164004, 0.000600113242584637, -0.016078360926233087, 0.0035004198932535938, 0.022626510080111663, -0.026279215250653895, 0.04655484399301514, 0.00510090793112519, 0.04264200374699345, -0.027737589777041518, 0.027242956440811122, -0.016961920822963415, 0.05364742952481337, -0.048181265564764014, 0.0251867898698276, 0.033443484506987864, 0.061771688026525905, 0.01921114446713275, -0.034434592385025276, -0.0008416113202999156, -0.06303490060332573, 0.018112070763963983], [0.00613375820625475, -0.029539610525517956, -0.01847295329652545, -0.05429047110527831, -0.02412335915631565, 0.054896508327439926, 0.014354552209362197, -0.048040893526858044, -0.034698986147849165, -0.04499954972064296, 0.030507555840612873, -0.05856496969658767, 0.043749426643887444, 0.038235458275076725, -0.03856002949396925, 0.012363941099995645, 0.05766600986888624, 0.043522461032194905, -0.051515920634870996, 0.0584744821184568, -0.01365583570460205, -0.050732045242260666, -0.0067838662763370725, -0.058708424390457294, -0.004999008843486105, -0.017058028692463714, 0.04557288890492702, 0.012198356210393769, -0.04836233324092657, -0.010789608607224055, -0.0243018206639732, -0.008152546482005793, 0.008005637295580856, -0.017955230903363234, -0.05773687231617743, -0.048456650230198385, -0.040321049804385944, -0.030804409532805485, -0.0440961769013701, -0.04020507193870833, 0.0559509400755715, -0.030827197301017146, -0.03525122269364736, -0.020875199084273415, 0.020141615071382346, 0.048857043557336326, -0.01970711403538359, 0.02366029817385656, -0.022213919460380958], [0.0476300102654202, 0.036498591147241195, -0.030509482907670766, 0.010147003282358472, 0.04292866863169991, 0.003973021685152164, -0.0257498721577687, -0.03685082689378874, -0.015144952934570214, -0.006369733055658558, 0.03412817028543289, 0.04554663794142685, 0.01773076309804606, -0.008027790519418909, -0.02832015664182145, -0.04424808153007445, -0.0017199058825926518, 0.039324962991915034, 0.025569020592905903, -0.05861431853393864, 0.049031372874100414, -0.040698830602178285, 0.03483945701472398, 0.06104822751640025, -0.04874656569354869, -0.005366594062501491, -0.05417833363396579, 0.06295831145657071, -0.058184151648335375, -0.03851430873592279, 2.8501858993126192e-05, 0.017340967588090988, -0.014575488448482426, 0.04158165328475786, 0.01366734932083601, -0.002203807659337336, -0.018514277023130143, 0.03962156776385377, -0.020496829544486263, -0.014302050942082443, -0.0375680298899081, -0.05405584788585216, -0.02902837150297642, -0.059644980360868606, -0.05673965092246641, 0.019805448754627544, -0.021035504686364715, 0.035554279341562994, 0.015177260520344755], [-0.002325568808733331, 0.019472267916245768, -0.03677057046757328, -0.04738100141761902, 0.0016641865784171048, -0.03196225864098156, -0.03311844754391075, 0.026641505574179637, 0.05539122346553012, 0.026139412103429044, 0.002027413552361207, 0.040339342584257754, 0.0950258056360642, -0.08049749230954166, -0.04442672479066082, 0.0554361213130783, 0.021742359852600566, 0.06157857820847753, 0.03711815295512784, 0.047738263252808985, -0.04270299797278191, 0.029212376224682014, -0.032239965243822374, -0.019877336199456266, 0.09390476925628034, 0.058625365730713676, -0.01732864892391671, -0.1011536900293275, -0.002433018028520998, -0.05969510291740606, 0.04336732238869264, 0.07007139732855104, -0.00855702750050767, -0.022759110855528585, -0.04702992022467457, -0.06673002463593125, -0.03272341464921154, 0.05935474018584172, -0.02164762027285111, 0.04541143111912831, -0.025491672345160962, -0.050520251336891676, 0.04476906830493475, -0.033625019118832485, -0.009248550989177706, -0.024511089965930256, 0.00986115146106449, 0.02504409434502433, -0.0434710186613985], [-0.022566029519613923, 0.039919177388563175, 0.01982855419552653, 0.0008368665207856443, 0.0570788394991649, 0.016386162110798224, -0.029446055564876766, 0.025448895557820237, 0.03503689515097321, -0.06092504804116535, 0.03187963261950709, -0.03717515314519188, -0.04505135067519437, 0.028971369621632534, 0.028438028834899848, 0.0632319668262967, -0.0036165733864107073, 0.058723642530184424, 0.017063582429335214, 0.019211922347291816, -0.02109986632492827, -0.03366190374386588, -0.053868147910046835, -0.011483512835273347, 0.027800544414984325, 0.0657518089716805, -0.02120429726371568, -0.06387758454317725, -0.034364967996928064, 0.0432881534307019, 0.03756229458622105, 0.047803503759021614, -0.05103703508430101, -0.013557726370016007, -0.013262462915691626, -0.019370408818386888, -0.009470981820894678, 0.052992045015964065, 0.022966436531287212, -0.04668802566051118, 0.05101654501633096, -0.052765564732691186, -0.047734532263587426, 0.010723764358574124, 0.05851392812998553, -0.0025469311774837253, 0.02932841822860274, -0.03388471533586636, 0.027994279536303922], [-0.009221400150515868, 0.06406155065593806, 0.027932022268792423, 0.02435772670854226, -0.0417870143529931, -0.05931304833430439, -0.03996790162379997, 0.055341386784330024, 0.0374659238299827, 0.0648088270988771, -0.0016487680958012984, -0.006608283844526898, -0.09367037205866605, 0.12160150400228678, 0.010026786126854195, 0.03418106368933742, 0.007593522817779745, -0.0691180688185272, -0.03062344447697547, -0.020471965495316154, 0.04411496570449967, -0.04058275399199186, 0.056613797333571504, -0.034727049498281495, -0.07821317963231103, -0.10574324912095626, 0.016692947460182114, 0.0799834845636187, 0.00039894761895887946, 0.06695976284134324, 0.03847162970721174, -0.06928360493187288, 0.01022527539601615, 0.00834273463370606, 0.021193112785639553, 0.018200780382762814, -0.07494522192591828, -0.02629383546651272, 0.028789124010108212, -0.022066144538249788, 0.016137649572437775, -0.003715732745710569, 0.054462956723655906, 0.04457534995629333, 0.030802584945238604, -0.018886254312046567, -0.026370391226912954, -0.058906296261146206, 0.04643739461723755], [-0.033281080093642765, 0.06421156884027339, 0.013753286073207907, -0.03813226502676137, 0.038160993640563835, 0.01484886335581846, 0.02093003239224611, -0.011324515219766105, 0.005621484986720178, 0.015138911304899477, 0.020612076838979566, -0.04128423584858841, -0.03713801166152675, 0.10128352029688649, 0.0394357011602697, -0.0012478381804320853, -0.006003223287145297, -0.06030071651257905, -0.045332717227166995, 0.01701809751607287, 0.11032511228849841, -0.05910250789635584, 0.03372429989297474, -0.026895605968278863, 0.003388234293070896, -0.08753681016373822, -0.004003356323170817, 0.08299529091624344, -0.08686665669519504, 0.056218724865550664, 0.015401478283597553, -0.07200903883816509, -0.002682332219009094, 0.01644503373712013, 0.05313684357350947, 0.020495578704573282, -0.047923994058261754, 0.007795578024606162, -0.006930948462293126, -0.021284735482692572, -0.029929908417679344, -0.050655831714435634, 0.054978555406751284, 0.07291537058849984, 0.0016473915013971926, -0.026646837143022455, -0.028823912070840955, -0.03349729485934636, 0.06707229295549486], [0.03720808118794987, -0.015844175056154187, -0.12306587440045233, -0.016142512774061653, -0.010546217531038848, -0.028038103657326556, -0.01722140638688106, -0.05710921510462992, 0.050134003164375794, -0.0870970417461424, -0.04742438119010945, 0.010742291124456687, 0.005997482527273851, -0.11142495204953325, -0.12119756071653821, 0.006529630955002685, 0.06672533104443865, 0.12147956284152707, -0.05284535849861355, 0.08110088178569465, -0.16192095513478552, 0.050193607704826004, -0.0010089548564698812, 0.024747063546918937, 0.11325091274135582, 0.08679678938934665, -0.08223698130975791, -0.11939642280087277, 0.06584521380211385, -0.07425628511080576, 0.004904265195965991, 0.06620910346664236, 0.06858603834024886, -0.08966588653080976, 0.014307096776758697, -0.025820248599698316, 0.057074845008216565, -0.017144392256984282, 0.02150872426031439, -0.05490329837206376, -0.05180675094310633, 0.039755420459482965, 0.03932269838698611, 0.007752416121989582, -0.008490471530396712, 0.05388662153431759, 0.05466642232405406, 0.0650762462634023, -0.11273473713043021], [-0.018599024872994228, 0.004073197726380866, -0.00785048851359111, -0.030035493281823554, -0.052935879889957356, 0.03527240987048099, 0.03207629785381624, 0.02186950972750303, 0.03914590220955555, -0.04287933482090316, -0.024619139744350312, -0.004167905937548106, 0.02656514471574792, 0.07998018546620161, -0.0003905657060807389, 0.059815176065847304, -0.024049912310145197, 0.018268860163751927, -0.036586366130840736, -0.02887193144351142, 0.0569467549533719, 0.02909694097439825, -0.045205810212410553, 0.029858365653259823, -0.045188532393095816, -0.051175860344965074, -0.04677838013791279, 0.020503832805478787, -0.014607353706745875, 0.0063560587548520155, -0.05719706140547055, -0.025500382493679436, -0.07147793265981386, 0.036416179661513524, -0.003129003979112506, -0.0012740541630666465, 0.02426072520971386, -0.05824213193413562, -0.03163319558910714, -0.02362897896894388, -0.016586597756122562, -0.03992153794611234, 0.01999861405111114, -0.04237825926878215, -0.01674906155614113, 0.05672735895871272, -0.006679737514452973, -0.06400368003139291, -0.01632517840217299], [-8.739776388518342e-05, -0.007325708746337687, 0.00014497983172453473, 0.045443194285286266, 0.028124335836760963, 0.0029949333310459285, -0.017613413799482832, -0.024562179686086785, -0.03291455060773943, -0.009151366842315512, -0.07179392792605857, 0.004337025295928253, 0.07965082849420244, -0.18493124218294604, -0.14195364888665055, 0.03686994245126889, 0.03213070527568957, 0.12477713728795715, 0.02246056879821111, -0.01671406779717175, -0.04288765426069028, 0.04419788794056145, -0.0854774876401181, -0.0025678920788045913, 0.10530883895502542, 0.045369924739628406, -0.03764552479819615, -0.049119355473428654, 0.0836852387857186, -0.011395153762056805, -0.03689145354708467, 0.0030488461102201707, 0.02354564951879997, -0.11231201454846758, 0.016937451738773614, -0.005551918149415187, -0.007654194440689046, 0.018375574154441576, 0.07147395796614764, -0.002879850875046268, -0.0606501947675643, -0.017873988336480996, 0.01617484820166923, -0.06109244239036009, -0.006487563146014674, 0.045031920609687845, 0.12905296417594572, 0.0652603433656691, -0.012689958032564815], [0.05354859315471642, 0.011446151967855953, -0.016269975020078622, -0.0031082711738022765, 0.011338134682449708, -0.016688488215246277, -0.02387970199324106, 0.021504334980364217, -0.017743904894288003, 0.0414896774341634, -0.012428961284242574, -0.035363538291710114, -0.032808745060456314, 0.04048893638612686, 0.10209624305854788, -0.052593122144011205, -0.026809063263827364, -0.09566546877737796, -0.043080680455805806, 0.03546436522030697, 0.0629629621868657, 0.030726386289891734, 0.026118685717467116, -0.00823950935846392, -0.07440821415947854, -0.020158741268957833, 0.04546070902764027, 0.1049630407932553, -0.09294620200261054, 0.03680051229008893, -0.02788846392275404, -0.028168342575672228, -0.06919558475252698, 0.028884397515946236, 0.02385247314689776, 0.060267179903474875, -0.0011112611338399444, -0.0365217222052448, 0.01951614153623928, 0.05526055014928609, -0.043154203967758924, -0.014159933743482164, 0.052723823052963095, -0.036911268279205565, -0.011388363624823594, -0.054495169677895784, -0.09446403925301267, -0.024233070848754607, 0.022961163313550748], [0.028758746047275238, 0.03559616425010215, 0.005799867028736926, -0.02747717369618528, -0.043103900983167, -0.02912224092156612, 0.016124246331576855, -0.019370729850008147, -0.02834313027658837, -0.016109332047571277, -0.059780919304077224, 0.023149334387996632, -0.007399583270810727, 0.008493217623363742, 0.015074338595739985, 0.021624849218035615, 0.0545005473605954, 0.067242421141883, -0.04798637321457549, 0.047135670872546234, 0.030858970604799266, 0.008810196250473721, 0.019660461267160256, -0.02661119142050343, 0.05780339337356359, 0.05656316895995512, 0.038796058073528206, -0.022469658512162344, 0.03014696639742395, -0.04705243252805681, 0.004835534111760606, 0.04032978830876631, -0.02217986292599133, -0.014476553484968405, 0.014174644467880897, -0.05064247949657085, 0.027196685611865844, -0.043627479385745946, 0.035716860492544904, -0.046391216535419194, 0.04958295774875557, 0.012828848052108863, 0.01712295698907726, 0.022447902582177215, 0.046565973065045244, -0.014317030256250687, 0.021725817427317235, -0.013285216961316494, 0.019809882544757546], [-0.029753748993656907, -0.0464703104586122, -0.0795372222415388, 0.02144092344681707, 0.026034381779281315, 0.052230434019517234, 0.05255740240505755, 0.03144351158455259, -0.018142752061981866, -0.023635530457547755, -0.01414748582036655, 0.005706072583813044, -0.018642917099855067, -0.051002539159380675, -0.038621862644513796, -0.0488116379117415, -0.028216853062609536, 0.08473231643963319, -0.02989782808572818, -0.01972908580428766, -0.0918318307515152, -0.031620220478528124, -0.0246727467266369, -0.0032567747735923218, 0.028586681300491988, 0.03912912693246482, 0.027216467709980815, -0.06545201909729763, -0.004820439122740965, -0.07455990647511605, -0.0371829737062383, 0.03107230558625478, 0.06853919105462018, -0.0762087519484556, 0.02004891604397597, -0.03430782572388221, -0.01455972393032154, -0.048015981056724076, 0.027716029144770636, 0.03725889053204963, -0.06573238556970858, -0.003507617247126789, 0.02610104647106322, -0.058495280015883964, -0.0001472413035442724, 0.0584209187479417, 0.1044284099489241, 0.011699335944078319, -0.0727652091637896], [0.019021249577366627, -0.0012894862994494627, 0.04429076399985718, 0.027757040640308296, 0.04882546785625089, -0.06356203616903067, -0.04955776268912672, 8.547404354592733e-06, -0.05378105099745695, -0.00772460409545292, 0.010058806358942306, -0.05959789325244004, -0.10829701960997162, 0.1550693775644814, 0.07666984070025498, 0.05525186934577254, 0.0034069352439334527, -0.03520733273581961, -0.008465875712239786, 0.012012968076136102, 0.09086242003355206, -0.04019278865330688, 0.031241657781035985, -0.0002262174057272635, -0.034365282215051876, -0.10537721364554219, 0.07351734760751938, 0.08874781583455263, -0.0975249949974167, 0.056868486162047996, -0.019355549392642894, 0.010804441392510971, -0.03176405122594185, 0.12035235338331497, 0.007097132335433106, -0.012101103764288117, 0.03867193492025479, -0.048986926454760826, -0.06072956021751318, -0.0466702813301139, -0.009758541773658565, 0.00929403422020908, 0.04136275999205451, 0.03467591120903283, 0.0006284140482786041, 0.04978815752133721, -0.09013555091288133, -0.044121907074539966, 0.019863148381799735], [-0.03598018293598693, -0.03635865896222968, 0.019823914687103875, 0.04766063852698979, 0.027629817717060464, 0.001880986447363106, -0.017727246580077852, 0.027870665865062365, 0.015033860944127883, -0.022275946632313196, 0.02753768479085831, -0.040622423409617914, -0.019647188331928595, 0.10539793536042848, 0.08305365322092075, 0.04278702201958544, 0.0282587400627219, -0.0013662364640337407, -0.057849453274261046, -0.06333783887278019, 0.044245076222677086, -0.05108022865954101, 0.05585531477721224, -0.013922959250552867, -0.0958144820155384, -0.07067981679418546, 0.03658438675878191, 0.014143459944947314, -0.058330892762462165, 0.05452228407440511, 0.02204407613387166, -0.024416932912125676, -0.09568184249139113, 0.03792035739140085, -0.01264265656478741, -0.04699315164135995, 0.025974597054549176, -0.011902427410322436, 0.026039843039771728, 0.02641346329092309, 0.03682283393652462, 0.008868504332482333, -0.009175385054051292, 0.05024531739094807, -0.025854675158015032, 0.058153810373149345, -0.020060191419596293, 0.002300342926642777, 0.08394371287410095], [0.04888471131165276, -0.02586159350453259, -0.05325069077979386, -0.03240682354706037, 0.050424046252260615, 0.04149500907081649, 0.004589624641337903, -0.06020469245829063, -0.016033232257052193, -0.007196100446533569, 0.021625380682628623, -0.012519793721651889, 0.0213145408110408, -0.04182402485552313, -0.06515433147783971, 0.0353483373164814, 0.06846600414187529, 0.05504154181174265, -0.0011247051379309758, 0.021934521539845035, 0.019863122585555074, 0.05681017688456392, -0.06301669063752983, 0.004450444874515682, 0.0447149894794497, 0.07957679671558367, -0.032978025458079346, -0.06878441225879288, 0.05019276588769314, 0.01441718066323611, 0.021019191085768937, 0.031919371454360614, 0.07151517399104411, -0.0733257432842947, 0.05924133183846177, 0.03424878698512731, 0.004300031080865764, -0.0012661433418361262, -0.011982503127816862, -0.036492131167163724, 0.020212513595911093, -0.0352579216818813, -0.016701480976332873, 0.0531416668405716, -0.044467341759887535, -0.03991108586634331, 0.09468798001353665, -0.018367213375107334, -0.01880602828692418], [-0.030789439846962325, -0.002408471972210793, -0.08411687671551728, -0.053680761106413226, 0.01004271875074431, -0.017577015884780164, -0.04400114268452573, -0.01640559902180101, 0.016674691736219365, 0.02769260573138689, -0.09223043366114837, -0.02472125292135317, 0.005670612807869551, -0.012834327585221936, -0.06896855674935781, -0.04530409519325142, 0.033228927345812787, 0.08099064521982208, -0.059044957502636136, 0.06453277152353908, -0.008192291185775484, 0.003423020421094746, -0.04685041192326371, 0.014654128563937332, -0.0026844782580019745, 0.040393701916397455, -0.07039259826167761, -0.033273595783922146, 0.015844283909579624, -0.07381559041037984, 0.03976506655751668, -0.011973175156002708, 0.08984212997227081, -0.04636074923954393, 0.027258729988106495, 0.003639893271166847, 0.01956768647293779, -0.010498769464874914, 0.0734764506640242, -0.01388563834720738, -0.048793334531797225, -0.02490071104488007, -0.039055420658953545, -0.053727362719614334, 0.059163903081973404, 0.047381538075439274, 0.033412921395924465, -0.004071660993159887, -0.08803004649848346], [-0.0028815503208079606, 0.0547439327230305, 0.09030860521070846, 0.00826798048872345, 0.0191162975355548, -0.014831033755008211, -0.030591841747303748, 0.02762659052715497, -0.03448336897987594, 0.035415740808985366, 0.09441411279620114, 0.04566481820935152, 0.01960909930752754, 0.08601115244809265, 0.0470703034491542, 0.009558096829422467, -0.016109417916897063, -0.09687316147366931, -0.0035734939496955553, -0.06536536065058683, 0.04689375282316532, -0.0791048709025593, 0.016570741207812743, -0.01973949381009804, -0.05284160807784359, 0.006568290698363678, 0.022832461770097123, 0.07704645913904233, -0.0685006770241075, -0.010704483577157396, -0.022505020209792892, -0.04106465096878754, -0.08635739436060705, 0.09450400439260424, 0.009891663184309101, 0.040048054186553515, -0.025086481778650305, -0.03999532812326119, -0.028406314652742973, -0.03242309790633166, -0.037427026468500865, 0.010581538691629325, 0.03764476552298275, 0.01612391210282968, -0.052250724030417924, 0.0552241357160144, -0.09865247641359895, -0.0882250782962373, 0.05748601149328988], [0.043146365523433206, -0.04582009222893138, 0.012766207846245853, 0.021664654287391356, -0.003997903054594422, 0.01175797274263382, -0.006771845337789798, 0.04043677082713814, 0.06335203539598169, 0.012806375557941728, 0.016934625020905723, 0.0496102047659948, -0.015423397549739568, -0.07435977375642394, 0.009948106668952619, -0.04019822968517157, 0.030423494597605853, 0.0031132136838752864, 0.056460129168161066, -0.02025503675302101, -0.07936082272507299, -0.020999828754393608, -0.01700359617643113, 0.054294969531821, 0.002084841935607366, 0.04804834307243995, -0.02931381394669952, 0.03812052139713475, -0.023894584398626274, 0.012355065541676107, 0.041215468121885215, -0.015570787357424922, -0.0297914119922243, -0.029496359411400105, 0.022363634929192227, 0.0038682852391823206, -0.016939456926455737, -0.055064136359012715, 0.06332393654600006, -0.058278939775217836, 0.024798660820820984, -0.008049842189165955, 0.013604073188099197, -0.05014269018595881, -0.006018407195299481, 0.05016614224734445, -0.0008958679031657305, 0.039818304010262415, -0.02784589734310894], [-0.04799662964881441, 0.07680997402250715, 0.08285771230063169, 0.027957346479545692, -0.04276844690051135, -0.05766751260265254, 0.021195264939281686, 0.02168209682716573, -0.06138243806980779, 0.04609977875264395, -0.0038613400266259436, 0.00037202544779383923, -0.04338914080964951, 0.07993984160652272, 0.038214661981405336, -0.0390962453696211, -0.07835346940152439, -0.007200232963700691, -0.03850152853337624, -0.00010610743907086606, 0.04565171281156563, -0.09106688034182983, 0.07706129239648492, -0.04595213279074616, -0.06720559596027108, -0.012689939443834444, 0.06781046884449052, 0.0016719924605076385, -0.08312830688151711, 0.0332459216745376, -0.033165693392807075, -0.01113492968416463, -0.06699387302167371, 0.023784796707281806, -0.006601837720703424, 0.07006973630974904, 0.03850863255651706, 0.007148719710418486, 0.024163046865871625, -0.019366646774647105, -0.0479761028498986, -0.04432058515490765, 0.03912844471590071, -0.007252489734435897, 0.024879767747053583, -0.008463514756817775, -0.07260400174560809, 0.003543536742371918, 0.10507408340333269], [0.027481993866685133, -0.06352064266829469, -0.034105579060674025, 0.014692085896927564, 0.031651353515777886, 0.030605674005010956, 0.05452511985006861, 0.0022182985794470876, 0.05734447410004327, -0.04404717073838517, -0.09956009312356098, -0.0025985985573738707, -0.02089531520580844, -0.19394613490313628, -0.08074687502813291, 0.022555269033395053, 0.07579728887226639, 0.11178475240420102, 0.03299121204375911, 0.027930184528622767, -0.09194259245079396, -0.017468092870079572, -0.02199725381273171, -0.06202737468552409, 0.05014159061559748, 0.08271845305955061, -0.019590636098575188, -0.08609977848270002, 0.07844314185907765, -0.03444555115156381, -0.00484440299562296, 0.03211530409614337, 0.023808145227029814, -0.0520124624651702, 0.057880903828812544, -0.026796892528652895, -0.02674785429048734, 0.03205518028432687, 0.0176695960068902, -0.008819751381872305, -0.047249211989019525, -0.04483714623285903, -0.04762685893486031, 0.027950771125436272, 0.028562185694542983, -0.018601557263833376, 0.13874096981419937, 0.06145747480280932, -0.08250661533546252], [0.013604361392723653, -0.00807145031096195, -0.005655187091510961, -0.037741614491622076, 0.01893317553936902, 0.01869336743390448, 0.008937738779832559, 0.05760553584746843, 0.01940361464719431, 0.04381368412577257, 0.06625113833090088, 0.00167828149179535, -0.08468673579248975, 0.09576549741117318, 0.04684748750261276, -0.020942796867043346, -0.026627425683827005, -0.022058604359261245, -0.01733813618900451, 0.026168123075132495, 0.08899373978362607, -0.019605683142620036, 0.06832049675039599, -0.015148835614208668, -0.0911738169896322, -0.005350325476774969, 0.05629438163355604, 0.07707475886772397, -0.10028244613767427, 0.00868413890162911, -0.00833220299655134, 0.01366505936808691, -0.07236238145793171, 0.030191566277655776, 0.039893640814103654, 0.023713336781344574, -0.01830408058116758, -0.053682991557726246, 0.02115627669621811, 0.050523204425475324, -0.024505033274849618, -0.027279824474499614, -0.014317506127301538, 0.049410728875194355, -0.03822831279146457, -0.05390166359443749, -0.10897517531802925, 0.013223705459556185, 0.0844394471717248], [-0.024535290867858814, 0.06198950980816155, -0.03148748913510177, 0.002862890345275076, 0.023109497066944023, 0.047431808389497385, 0.044491449982725244, -0.01578632323333847, -0.017447960976719967, 0.03610628031370304, -0.01404421717479999, -0.05621824728890957, -0.0351802705916985, 0.04922177750391897, 0.05292033313636796, -0.03272429939167083, -0.01689572068789558, -0.02161226946406436, 0.04119580620517829, -0.03183787552398278, 0.045263257283367955, -0.028945769446645116, -0.04979265605784106, 0.021806987446716455, 0.05237937589251791, 0.038302473772271105, 0.05307425059796902, -0.0382023238191513, 0.04092146091221134, 0.018797917681375214, 0.002165352498854384, -0.00649381128348316, -0.015094661911601191, -0.015955265039713035, 0.020944710078082327, -0.058317987606166494, 0.04171855561364957, 0.03952659904824339, 0.03651781271520449, -0.05984414276142828, 0.022393594646179422, 0.044077831944420165, 0.05665262939566251, -0.021963352775516237, 0.03912793315431781, -0.02557876178539652, -0.012568832207287765, -0.04996033858758631, 0.03921445531745071], [0.04765820745001727, -0.03904867210104686, -0.04724181552825053, 0.04198623110609094, -0.004217092897643169, 0.030689774537760003, -0.03882109440704527, -0.027190192850202112, 0.03206986808624752, -0.006189894666919062, -0.037996592789146, -0.011365456374263463, 0.04640860067932608, -0.04486893032240984, -0.09228047333968926, 0.04693662086686362, -0.0210890620653652, -0.022597262799443612, -0.01059562383508468, 0.015500003155638886, -0.07165843476613962, 0.05646379978447338, 0.044603281750024336, -0.04490253438138833, 0.05998639219035958, 0.005586909616617475, 0.029672064214187555, -0.054076484431926385, 0.022359632678223367, -0.03317210017351664, 0.005925413370893577, -0.009040242292071045, 0.07708422828880537, 0.014977451620607877, 0.011146901131371812, -0.028886578057810062, -0.03292968811389391, -0.058565518917737265, -0.0038603188309432406, -0.0037906451844777825, -0.056235014310815845, -0.03426487095464721, -0.04093836535548405, -0.02790736953032237, 0.0339689510033825, 0.0014876047220528836, 0.022375551765982157, 8.348961725750964e-06, -0.018305338371545396], [0.0330760160263906, -0.008996149968483542, -0.0350447974765349, 0.023898032666665323, -0.02250758163129104, 0.04316380862383307, -0.028940724297457348, -0.02199791689367167, -0.046014411699603464, -0.03800694164506155, 0.036172688991507065, -0.005406762164936578, 0.0477923429644202, 0.05633331669054105, 0.060012309150248924, 0.04960619433039326, -0.036119688897493334, -0.012616830626376868, -0.012328262452008992, -0.035647106368150126, 0.02799846147114819, -0.055217952729474176, 0.06765860038954091, -0.033790480235730704, 0.010071753573299947, -0.03707893024772413, 0.051915752473669065, -0.02119685823941974, -0.032547898631775936, 0.038084685385645446, 0.01108460047603626, -0.0007868294711907827, -0.011480105580276942, -0.04425926788568057, -0.03608051723827146, 0.028052691237233102, 0.00797811181464431, -0.03980081977936095, -0.06416349250928945, -0.051128351204782645, -0.04039763337996833, -0.05815506420178486, 0.023392482900015027, -0.01293562778579138, 0.041703082895341095, 0.024285990475142998, 0.022216754976731524, -0.017709122925074462, 0.030500588982005753], [0.010229374103604442, -0.06310237744315599, -0.07047612932632304, 0.04838158146896485, -0.018991067445969515, 0.011134040602771036, 0.0692619904160326, -0.06079325029397238, -0.001487775643799198, 0.0007826562070925875, -0.10080767760688689, -0.04997089024984149, 0.08413803349930478, -0.1594556273906936, -0.019030028926686635, -0.03862653859736389, 0.06366265532979128, 0.025796032291314396, 0.0045447287652266855, 0.0877618144409328, -0.03960490363946147, 0.07285326349290241, -0.0495138371579419, 0.015786308408360445, 0.09672684864418153, 0.025419517652518, -0.04533300182133275, -0.09671965267386223, 0.04708662649474591, -0.06341485459846663, -0.027881843545699152, 0.04345695115134708, -0.002534766036754056, 0.005987828910565195, -0.009092726975748188, -0.0647486954155017, 0.024812707044754034, 0.011267967241992874, -0.013780017301447775, 0.01607629132552929, -0.0019456330501295739, -0.012436281915089623, 0.037166784600775674, 0.015979953430257883, 0.05945575443567434, 0.04439288235316803, 0.031961641949263, 0.045196188797264905, -0.04304702794021248], [-0.050650364434394635, -0.03145523125913834, -0.07409596484301526, 0.021778211149693194, -0.024376580272909242, 0.04928795549671806, -0.0069555293807087165, 0.00018105884270841574, 0.021002465065812707, 0.019113781946085737, 0.0009064989475834959, -0.01355791152111626, 0.043092653915856295, -0.10108857493496276, 0.00627554841409687, -0.007797276893787808, 0.015273923384193826, -0.023142578522124806, -0.05380884349625102, 0.06416717944177304, -0.049239364502502624, -0.00016512777515675312, 0.033227807782856146, 0.005903812918153867, 0.032573266557456036, 0.07091912377177884, 0.005480723844081792, -0.07511661142973082, 0.0499989173682015, -0.016395989936578648, -0.004370540071811227, -0.023049125814133962, 0.021575179091611624, 0.013604431145272225, 0.06109256493316045, -0.015496215348827731, -0.03121768098540624, 0.04112005900253776, -0.00015710233157960365, 0.03386751367425009, -0.025357206884745784, -0.005200430699713508, 0.0594456128571311, 0.0013527552091456062, -0.05177977149128169, -0.05578104787974074, -0.012627395970511813, -0.0303879831353074, 0.021170871026387535], [-0.042222101077323965, -0.013912519998168778, 0.02852092815378896, -0.007085424228509686, 0.00712154067979991, 0.009243331177473061, 0.029065179027765734, 0.015508110809218259, -0.017734389455675924, 0.044847280444377344, 0.03990898865943518, 0.039535581272436164, 0.011396740292085698, 0.00812937892190875, 0.043540902783990976, -0.01365142824048803, -0.0515909403822, 0.04245670108828433, 0.03477862223999725, -0.012810840960715915, -0.0031881816423672766, 0.03899315626856788, 0.06834180808844874, -0.02912591185689916, 0.0170078404342136, 0.042833928909762536, 0.008248948476797056, 0.06303213052270493, -0.006632905559826374, -0.0060677839136337305, 0.029845935754423385, -0.012049984411889222, -0.00423039545143345, -0.004074698654894482, -0.04437410871078073, -0.050366958169241104, -0.0248832462837315, 0.038422836404969546, 0.04702252966869124, -0.04554688367931781, -0.04762020223239522, 0.004640660130327823, 0.015479753561672582, -0.024948095147246836, 0.055059743095516867, 0.05455931789149458, -0.030832398051993733, -0.023505591896772052, -0.02932846177616597], [-0.0043098707807724115, -0.008547776470579091, 0.08915069409686775, -0.027818260248741636, 0.024473330586447215, -0.052092947339276295, -0.05758291856070412, 0.0019296994607303965, -0.03278256500677515, 0.060399325866484964, 0.04942123794606887, -0.02820388428916264, -0.042110747111881064, 0.10955327545696525, 0.11981643642493087, -0.0019673822990131894, -0.02088888996899872, -0.038430636211290996, -0.04211137965512433, -0.0029827264518902923, 0.10326026040339661, -0.06643111159142258, -0.016040118613007158, -0.04358239715030189, -0.07027529098413524, -0.029791326339698117, 0.07928897581520253, 0.11200832105120023, -0.08824280602039865, 0.016462417409364015, 0.01488182129381798, 0.002168395904415402, -0.06117706625356161, 0.1308439038483751, -0.055429531209715006, 0.0699491959885578, -0.046879794885382645, -0.02896929316762964, -0.018311875894059998, 0.03756952541788723, -0.005751078077807558, 0.040849531615340204, 0.0017813755828573752, -0.004838123050511838, -0.025025944993428743, 0.0053862173203776675, -0.020062932559970086, -0.039766668599544114, 0.10917879129406186], [-0.004794047437645725, 0.017434485012459335, 0.05446304622460146, -0.004763503772078143, 0.03634741187263136, 0.025238321959819954, -0.0574045301702146, 0.05654774640089847, 0.021524825317493283, 0.019781476560742344, -0.04067361609462504, -0.045609552371746784, 0.006394385190678894, 0.031654767292240836, -0.025297194675904452, 0.04718157290744375, -0.04661356051633358, -0.021315086433874156, -0.015886013001717394, 0.03948461240926864, 0.004221128126318492, -0.061327682772801144, 0.010037905449017129, -0.035208434564914876, -0.0410910165736974, -0.02803002632827278, -0.045037179565156, -0.06237956958002798, -0.009314359256750135, 0.04291317055627866, -0.01323162255620109, 0.05610030184744126, 0.00015945405668679993, 0.033093855832705694, -0.05170267074132313, 0.0033067684172911936, 0.014539151698633708, 0.004792385692248033, 0.04568526278875881, 0.005641002987273047, 0.03068119937865744, 0.031634676693961375, -0.018359061272844632, 0.001234367090156404, -0.038405051955021946, -0.058540120382801986, 0.010345612058057809, 0.008964152631725227, 0.017459149586553206], [-0.014534443097150549, 0.06193871404715679, 0.023237207422892665, -0.010883854401627644, -0.010418899250090834, 0.0254610318315279, 0.0458926802332687, 0.010275052066062282, 0.022996481305270034, 0.01900404919191259, 0.011254453696141767, -0.0345908058903405, 0.032168557535078066, -0.021964358510912625, 0.009836132469003594, -0.037829054660365846, 0.03191822226309673, -0.036309736994739536, 0.025819285317465038, 0.0032327025448583156, 0.020179941787610577, -0.04399926431906722, -0.04135681070077296, -0.018068779489657395, -0.029511543904337637, 0.023419638228644343, 0.03585198981333974, -0.021294185185699598, 0.019903232865413564, -0.022266339157813855, -0.037411073596770913, -0.045103990766744435, -0.060090552191985426, -0.05896907426513567, -0.04773827564446074, 0.0032684738902181354, 0.04455472101611985, 0.040732688447275886, -0.05354129272662279, 0.002714574511404791, 0.005263193992295006, -0.05473780385735993, -0.01072979486359378, -0.02374789235022985, -0.05766931471770742, -0.026785470667301494, -0.021124391660807353, -0.035975587171550916, 0.043761784896942234], [-0.023060064761190796, 0.0022775838319445824, -0.022036174921399063, 0.04225040779111971, 0.04480941792109945, 0.061040432056401736, -0.021489981959408256, 0.005970909922090285, 0.008340500145111285, 0.022241839309012534, 0.0022131364680313104, -0.04511375632888883, 0.0477111215610522, -0.033861886216476095, -0.09464539948368739, -0.033005064673987825, 0.01195965162063267, 0.07310002710106275, -0.02496437067383256, -0.010024341562697981, -0.06241348889918529, 0.050959877724474294, -0.03476405485047255, -0.05097747801393537, 0.04307474765120909, 0.0805995764011361, -0.05192411730983205, -0.09275144242664904, 0.08838016086771384, 0.03848921675055592, 0.01971217895503947, 0.027694564165197794, 0.01746192433443271, -0.04832416622615107, 0.04610743772944519, -0.035004462643450085, 0.025772700939558787, 0.038445584927211826, 0.018432069500736652, 0.054460037266935934, 0.04451288645455422, 0.01797933163052305, 0.051699666182202675, 0.049869518961334264, 0.01996369649378657, 0.01833279596385342, 0.048959376650850185, 0.034055403598154864, -0.09419852788727737], [-0.004130421761136231, -0.05775092751334482, -0.03100279424153336, 0.0065488708055285935, -0.051644997745477095, 0.022232988790667783, 0.04120418358652256, -0.06705405885752991, -0.01613904152525391, -0.040283953903405514, 0.0004310920395397734, 0.00937681647020417, 0.07433097109208542, -0.03021804532745024, -0.024246846853021333, 0.009883916076801573, 0.03165754384934033, 0.05568029640819505, -0.047376748255028925, -0.012285185975867488, -0.09077966753245774, -0.03712658669036147, -0.01706559390830466, 0.01180174122042073, -0.022406907412556062, 0.03031680850789076, -0.014203997640967586, -0.007978707917332574, 0.03892692124645151, -0.011969726384161264, 0.060652522406457104, -0.015873904993935147, -0.021450197949588846, -0.004192759582488272, 0.02531576655715581, 0.05066969700131957, -0.04648539130319848, 0.012182823059940673, 0.05613432722094729, -0.040460169713422464, -0.05610945511566437, 0.04042716282463939, 0.0002858923801559998, -0.019386680121835153, 0.047604024665221636, 0.003784389541822078, -0.009068836401256906, -0.03705744138131605, 0.011450003694729184], [-0.014327448577786799, 0.02611419930102237, 0.0010008200614273462, 0.05047802463485607, -0.055918209520678025, 0.017149630363982104, 0.04709619356996948, -0.05698350176338266, -0.021409349510446873, -0.02840262327390199, 0.04510982845983529, 0.014615556351594257, 0.05852890281988175, 0.02407584507357687, -0.03541504253937034, -0.019891201142847717, 0.01623854112726497, 0.035148071313432235, -0.05713337182278984, 0.0011885384237978074, 0.001085491824700623, 0.026127628287985222, -0.020162875587781365, -0.01630711485002161, -0.04963881708544804, 0.05118763073070474, 0.03916667214696476, 0.011209620161380026, -0.011873255479675774, 0.018485630107242412, 0.008315863911666848, 0.03484817185869038, -0.002457047829170848, -0.03959494541942536, 0.03025097796446644, -0.0084735491943074, -0.043230257382939404, -0.022737453175178522, 0.018102409481496218, 0.03937520675322455, 0.04078188200601952, -0.031012398223453315, 0.0234142447942898, -0.035550000489672565, 0.0343380159203375, 0.0076860643005597406, 0.009839438737590894, -0.04730156944448693, 0.012616082654219178], [-0.05885149480110483, -0.04431554758836369, 0.024854740248185774, -0.005295165770523521, 0.01390247256992914, -0.0477575562217435, -0.016128541765914575, -0.02622754060343056, -0.06085895746161383, 0.0063608062971622125, 0.0071295234748477475, -0.027803896370285498, -0.026243164804587295, 0.09766191655370325, -0.011818519450197087, -0.008487757363766989, 0.03279747803316, -0.029518034280509493, -0.04779910874832986, -0.019189318494837147, -0.0034984478692327626, -0.04744238434612711, 0.014891554259910471, -0.006304666662841221, 0.025647306013335584, -0.055505407177969084, -0.038182937491448236, 0.013602278728974222, -0.014554400507851045, 0.05588094335084357, 0.03538217756924241, 0.0378001480530673, 0.040687735058346226, 0.01487779326565283, 0.05764451702340408, 0.00914786936354035, 0.040235233576314845, 0.035495909062146475, 0.0015341232363332202, -0.051260140677580425, 0.032358000445992116, -0.010584581483372886, 0.0321522514421847, 0.01029722372891287, -0.005389164155949769, -0.023050085686587188, 0.020439238529984045, -0.01819727081221236, 0.055864712144436605], [0.0527105785250526, 0.03993530657361103, 0.029423579719273903, -0.02553717308847772, -0.003273022210884945, 0.015455973253191216, 0.055785617922453234, 0.03444671293141176, -0.008540666066180067, -0.05322951260741978, 2.5527857268346515e-05, -0.025367775360029692, -0.015658846925870593, -0.012984526381263312, -0.012304397509093729, 0.003938131413005558, -0.05272366721345641, 0.014065321514094314, 0.0058558971238365926, -0.0018096978406692598, -0.033572910611079365, 0.04350619194081128, 0.03894221506531184, -0.046260320098075985, 0.03422564757890583, 0.019500867746802694, -0.04170209315792883, -0.05142067817270171, -0.022074356636085406, -0.004313113665610462, -0.03264552045404767, -0.012712631830062458, 0.034615295103078786, -0.017566561013282977, 0.040622758136000324, 0.02901425730069197, 0.006257491268872815, -0.03339929735898664, 0.040582419935877675, 0.02558688035363603, -0.01683375070768925, -0.049693144545649326, -0.02946691685428218, -0.042203779888275304, 0.0037693974957548892, -0.021520804803501162, 0.06725636064836044, 0.002388788312372718, -0.010407583750423452], [0.024452919646125656, -0.05471176504543176, -0.06837818609293667, 0.012081549965516539, -0.042342548221088225, -0.02274490964872355, -0.022396569866445844, -0.05757891803356822, 0.06035263449219299, 0.01886001807947314, 0.004326677507471582, 0.05158230690847176, 0.0161700864914239, -0.10052819947700938, -0.03312767572097156, -0.03758877759556433, -0.008577687431889244, 0.08148300298383729, -0.0512760752899816, 0.06246340254208126, -0.12083948106628627, 0.04617274483334101, -0.09048529995788282, -0.011829245343217136, 0.07233348172133126, 0.06148302833709263, -0.07884394240590673, -0.11111253691787128, 0.0485012046031336, 0.011236587850689464, 0.06180472024226252, 0.027641331803881068, 0.012475055745739526, -0.01852165617588051, 0.011766339842675232, -0.03651858158670396, -0.018232181506539023, -0.03642654720890832, 0.05682913655054031, -0.008244803234088362, 0.018783145615201367, 0.0022601615059105185, -0.02365956365348875, -0.06286006818214786, -0.02338234237928139, 0.040710537907050294, 0.023273991953871892, -0.01149539551185719, -0.04711962565754371], [0.0576834965499317, -0.021236783144659953, 0.040239069275108744, 0.030932981915175045, 0.05130942445947021, -0.030072347450510968, 0.014991057398003849, 0.011794062431143114, -0.04771973137478273, 0.045046503834118255, 0.018540272402803017, 0.013645048598198895, -0.0655435437469742, 0.0534721708694215, 0.029394297641704654, 0.013329163468551604, -0.00560268468132999, -0.04274158319506942, -0.05411524170667373, 0.0099206939633458, 0.037329212610827396, -0.02914419746211689, 0.07431769269144542, 0.022230920258711557, -0.04176452133295646, -0.009913989439049597, 0.044824984242925914, 0.009443572433247994, -0.05868695008362749, 0.0015503522009318847, -0.024622465672844412, -0.058997499652672536, -0.06347473760272943, 0.030927894077477182, -0.029597631248544257, 0.036024797865355666, -0.04147225614678499, -0.039882765950278495, 0.027500831385708708, -0.024383316899666226, 0.01440508025218273, -0.03990292284053069, 0.009461868716082969, 0.020707981819573118, 0.013034939277307409, -0.01697114389936837, -0.09105689032374442, -0.018765275699361303, 0.06393984158788235], [0.010027198314457109, 0.007321284732754924, 0.024327589412288953, 0.04072788548691792, 0.06656702405315772, -0.0019228135777512433, 0.009422546762663889, 0.0028361822334696776, -0.04418446365132512, 0.012750879799110909, 0.0458826071383301, 0.00831991026298153, -0.054446451466578935, 0.0367124160455562, 0.032053868287054414, 0.0028214086642293, 0.018526113354633708, -0.09409461138390911, -0.04234175716872559, 0.006654800942760806, -0.004639486363877039, 0.042717204901440126, 0.06109902103996289, 0.026388019994989555, -0.015723376888046037, -0.017107628111634212, -0.010956155193045807, 0.08243880912268663, -0.05469378393165439, 0.007235080068550842, -0.026516291207624946, 0.029284772046683144, -0.03472859538590707, 0.0502730532273567, -0.03480965792681058, -0.04761747973112501, 0.027419597521295795, 0.005024570506873938, -0.02124000363195743, 0.01939993182463451, 0.011948032139792078, 0.019240331247585923, 0.0009718058180332931, -0.024493215652328745, -0.054155936643943296, 0.03402545044493968, -0.05081120319190055, -0.0662678228557859, 0.028958078140071813]], "w2": [[0.04840420013048738, -0.04202116788096884, 0.03717654973064031, -0.06368046774996397, 0.05293065341835641, 0.013719605150624932, 0.04148244206273102, 0.002335198450980782, -0.040344867723325864, -0.029573373709031864, -0.02547094894288486, -0.009114156730107641, 0.03643498259437115, -0.029038443038397678, 0.06025676910113713, -0.04774722379575065, -0.007889721955903511, -0.03149820604149619, 0.05980124185357671, -0.006865451790733397, -0.009756034290769565, -0.038229475390547926, -0.0014858782429090574, -0.042044041236812775, -0.022049423733841594, -0.013507264457615069, 0.011858556170103287, 0.048676159592137856, -0.04615111221927826, -0.046721224451025424, -0.015347142772020162, 0.025306029631556124, 0.013994896313375442, -0.03376931881708753, -0.03895131541826116, -0.008342716061404857, -0.053431903527601105, 0.0028210227960728455, 0.03349321303875553, -0.03268852828813527, -0.020655513701575645, 0.01972711109440239, -0.05250803515101291, 0.04982434217509243, -0.060092890205241355, 0.061278647003628665, 0.03229027025853276, 0.014420454945067773, -0.011697488797781439, -0.056548125166989746, 0.007459624979450642, -0.04580892349063503, 0.009109499027656797, -0.010617830300378007, -0.040953634902291876, -0.015942806404513104, 0.016623621377757324, 0.04707311854127746, -0.004743457754570265, 0.03287307060833915, 0.06135460980274828, 0.04916727990533146, 0.00040419596019640783, 0.016374354219963822], [-0.025278485256945732, -0.1366567370987533, 0.011144355053646077, -0.03486424044629402, 0.1304626323457641, 0.06000901907812065, 0.09185622481591646, 0.09408215686582087, -0.04796749418835528, -0.05679488929844039, -0.03509352814514876, -0.0076521023135041255, 0.004068396021783461, -0.1248324418612503, 0.12049130842580479, -0.02389536688653931, 0.0750945525637981, -0.11327306283447537, -0.024547126458978892, 0.031721529020348915, -0.13201277285125596, -0.02476702943617677, 0.07842631589618589, -0.05122446261414344, -0.016559200395528734, -0.018799942289024155, 0.05120058028851054, 0.035398530435793045, 0.05025295044533982, 0.03079566238298138, -0.06564024790386624, -0.0554322942678366, 0.09442407419793637, -0.024463401201595448, 0.05738168377876594, -0.09598440061009564, 0.0427819296416126, 0.0912650222032728, -0.11309633042484024, -0.1036992449372587, 0.10152211856291991, 0.07757763038267655, -0.1385320725246102, 0.005881631379622552, -0.09468919267620643, 0.09006370986409505, -0.0383891673510382, 0.023629463420073542, 0.088027999006568, -0.021724675027091182, 0.03468249919374532, 0.04548268980981688, -0.04342996302286597, -0.06346387579258352, 0.011434630359555322, 0.01722111613673614, 0.08366483429977488, 0.07170682936955936, 0.05202562312255151, 0.0022679134919721, 0.053576105168733894, 0.08038990776190962, -0.0797238245766385, -0.0728400534224395], [0.01861114967781954, 0.07148640577330052, -0.0004012488710562274, 0.033509683906583376, -0.020558686329057514, -0.05517637472034845, -0.0058225086304250035, -0.07554386697690604, -0.031034283221770008, 0.053333133680259784, 0.059949155677487743, -0.05454747110755657, -0.08455149710438856, 0.12634715399679852, -0.06709996969146376, -0.05244259997947998, -0.0635371112671289, 0.08242036018443849, 0.044399447998707604, -0.02235026208811647, 0.07600050422256632, -0.05880267137523722, -0.03636124943036714, -0.03686630161988409, 0.04327315201185195, 0.06485405718353485, 0.009094961838759345, 0.010254345127216404, -0.06491929984510124, -0.005516562183225903, 0.09397978470655889, 0.05581603642658684, -0.08083964849879385, 0.028354034757867082, -0.0804457406251742, 0.05954463761002972, 0.03970856994700679, -0.07862502810103986, 0.12198222326624573, 0.06455156120437551, -0.03531863783613606, -0.013420887268752723, 0.0686252665598148, -0.04763474236595052, 0.041392343156674866, -0.1002902928943123, 0.09863166401080065, 0.06309789543253255, -0.010771596078133253, 0.03807315758331215, 0.003587681185885003, -0.0035099056083178846, 0.04723041256045518, 0.0691435361856477, -0.031709415811630975, 0.010856239607737251, 0.003699123962646971, 0.03265018515375164, -0.013148330248923975, 0.03551863923944705, 0.04149932642496256, -0.028118245174878806, -0.0020448354533761635, 0.07027304283146361], [0.043363899864049406, 0.07176501655931479, 0.039728505689566714, 0.02651732625764776, 0.010741589313009255, -0.030972846458337727, -0.04060409880726453, 0.03364294686736789, 0.028866480952732053, -0.02312121965907039, 0.0538875226037727, 0.028896540144663366, 0.04179135768989075, -0.030052992529685078, -0.05560128689457256, 0.019416749846942964, -0.01342970688889222, 0.04891718746007708, -0.04763895455403111, -0.024443169088508753, -0.030634362346158267, -0.014822303898362643, 0.03518677765237287, 0.04528223983961644, 0.02424815848112501, -0.021896752400768642, -0.05106465639398709, 0.026895844091670486, 0.028898049694815804, 0.03316150116735636, -0.018856053309492936, 0.021437543485003967, -0.014184543076649082, 0.06457328006903074, -0.07731054059380538, 0.017342739329935814, 0.02321979956784324, -0.0664459738745788, 0.04822866677463479, 0.06622571562854129, 0.031052805292690378, -0.06700922959565929, 0.04549692236528217, -0.0503164719218309, -0.035256100007454556, -0.07741815635491707, 0.0013312071632600908, 0.03365903624030218, -0.028703012287639086, -0.019209465528125934, -0.07622378170912586, 0.013238263962909553, 0.02448210223897877, 0.036894842350808116, 8.839804549424599e-05, 0.046395535904049434, -0.034873769416101284, -0.053803496081347636, -0.029103439234736912, 0.06551524117841567, -0.037240071979604605, -0.03947844491938288, 0.056151490646326026, 0.0669134923967806], [-0.01347300263885958, -0.002935059920670626, 0.029593731700428456, -0.056696357807487115, 0.08052585970098228, -0.005045792453558215, 0.002901154695620143, 0.019521282737983595, -0.0031143570805742715, 0.037734163183569286, -0.055838312633992415, 0.0306479999070791, 0.06744612071138648, -0.009679866448499904, -0.029396097414195452, 0.03080504192980697, -0.030003109842899285, -0.03972110930429476, 0.05945135479865806, 0.032008140131729895, 0.025823840930220898, 0.057901252704323586, -0.005254170367694234, -0.018719052808035135, -0.06622473225543796, 0.0072617485804852095, -0.027306109284582707, -0.0396118173662822, 0.00949801773202513, 0.009149892538050973, -0.022562375004338442, -0.005175758838522864, 0.07836648923390793, -0.03578840128539112, 0.08108180732626695, -0.0619519930314998, 0.05424659356746126, 0.051932564975479, 0.000541825952562843, 0.03139457855981584, -0.01859218273710501, 0.026747809401762728, 0.01231279371130783, 0.034500740566315934, -0.06104190605711307, -0.029698350591408004, 0.04151042425818478, 0.006094000809620651, -0.002181049542200795, 0.037331338269789974, 0.0712409871726334, 0.03806450923402662, -0.04084506047901386, -0.08240242169425054, -0.04780453805978364, 0.038105770713364094, 0.05921606276755538, 0.05306701810815569, 0.034971852232732054, -0.021061923273338022, -0.02720514500980151, 0.07174906490965373, -0.0027351790116889084, -0.016677892041642623], [-0.01851066957695417, 0.012721773462306296, 0.010083852708998493, -0.04064910756544628, 0.04958143455561485, 0.00238587464675357, 0.07006900867070766, -0.020050459449037546, -0.0016157761078832659, 0.03425625623148222, 0.039593498891822246, 0.05815443057981499, 0.03719887543081571, 0.019959643030070896, -0.015487071309201274, -0.028013362797705502, 0.061392892581995394, -0.04926510363902425, -0.008153201856449459, -0.010871408384606427, -0.06958810358348008, 0.05064702119897104, -0.03652950795116932, -0.010441111399470992, -0.05174292975750264, -0.017523483013500308, -0.011137186635719519, 0.03017279583386782, -0.01615433571354099, 0.026393495018085317, 0.03184075770602237, -0.023470749149579872, 0.02967340301590256, 0.05099851982907904, 0.07248087089488721, -0.04469582313361543, 0.028701741155205816, -0.02096770651265335, -0.0014694851663494281, 0.040466218709874796, 0.06854266524015541, -0.04027996554904778, -0.013021457626118024, 0.010228898427256827, -0.06796563921008426, -0.03474631253115071, -0.0666056710990629, -0.0052649063680288806, -0.021157680127683026, -0.055506377492525946, 0.0037115220879708924, 0.04104595161172762, 0.0370833556706274, -0.03193427781733594, 0.02044470515982066, -0.018736591097315673, 0.03086605371522031, -0.008392770153547809, -0.05688584863999832, -0.043552900525906976, -0.03529391030322949, -0.016377790997361162, -0.05256792672504462, -0.01531110328336635], [-0.05288161251960348, 0.009230709164159466, 0.04149738934983388, -0.02487039996387508, -0.05312047431666138, -0.03131958907100574, 0.03164346829062318, -0.057442501524223394, -0.049130530968182984, -0.02557668750525208, -0.028511902565912406, 0.0046673828004899194, -0.02681444137498937, -0.04735063835967275, -0.0636438007732389, 0.003906474118702663, 0.010341624293461278, 0.05764082424868623, 0.029243792002433638, -0.05170533634818377, 0.05180981469415135, -0.019443910073588446, -0.0057437682595028565, 0.05460103658132967, 0.01663055459272462, 0.014590725948812699, 0.01706522874446176, -0.04593925745050388, 0.03114888264645486, -0.0053305254361735435, -0.00209045091480075, -0.029964513213806762, 0.046890415071857657, 0.05637941930489752, 0.016161654097904984, 0.035857313996572625, -0.03375186737181468, -0.06044669539395023, 0.022441634158118395, -0.04540424697132685, -0.03026831246535371, 0.008436876602062007, 0.05028497323124999, 0.019665256398856547, 0.03707950086230959, -0.04378638664836628, 0.03506281617833554, 0.05126500581787283, 0.02937592102373345, -0.04339822536775731, 0.017162958551588444, 0.03139267177817629, 0.051141699849178476, -0.0023364752470461272, 0.034175691004765585, -0.009424516847213767, 0.03884131652645156, -0.03607183798890692, -0.049594789136735914, 0.04257957762224982, -0.015202678489008005, 0.05375200164292109, 0.025690922518146336, -0.00022592214879110052], [-0.015037827244869866, 0.08794916145377833, 0.03006917747668615, 0.05183901660686838, -0.0843407960610801, -0.08390154337153664, 0.029368560633028683, -0.07645820967179286, 0.0026707798503344143, -0.0006926482658940401, 0.07445244013009085, 0.03219865160457985, -0.020351669915189045, 0.010237970580687528, -0.0869525329256376, -0.010229622529986715, -0.05717850377797389, 0.06613470374414747, -0.012451201964170667, 0.004354362872301665, 0.09959051681557755, 0.008082980030785928, -0.013500014337211166, 0.07140387607936982, 0.012661329863066251, -0.013397123782329313, 0.015439482144905904, 0.03395046513198395, -0.06685402506094094, 0.042736003461677455, 0.08574647390388074, -0.00773976013292276, -0.03306950777796497, -0.02659428616723219, -0.0037729829266080197, -0.011841781797324882, -0.012804565390847865, -0.08096992654075492, 0.07354281005626849, 0.024443285096802544, 0.02045083088244174, -0.04430490867249545, 0.10113683236246858, -0.055998517315973585, 0.03908442777535703, -0.06122514943949052, 0.03850459477458968, 0.027750783137971923, 0.04004971626021242, -0.024751503251235134, -0.0781334187682776, 0.02977280185801528, -0.008570026401333527, 0.08794781643486718, 0.04666105883412386, 0.040988903402442475, -0.08651553430619426, -0.022500455939942366, 0.04792931766803431, -0.011306678907287503, -0.058799596765565336, -0.05581083714084858, -0.008878814741780537, 0.0013592539752631174], [0.03834757802452957, 0.039388915781478594, 0.052739862132500454, -0.014809056402950261, -0.0054243837065492415, -0.014484825637404986, 0.027662316927901668, -5.4246236373651496e-05, 0.03996923197890345, -0.02626045190745684, 0.008766682987377398, 0.023608923548101922, 0.023547861478189165, 0.04920490363708652, -0.041600244325929785, -0.022314559563704223, 0.0037770891032923165, 0.052244424299616, -0.01927520000716519, -0.007719331843558004, -0.02331115447113248, 0.013272718398175239, -0.001792520944478057, 0.013600886761354937, -0.02351025349716492, 0.057661527936551105, -0.03248174488292458, 0.026091366636267294, -0.05188391314664071, -0.03161820506260637, 0.044333602118342454, 0.058849300186477875, -0.05182737741371819, 0.02976007306972204, -0.033153824946070595, -0.011797231590526334, -0.04063625497939997, 0.014589430981481204, 0.039855090008760814, -0.012792391501823907, -0.03670853575585302, 0.03795109943838038, -0.00394862186069583, -0.011180172196192559, 0.022321807062919894, -0.05644355293661066, -0.03604859448489153, -0.009961974264263884, -0.009771074969684213, 0.015967687326906253, 0.02996900357852897, 0.0026229550199578793, -0.0328097617111903, 0.00614243723532383, -0.01671642348677706, 0.0021264134767483727, 0.03463672773229715, -0.008460099236809416, -0.0255859372519847, 0.0520137280790741, -0.014475292972958173, -0.04255495509887423, -0.02948771224121732, -0.043392705589716404], [0.03226472213859782, -0.010309245519547415, 0.018112430298912387, 0.07874724706558961, -0.0788448685698366, -0.09542121872129188, -0.0471937711017528, -0.0726954181979627, -0.040651828067969645, -0.049690542955651174, 0.0837084509427699, -0.0005101441000923816, 0.032610429654962164, 0.06875473735095443, -0.0506666369100208, 0.012404081385968942, -0.05430251268510393, 0.09167634345991266, -0.06356780097449385, 0.012042245915825265, 0.08610900296576261, -0.02892449141061082, 0.03443293345550375, 0.027593281420031077, 0.07610406699503422, 0.04552759578008588, -0.03762074525821082, 0.05340706931333111, -0.05163144826617505, 0.005456010640008489, 0.028208931186009863, 0.04558462926354437, -0.07153051656642417, -0.008545437169125447, -0.07778010383968373, 0.05558084309164639, -0.002420087221269936, 0.025466537467762354, 0.05398847277231485, 0.019603463418088614, 0.03260989560439393, -0.04844891121468082, 0.015825102450989087, -0.05847691671564202, 0.030947902342391427, -0.01776431796586468, 0.048383517528257564, 0.02706536364416362, -0.045083404869145825, -0.009971681278407897, -0.05064975224283725, -0.0646452548546728, 0.057784044232874913, 0.00663230582348412, 0.049461972922837, -0.004203206670268617, -0.029431925302810788, -0.021739810953931148, 0.02688952684478148, 0.06458211770226345, -0.047559287787705296, -0.06273167574983486, 0.034937892480436966, 0.0066747652827791595], [0.03452950350375985, -0.00888866731750529, -0.006255795283901498, -0.008423837999984416, -0.007572276510035078, -0.051277798318184124, -0.052822163528260004, -0.06429232667031798, -0.044569554175298495, 0.018877029330717277, -0.006975978707400784, -0.03825582836328716, -0.05083006854381396, 0.06465678104259596, -0.015983443602804178, 0.023076902586725047, -0.0379514789718615, 0.0278784528377372, -0.03769835308205962, -0.026606727973615657, 0.008750536039602547, 0.03240229560414647, -0.06925175020620238, 0.046239334601067966, -0.03972940572838489, -0.03605671037746518, 0.0452725650389291, 0.03229821126245473, 0.01503270921736001, -0.032277089180283734, 0.04573999925355512, 0.009868437254322897, -0.06801656008641296, -0.049207267030314986, 0.00870260764086305, -0.010029475818072021, -0.03807087557583313, 0.017801180047251786, 0.04358287885007887, -0.001118130818339495, -0.052955841974602146, -0.04243031764032158, -0.009512094848838271, 0.022383368506226277, 0.06058714988496662, -0.04191018812552559, 0.05781808450897702, 0.000535170161723792, -0.053000014394636204, -0.050025495025916675, 0.04137078337533867, -0.05666316139620365, 0.0038300648365621522, -0.02422629922126447, 0.03953719685456322, -0.001437868867482032, -0.044726070345996245, 0.02418408094489755, -0.053212812937734846, 0.03850300471685691, 0.054502320562754523, 0.007640990256188274, -0.01937851062297045, 0.053640404838209615], [0.03477975776995589, 0.03855306539929475, 0.04682453591510608, -0.031132645308774184, 0.06785158942565621, -0.04823069778972031, -0.0034715496627643404, 0.02465067751900925, 0.0054033787756345075, -0.010769406429153075, -0.009521280815290922, -0.004294339967098789, 0.06491453653691305, -0.028693093589549284, 0.026020014355348953, -0.05467585081996548, -0.021797914790541002, 0.04587738434419476, -0.029823200638671093, 0.0184403676052738, -0.025221383992630627, -0.03352636546893637, 0.06195913211250775, -0.04142497772149931, -0.016895237865337413, 0.01561895264098929, -0.046243198439586866, -0.02654155508610826, -0.00859974071018925, 0.01700044340336693, -0.04054648019959329, 0.04670947813982079, 0.05053504942822014, -0.012082713688872777, 0.014167565848277148, -0.024007837509262317, -0.034887459355872154, 0.06046686221061568, -0.01208605065007091, -0.03264328334181423, -0.014828851226625719, -0.03635415336387191, 0.03117150224062575, 0.0427856387412519, -0.009469973814871711, -0.023417048268923865, 0.04119379589073148, -0.04618681907262919, -0.04095543558342628, -0.004052848093474485, -0.029980174299737334, 0.0011536394149770468, -0.03295462837974529, -0.04661031239958948, -0.02090349910179453, 0.04464120562274206, -0.0058831916084111854, -0.036039359007244205, 0.016594707987069402, -0.025027698618211747, 0.03462311888814599, -0.04610127997997048, 0.028024802816548587, 0.03184435820370448], [0.0027965166254065132, -0.11068021498627696, 0.05431204860928455, -0.0590776163699802, 0.10139787380663808, 0.10751620880824053, 0.05369894300394986, 0.03236757516938999, -0.026936689046720686, -0.03349965536377306, -0.039767562318286535, 0.02218735614429457, -0.025480943856024774, -0.09714409346187634, 0.07646135679747676, 0.03421930160623787, 0.06708065469372092, -0.09481341732119365, 0.04934506233072737, 0.04947746232825267, -0.10563889702873641, -0.05547297591548238, 0.06757653896764679, 0.028013663806289998, -0.016360740138463038, -0.0774251816515757, -0.04549968615584119, -0.056236445102889436, 0.06114479872787042, 0.01758847124348491, -0.041477121638467715, -0.05295653494252184, 0.12224853043043442, -0.0389671997469462, 0.03480918733522796, 0.014924662766178723, 0.05459342717196156, 0.08429079327060529, -0.05553317796825154, -0.05302463484612311, 0.0721629223773153, -0.003110392398559354, -0.05013802330929588, -0.039243830059765616, -0.05534875396420265, 0.028985733460468854, -0.08828547018359421, 0.012750382176724438, -0.03531574121782548, -0.0444147023720769, 0.10155809580725678, 0.009045601864709313, -0.028347384391465523, -0.07856458278050703, 0.010937841366105447, -0.05089189713393705, -0.009087292225740461, 0.03314418575921978, 0.040198348680176306, -0.020583746965507067, 0.0005507298460769111, 0.02993182212849186, -0.03989306507425161, -0.02339990894547564], [0.03538250503959503, -0.11115544171225444, 0.022490989015182872, -0.08978629185677973, 0.13221823849383518, 0.05379560393779971, -0.004518896075193812, 0.08056440240116414, 0.035735825168054916, -0.015110922761104505, -0.08697252506092915, -0.0007269193636317596, 0.0397679300995574, -0.10732631289449213, 0.08638965981002833, 0.07600050817036155, 0.062084450647670576, -0.0747426523288546, -0.004434303979489973, 0.02485790187851338, -0.030683538017345177, 0.029050076616103537, 0.059307957356740514, 0.01919304418115405, 0.007150000416332502, -0.057988489364041274, 0.008227849493190227, -0.041495706345808514, -0.0188594010862541, 0.006562040283547155, -0.058012251434234156, -0.06185809706003429, 0.09741244411768506, -0.07767747792898358, 0.11263653456743428, -0.0650407503043964, 0.06271348250986562, 0.07626251862530811, -0.013050438909623653, -0.05202168149079505, -0.0016515786642482993, 0.06969728198966176, -0.0964865696930875, 0.02438852394776575, -0.056620204349354795, 0.12114821182080523, -0.06609748451229955, -0.032831453165593466, 0.07698669640558113, -0.056134914708554126, 0.03740924120175035, 0.03845895935307503, -0.02944139000341778, -0.10811702859988699, 0.029344441361386454, 0.007825017371826741, 0.08900871903690707, 0.0013339531440489404, -0.033503604483291295, -0.06554214746661213, -0.015254585297264651, 0.08191087908337102, -0.08225458252382861, -0.03446646686020609], [0.03511713980302412, -0.09150115330628165, -0.024842068828464965, -0.0017076732408426725, 0.02564922906280914, 0.016010035764213528, 0.06742951187566872, 0.022213654234004877, -0.05305724044067846, 0.006163573628978393, -0.05477409562479806, 0.005762755075281177, 0.061921063433602125, -0.049479721302790734, 0.07066576385543485, -0.02480663058902456, 0.049200700931635546, 0.001995739468807571, 0.048229370204050236, 0.030019093134247346, -0.07496287161583565, 0.019965349182544747, 0.06604620310061178, 0.002586199992301999, -0.017100543891551825, 0.01607959309139819, -0.0056916881735454726, 0.016602057377360147, 0.042988031658864244, -0.04246190555849116, 0.01563387220781934, -0.0721583879592674, 0.04334788367141209, -0.003347614298764632, 0.08736609007331615, -0.04766670981269684, 0.03503790011395656, 0.023290568539926136, 0.02232294954736659, 0.03627898039098585, 0.07521074274636178, 0.04305389711012163, -0.04133289359538106, 0.05956036872061469, -0.030577524265104013, 0.0840187797132032, -0.06683124830423597, 0.00024128320183562676, 0.04869932525163495, -0.03737005804973711, 0.07447923291515111, 0.05962647030492869, 0.002972356036650127, -0.0825436827515846, -0.03362686821632329, 0.01507791637718571, 0.011547337194212717, -0.007165874330909138, 0.0024903397523945623, 0.014200810932676347, -0.02792997489728018, 0.011291022203771255, -0.02993760171005547, -0.031182531345932206], [-0.005827353877429789, 0.01796331211999922, -0.005668326938035688, -0.0016902793072904978, -0.01625345684078655, -0.016699150050000326, 0.010931575346369123, -0.01142869814745337, -0.008662328338381363, -0.0070032229371450126, 0.007461057196505409, -0.06039184257318587, 0.04299392599649113, 0.05886194824532075, 0.009762520555561736, -0.07064531164184475, 0.010092516208267734, 0.05110914848534762, 0.03827340484985617, -0.050506021137075585, 0.09718015557700854, 0.014708439686026652, -0.0670185139341863, 0.04179201959192749, -0.006334922274431277, 0.023286647664993953, 0.0016773752522465952, -0.030288063189929288, -0.03957556001446715, 0.010821635780097757, -0.0028421573975217335, -0.00957190591553412, -0.08722480014609242, 0.004344616006545825, -0.09601323339467546, 0.0642105869348673, -0.04429129691164093, 0.039497976787392745, 0.02555028347870852, -0.0326989420136025, -0.038919982857365934, -0.06714975592956123, 0.0323072218603795, 0.016958878813379555, 0.07010595193688379, -0.06856385970604287, 0.057251507604151194, -0.01156530271742333, -0.057775574317545, -0.04978943412579495, -0.043095145408409814, 0.00999599651811496, -0.021820261545281022, 0.07257279201558636, -0.025419181851306153, 0.01733788126018875, -0.07654190018092219, -0.04264459742571358, 0.03050273343452966, 0.06681870684539579, -0.04797949387002634, -0.06137990302338302, 0.06380247799080181, -0.04377612002794556], [-0.012522460883543703, -0.007618903394861223, -0.06983694402128449, -0.011311129813979174, -0.109033278689573, 0.014194088170363125, 0.02592008338998267, 0.025891873099018796, -0.009667643261567738, 0.025565018003409604, 0.040087347638357154, 0.037587214967841016, -0.0715558299115854, 0.030208437400176695, -0.015953645458836627, -0.03164685352096869, -0.0801952984054228, 0.04200791029024658, 0.010363304172200022, -0.009131130999254406, 0.013343166596052697, -0.0566746072187497, -0.08656913712281039, 0.047901634205914444, 0.009306093142021476, 0.06521811548811479, -0.06185219730632978, -0.015363079853419474, -0.06853182099840828, 0.04642584304047102, 0.050117633459655274, 0.08046302167279158, -0.0131700571765984, 0.038406997678595886, -0.10421759019645502, 0.07747788090692462, 0.00854142293438417, -0.04338073936460135, 0.05256275382885249, 0.053211364635395976, -0.044794769633794446, 0.032551734744804134, 0.054169788573117814, 0.021056105014849568, 0.0015214743988586385, -0.023006986728889556, 0.04291161491681578, 0.0652067772859579, -0.04591457795957428, 0.03377011045210493, -0.0793938306521327, 0.0027639824715948442, -0.013414928764221516, 0.06710982091312868, 0.02300570775111382, -0.019255497125223446, -0.0025619154037566077, -0.014983195471519033, -0.049810508698898394, 0.01006439260968991, -0.036382818603954245, 0.004411936197294922, -0.016784290091549425, 0.05849752380245755], [-0.024149677948802545, 0.06838502955044522, -0.02912913332037683, -0.036746826834388055, -0.07341500397764059, -0.06894583111323443, -0.001930209757617728, -0.046695606440226765, 0.009185507196832867, -0.055449018680359695, 0.03160052398989766, -0.008854652682403166, 0.040750809600705436, 0.05618534779247149, 0.03282153193510176, -0.06436046965191922, -0.03947405122014695, 0.0655795354395233, -0.04241813861414157, 0.024901023433663596, 0.030956726151776803, 0.03291710268338936, -0.019038250543832954, -0.013915903189316925, 0.013733621524950003, -0.010192615775772157, 0.035188570195348115, -0.028048239492030363, 0.02728642668609944, -0.01579318363001581, -0.02601624494720286, 0.013304496775457706, -0.05768152594489788, 0.009732089178306197, 0.036600556882163515, -0.016076606825141546, 0.04997094642364059, 0.03278347239012984, 0.04787987405520338, -0.040240636500332494, -0.0379479377113972, 0.04256569086156917, -0.034320771198938047, 0.03338501331709803, -0.014170516272980944, 0.03284905261110781, 0.046580035058106636, -0.02206589637026166, -0.021732737294141994, 0.026111933826942504, -0.023176112714889063, -0.035424452559955445, -0.0071866047931237135, 0.06330565776255653, -0.001403296998969053, 0.05660495144506205, -0.03463429695447556, -0.014148571526138706, 0.0316614389502644, 0.055110509598928464, 0.017816305903574924, -0.06129928072286543, 0.067020605498797, 0.0290896780687908], [-0.015000758118641294, 0.08110995049394613, 0.007140603891874062, 0.010576995843978568, -0.1211670078314847, -0.1283332851185466, -0.0824991291658965, 0.009776795576878345, -0.017470371721674215, -0.01960270445364228, 0.0970460052104372, -0.07231632715977436, -0.03372123008373982, 0.04923659681421998, -0.1349044900804426, -0.06012810142935304, -0.10791914866997752, 0.11936159347022618, 0.015114021662699663, -0.01769724952088911, 0.1261421270184444, 0.04006943144605618, -0.07801150080622811, 0.034467356494110125, 0.10057018767647617, -0.008505106955141431, 0.04727215692577927, -0.02719219340571992, -0.023961052178333057, 0.03436925367623133, -0.011850680677564224, 0.06915747472738969, -0.12693916300962974, -0.016702544678450396, -0.09272732195721699, 0.01111620676765493, -0.006526872035987981, -0.08764491767155408, 0.021879247220169748, 0.05710900818822627, -0.08217558483880011, -0.04639863054012424, 0.07579996659137483, -0.007606031419503862, 0.0757371950842582, -0.07591480656044627, 0.06505668051990882, -0.01956223737956906, -0.037956434869506235, 0.06320038694700925, -0.09830620389449894, -0.06419659633856363, 0.050878568842092624, 0.036188621230751, 0.03516872455985753, 0.02836414550785617, -0.027244101276349048, -0.03466860317104861, -0.014320771156872823, -0.02612340712157476, -0.01247893677296631, -0.08744989390134957, 0.0041024807792108845, 0.026534645605526215], [-0.039310723692471225, 0.052735965302399185, 0.024629606896803328, 0.0038314292602211948, -0.0538699542245559, -0.005604024585374151, 0.012719244182716374, -0.01138647697790627, -0.05398142933720294, 0.00839734208938891, -0.035581140559274714, -0.0474601934887156, 0.00023605645276150088, 0.03960501883202664, -0.032332933773160585, 0.013697964767890257, -0.04034691928432179, 0.026606794007582254, -0.026943500127390167, 0.046148808393541, -0.02061519599288345, 0.045561393967927875, -0.0013833260145665214, -0.018982224654642128, -0.04846578590587467, 0.01223233658507757, -0.031228453444778457, 0.010705816547367195, 0.047421090722723894, -0.016813695512122497, -0.029478817065109814, -0.043352579303728114, -0.0025116801174095357, 0.048458458492721394, -0.005600539144838728, -0.05638523059590424, 0.03330646192614663, -0.04555517128978112, -0.06076186175051639, 0.018436290517329125, 0.03553225523806323, 0.010854778427692332, 0.03493186424029656, 0.03898432973050664, 0.005631166834139703, -0.005778286648419072, -0.029284645077694554, -0.044943833667499274, -0.02038359840977038, -0.030904311296574137, -0.048557789982316656, 0.028689734724501995, 0.013966231012319377, -0.048052399308783134, 0.009846294972270018, 0.028148603130152987, 0.0067226725410931215, 0.016091963912348007, -0.006830630389254739, -0.04291491252170743, 0.03925658697482966, -0.02399113516358262, 0.03203485943856948, -0.031553331352690644], [0.037887174226069714, 0.014569724600790384, 0.044356890953929785, -0.05978131871739971, 0.08592325920255565, 0.08499290391482897, 0.0564567513188662, 0.05678006726274798, -0.04018677192787954, -0.04510569710456706, 0.007770997050094842, 0.04378791084005272, 0.015371543598583198, -0.07761266110392437, 0.09543741215082506, -0.028039206748635942, 0.020573499850004284, -0.007633195180469176, -0.028547184437980367, 