{"architecture": "mlp-49x16x1", "b1": [-0.0358539595697163, 0.02552929910646993, 0.011677240464812177, -0.03955147587197051, 0.010078400183146114, 0.023388667180346986, -0.0517764866871518, 0.046081996721772094, -0.033687980390934694, -0.03467656507907776, -0.04038007271412661, -0.007043919149950617, -0.00939518755215809, 0.014832295933240128, 0.01231385429427025, -0.05677286367759828], "b2": 0.4066143239233636, "hidden_size": 16, "input_size": 49, "sample_count": 156, "updated_at": "2026-05-08T21:16:48.910744", "version": 1, "w1": [[-0.10517274857252415, -0.0014474507560637423, 0.06267600123319049, -0.08385201788768966, -0.06546998453961662, -0.10494073857001796, -0.032267020629167385, -0.06149957223152352, -0.0755281991371611, -0.04986862157988225, -0.03367609415289978, -0.005898723319629088, -0.0026032817032545213, 0.047196325035404114, -0.0525394948395751, -0.02118937638771497, 0.027481479242931713, 0.015293531131571551, 0.04695383851061609, 0.009752824159950931, -0.01171411667665889, -0.07140087710365467, -0.01472610394280079, -0.024688355264239212, 0.02833648485125222, -0.06819508807149167, 0.047133109852382456, -0.05057829714131203, 0.05862498729023631, -0.051005427701817575, 0.07528526999350747, -0.004790017940506294, -0.011179872118979594, -0.08364886862166955, 0.008597239187292164, 0.01478418729618752, 0.01709415001196016, -0.005639164733169208, 0.019217731241713495, 0.06911441720731475, -0.0671146695675869, 0.07758681463209617, 0.009080032984938311, -0.09674897493111488, 0.038407126927762075, 0.07720445690961254, 0.04619145305846291, 0.0005877347884639009, 0.04083148935374786], [0.03140305142515609, -0.01995930874468466, -0.0054506574324299645, 0.01859490723495929, 0.07388332202263502, 0.0964721561415675, -0.05424100742264619, -0.06028636001975708, 0.02926125606349933, -0.01046002787681244, 0.08789350665219224, -0.03258003551734212, -0.030454246361325273, 0.0819590611729415, 0.021486312025121086, -0.015333861248518337, 0.09329391574589553, -0.052435088235972906, 0.0477625345930978, -0.049450395237305406, -0.024960928941307754, -0.02185213863554602, 0.05321444723219671, -0.0690185534861468, 0.06992283364673615, 0.03887851418271065, -0.01187171413018286, -0.03586502946203165, -0.0007637376638130008, 0.020675937859710235, -0.059761973792966605, 0.05723774393290112, 0.05053910182365923, 0.004395697085075901, -0.009934644827126558, -0.006060068813098061, 0.023653992064318348, -0.02744053823281499, 0.11005992315837113, 0.003782750410834493, 0.07205983022898456, -0.04634477971452098, 0.07442084454312944, 0.006647087234020725, -0.039905151205286364, 0.009095477659129686, -0.052078059693045714, 0.029823655418117868, -0.024952506971902273], [0.04943143675022789, 0.055289956005961906, 0.020009059382750282, -0.01327723590127232, -0.03704260044363279, 0.0726450429499513, -0.057013903824305705, -0.05823298918431142, 0.07593472417905868, 0.030387107775095904, 0.0779645270760279, -0.059945759536949854, 0.03539258927045285, 0.00028484503592420576, 0.04691798107181719, 0.010879072929674695, 0.0281148140189612, 0.014807071164924798, 0.03400413655717324, -0.07116396287207696, -0.019440215953972287, -0.008518026859912908, 0.022633739807774396, 0.054171589507082264, -0.01496834862747577, 0.046389273218109345, -0.018157331510793177, -0.06573334277081862, -0.03790548546039298, -0.024726578869208305, 0.01940880987101793, -0.010772756723246181, 0.07944483851607696, 0.031099549535748252, 0.023085265221513586, -0.06581053201231858, 0.008697735057077195, -0.05953058321613622, -0.05474198990915231, 0.01604876705877556, -0.07470289309994158, 0.02464775512975055, -0.024750146039741152, -0.015191129347969809, 0.05541305249328414, -0.07541895427168929, 0.0342520645293486, -0.01574925558472281, 0.051677681174353715], [0.04457594266966268, -0.006259183487673207, 0.004078058007881864, 0.0496956205451723, -0.02143192631340081, -0.09209840499323352, -0.06661891332700756, -0.002135496125244157, -0.06946386583290594, -0.04142195463023204, -0.018342187737689628, 0.024199706846402533, -0.010359038327066479, -0.036635883886462856, -0.0025246007276883533, -0.08932658137666889, 0.05752475607469948, -0.05216212938627107, 0.0037591827351992207, -0.039080560127834806, 0.0009457065562527146, -0.07368348277575419, -0.015102235174247773, -0.019562345344723425, 0.02453414066346625, -0.06393628274111059, 0.06765893344855566, 0.03162613741442306, -0.006933898261075597, -0.024708926459537147, 0.04832198644298277, -0.0038098444034060197, 0.048668284240071656, 0.03440603953114231, -0.06644687292287454, 0.0373323968542844, 0.01133851639150675, -0.010999050681754066, 0.03880967821389232, 0.06785867082226481, -0.019867301901314353, 0.06706775763700533, -0.04361146522460714, -0.01696080321412935, 0.0766704621195854, 0.023204362976168028, 0.0502412257908789, 0.02324757141797671, 0.012242582270225354], [-0.008823548657017509, 0.023529214986273826, 0.03677856518799676, -0.0500709797189371, 0.01259756994604034, 0.0224251169088905, -0.04755416803441299, -0.05679071731809231, -0.013790934786464865, 0.05614438023492399, 0.06793307758903736, 0.04497329337159591, 0.036435043961192744, -0.05351918128975699, -0.059442611173188595, 0.08895428365092656, 0.03486483114123151, 0.04212583763811304, -0.06466479862244075, 0.06409230945923157, -0.031485708076954826, -0.07938162761054467, 0.005820632058294493, 0.07834324804294479, 0.07472689742839213, 0.07276853525817577, 0.05795051861032091, 0.07429725339562342, 0.03486865138478243, 0.015233731347482479, -0.06679234521583777, 0.021645945686680504, 0.0828840548222855, 0.06823979630599987, 0.049993884690858796, -0.03349589093824056, 0.05594388534202811, -0.07158201106602488, 0.09373330312887068, -0.02307218460189729, -0.04131084209254318, 0.035658078157938644, 0.015249652200645112, 0.03350575885562645, -0.02679095342781384, -0.050684406799393275, -0.05429960779178195, 0.06835404807105001, -0.058027237380003364], [-0.00040026968605467073, 0.017634258956456667, -0.03136427167191409, -0.0646164730191573, 0.021150514292995682, 0.059794089810710105, 0.0325117586480944, 0.0847029314084692, 0.08339000722719614, -0.05071345455367749, -0.010454046456750141, -0.04304791648747282, 0.06480172880862836, 0.04507380612076172, 0.07886619985669815, -0.05968396935741615, 0.00804907696211485, 0.00438500189049385, -0.04057203853968762, -0.07762610634659269, -0.011159800656154822, -0.08277156425196537, 0.003800251776779689, -0.0711849376924737, 5.233838675660569e-05, 0.04549121920399416, 0.01525701945099183, -0.06018040324635111, -0.03538261423418339, -0.00834249104854448, -0.0232628284207242, 0.013209354804737722, 0.04970479330039609, -0.018634235354884753, 0.06930548929645036, 0.07298854709994088, -0.04481047604674612, -0.04685215661343907, 0.09445653993854938, -0.03911136243667771, 0.05404067517591511, 0.0445932797715894, 0.03407207874216521, 0.09187043419156403, 0.0425665027882607, 0.05230747097285558, -0.008687941058759389, 0.002096525102509218, 0.0026525908869385736], [-0.019766808856675644, -0.014306644594724784, -0.014698883824207117, -0.07327983102246932, -0.03275231781575134, -0.08545415810039626, 0.04680379946129, 0.062138526537090996, -0.026899296900734303, 0.05295959717308323, -0.03507268766787196, -0.0732130702219461, 0.013492308936899587, -0.0529592851557508, 0.02842607116575052, -0.06498147430467165, 0.02913328126900739, -4.16073698923697e-05, -0.0010596307993569615, -0.06095627206985691, 0.05408839869456706, 0.028808760652770486, -0.0662376171327309, 0.05197412981916987, -0.023505579069309442, 0.0519463351024993, 0.007165109705361177, -0.0168982926813475, 0.0313496157117728, 0.029611380923489007, -0.056231489481623535, -0.0047070356373888084, -0.061781443540185596, 0.03386586194758699, -0.03302135699618165, -0.020632514727516135, -0.04620905747249709, -0.0657427018574405, -0.10324597281806858, 0.04057660138748906, -0.021399838588949366, -0.06814333365981566, -0.029816290396839876, -0.011487548084164837, 0.03154690759594246, -0.06111484436121842, 0.006064438023055875, -0.011400899733984596, -0.05166222626085833], [0.04982672586289832, 0.023362733226657113, 0.006161458982608371, 0.023636675409243135, 0.07567269712919483, 0.09790311652316246, -0.01095583795415802, 0.045648872770996426, 0.05085087556911238, 0.02668711022906785, -0.046037809641968, 0.042676212956118065, 0.07769646050189925, 0.03769624858043, 0.052357496372908534, 0.034159934800374846, 0.0831135289286094, 0.0811889441876285, 0.023895300637746197, -0.010818417008988578, -0.02821611877377826, 0.017792920929452963, 0.010824557335351183, -0.027620247377311283, 0.01364469553346619, -0.056970419720378515, -0.016689427754592576, 0.08660960622047081, -0.009790339579879528, -0.038983207781545716, -0.07700123329238595, 0.005650432159243744, -0.006376813171821375, 0.0645886142278715, 0.07496979881012844, -0.0260681896450696, -0.04891783815333173, -0.005584533364739228, 0.07862772414940013, -0.0005381929292239129, 0.036338977618014426, -0.027463655857579358, -0.017517384267761033, 0.03589508086931319, -0.07351341911921448, -0.03080593031858589, 0.08799254435626529, 0.05675126871030157, 0.02494195783370523], [0.04913546999138139, 0.07076197276938592, 0.020874886102868757, 0.03335515888395522, -0.07732619530878695, 0.014448184553184225, -0.022204422207567295, -0.031236696402438636, -0.032321199115658894, -0.05538874737335233, 0.04791922488922246, -0.09410344132364441, -0.003099446893671261, 0.008114595251329867, 0.0479035803006043, 0.03557915677781305, 0.012677763598250437, 0.03993685754968, -0.07979200085610538, -0.006334171547874896, 0.0013811564082314982, -0.0542760428636233, 0.05879606671865133, -0.06412525727278466, 0.013231043818104913, -0.06082442038344169, 0.03128805207897503, -0.054104279274700975, -0.07350134730965802, -0.023899472676066753, 0.047424658846370975, 0.03825045911389746, 0.025683007035928664, -0.05683398684419537, 0.06729304352970578, 0.02911565086684314, -0.020850133773592742, -0.01984886187310661, -0.035334445384691, 0.07277244999977443, 0.055408949201977406, 0.029395945657823344, -0.08022345158963021, -0.08957983266619327, 0.07240283206289237, 0.04984732417578462, 0.06564937542152774, 0.05022593105850573, 0.040065249261189456], [-0.04484693789562011, -0.027281324178617696, -0.018941955130629677, 0.06150389556842377, -0.06903410714739455, -0.03784506356521493, 0.0411916767378296, 0.04628772389929377, 0.05328664942909663, 0.01176318532050609, 0.011489779781738919, -0.028604691234805805, 0.06324225777422988, -0.07783192165800182, 0.022577468684024733, 0.05459080305458541, 0.064489726534827, -0.06333164436208431, 0.030885997526249584, -0.04218154593613882, -0.02404795822108256, -0.05500727607162537, -0.03867915461205281, -0.02498893126075606, -0.04124322013400267, 0.023120928264427965, 0.028533551103193385, 0.04317002352820225, 0.0004835919881884822, -0.051515240203118984, -0.007657959490240937, 0.05136077235955024, -0.04127309293156299, -0.05244913226328706, -0.044344964607316406, -0.05374118274961047, 0.05965785496994813, -0.02026873028932711, -0.03797376190505259, -0.0726465896449702, 0.01736765609218409, 0.05217530396943658, -0.07166126418908637, 0.052371293108768265, 0.015963105557317683, -0.048251538128915285, -0.02117775818321273, -0.017798662432640538, -0.0026078227252773105], [0.032865667801830034, -0.03366477106750572, 0.02289280626866412, -0.03595662318578715, -0.05616054786766246, 0.029909802170528684, -0.06590081711334543, -0.06714362606168492, 0.014628247223301544, 0.07289896374094379, 0.06383359626266785, -0.05621878609975202, -0.0611453618895011, -0.08643370897091773, -0.09592941968433782, -0.04718941338585539, 0.037360825506938505, -0.05999380773367754, 0.04654692883313748, 0.05046097133176443, 0.008957427590298902, -0.04377418384025543, -0.06030518821647562, 0.04829614013462015, -0.03498551672158519, -0.07050231524002847, -0.04903399006575955, -0.08037726266114076, -0.04154768138983925, -0.0527719271164738, 0.06738972243689759, -0.08130869286070323, 0.01943853775902724, -0.018047005925534824, -0.024855891116147364, 0.024128499061395234, 0.037439183640645364, 0.027933162391654415, -0.074089722018055, 0.05370920036314768, -0.011823996894310282, -0.04081669538597533, -0.007605687689425556, -0.030757336018043074, -0.07340806254385646, 0.03276835946055014, -0.008866038631553014, -0.009820517956869536, -0.046024856528759504], [0.020800465701241666, 0.054731326351821014, 0.0787190950417709, 0.011096287062101681, -0.04400157230951016, 0.01540330680679352, 0.020704176781118334, 0.03920040460766395, 0.07280349376598472, -0.060427344780677614, -0.04445009739297854, 0.0838840215586654, -0.07174455317119441, 0.010175943479997389, -0.009223027834463191, 0.03642291123259599, 0.008425585768770411, -0.04732960372452018, -0.0008895841276065353, 0.0022037645175797603, -0.0028360719036801883, -0.058936398948624055, 0.01795320289508398, 0.05838066356519828, 0.07019924841679037, -0.029903899850090194, -0.05829530770966579, 0.043425205516896964, 0.025044211395034544, 0.031306202603198975, -0.04516134587647278, -0.021869734911730724, -0.05236510472996191, 0.043181190330673414, -0.01282629178793706, -0.05020817282299102, -0.022393721237280822, 0.06883821697108676, -0.004269868292570028, -0.049323376774190214, 0.04382888130724752, -0.05752394079863177, 0.06616030280468184, -0.023492465319090123, 0.03111587444624235, 0.0049297753615589746, 0.019433432092102423, -0.06127492638881648, -0.022088297905556373], [-0.06007468138064306, -0.029961262070114323, -0.0561849195918688, 0.009774409742973604, 0.038001421121677675, 0.03866201447190929, 0.07670688681216355, 0.019645641332343165, -0.025851551165488457, -0.0023602810369475263, 0.0724178235151809, -0.009677430365648523, 0.007855576156806772, 0.020558525387335772, 0.018566603610401806, -0.002074511961511072, 0.04382234276034296, -0.009513618353424756, 0.0027484119604036655, 0.017714731086130343, -0.015963173263696798, -0.006758647722682875, -0.04180722885770894, -0.022733022389762603, 0.04308060947072733, 0.04334672575387394, -0.051699406448864824, 0.06841378050577687, -0.021768895589435008, -0.04320286981201159, -0.0706368448186928, 0.07125487070942095, 0.008205344675530924, -0.06710142990073031, -0.03209523615520925, 0.028786468207248665, -0.00972526811154252, -0.022718075261519532, -0.05412828073115432, 0.03225694489962709, -0.02935595107390654, 0.059313168682051845, 0.051668359954987766, -0.028219843075196385, -0.06597118185119946, -0.06630491692734682, 0.056606863766070076, 0.011904979014618226, -0.013682663936153161], [0.05637644587855767, 0.011354965377202673, 0.03193662570341168, -0.027967541537405806, 0.012833469478967454, 0.05778270589648957, -0.016570136240225124, 0.015703632479165137, -0.04414070876580923, 0.012442353338452682, 0.05757782156890947, -0.0162040502547727, 0.07245427660948559, -0.06828654621584276, 0.01948349691536332, 0.03774561425757508, -0.007354686010643419, -0.056004295136180125, 0.07330729473450016, 0.00972138312978825, -0.004329418390454771, -0.043959076452672385, 0.03423620927704156, 0.017244030082937192, -0.06957131044873925, -0.008005828070607185, -0.02517754734306513, -0.0005719861097807498, -0.027177716604726256, 0.05959072682072439, 0.039429426843130506, -0.058114656205787804, -0.057840016980282224, 0.06450941218560366, 0.0342580436307592, -0.06642483077367183, -0.0013134684271620869, -0.0018451467306791064, 0.02925035434492488, 0.07744477320382383, -0.04423874149016021, 0.04409795829171943, 0.061528751568492905, 0.06462399175229794, -0.028440948619739836, 0.06282383440410784, -0.05723108010781424, 0.03683755803671571, 0.07073578687466321], [-0.0206562530437584, -0.043769859136042887, 0.03947493137933769, -0.06890979641151831, -0.03307230560280856, 0.09788014116848864, 0.042001434470355425, -0.05625408353758093, -0.03113788930212704, 0.06577151393410258, 0.06621828631298866, -0.04480172063659374, 0.01234882810027292, 0.049106076472189814, -0.004150520520885063, -0.034153750662273365, -0.04804890946165276, 0.08481241037531444, 0.07973860418639771, -0.0870756326578575, -0.025498569064173516, 0.04287875085973438, 0.05043556754155973, 0.008100438248610014, -0.02184993337606069, 0.05075296542881529, 0.04804617605155397, -0.008398160385134567, -0.045104299350102045, 0.040255053208117515, 0.027714560211540784, -0.042141341779216406, 0.03242938892233674, 0.07979115473701971, -0.06097884773790225, 0.030549151362698167, 0.07209446695245389, -0.06857076496262461, 0.04496787916171018, 0.0741021696013217, -0.005391348773346238, -0.05112120831736384, 0.058882120850832394, -0.012496689518508266, 0.04148625835210605, 0.05327222565456062, 0.05254092037319544, 0.042733676958922065, -0.007811067441283951], [-0.10642260880928625, -0.022999382286568643, -0.08557758002088879, -0.013186259400102303, 0.024435486690077942, 0.017915142085009526, -0.0010064584463081953, -0.02566023148996094, -0.0891226102458307, 0.03629154493059419, -0.08644991503547139, -0.10089551173266731, -0.08502781095312906, -0.09388380075494034, 0.04930377247950106, -0.00643321921487185, -0.07460117855387972, 0.049483143076720096, 0.06896652246153724, -0.06037024423536564, -0.006135382852819851, -0.02113704583923227, -0.027949383124635786, 0.06597605245706577, -0.07809863000626645, -0.04094401181649763, 0.0394678224923751, -0.04381550111642274, -0.029259236554395402, -0.062047778276911394, 0.020790238682486025, 0.056761735538280914, -0.004841551332732499, -0.050158953561862916, -0.05278559131137942, -0.052589729710238405, 0.04831911231722696, 0.016875836954461057, -0.10494010709471312, -0.04853108619221576, -0.05770607416302491, -0.06067953008544798, -0.024057307629866194, 0.025844958494938054, 0.06323672147012509, 0.06043320567426751, -0.08326436162320298, 0.01779785417645867, 0.01973140887667275]], "w2": [-0.10390465835113344, 0.14182232995945604, 0.0484698481246049, -0.046524672874328765, 0.08918434296936029, 0.10888246365342903, -0.13408938728487685, 0.20229599475554935, -0.0334276605636607, -0.06003326575461675, -0.15490148042901491, 0.029324424236559662, -0.042253630982287786, 0.03047007971290349, 0.08088765601920236, -0.1721553982241383]}