{"architecture": "mlp-49x64x32x1", "b1": [-0.0009640908391910917, 0.01745895712210205, -8.084844404725633e-05, -0.0014514814534440806, -0.031566889653573856, -0.018176196608308142, -0.016445023327443294, 0.0021114120445457065, 0.0031350839599387586, 0.00819847244181551, -0.0013185425992312935, -0.013419802782317861, -0.013706797729312725, 0.04032798865599212, -0.006587165408316969, 0.005402713497799912, -0.028477437435519164, 0.036907829945833734, 0.013499065730764283, -0.025054432871411524, 0.005740719744700178, -0.01923498905578371, -0.02153972363485722, 0.0012197271192925124, 0.0034077610175115374, 0.021735144960271402, -0.005214485423245685, -0.010230068860572645, -0.026235505249821295, -0.0034552702052216945, 0.02365222934058848, 0.02925976348538393, -0.026706405556739296, 0.017484961832010395, -0.04447213844799069, 0.046128498101962026, -0.008032022366561642, -0.026016868758424398, 0.04236802373072085, 0.014643974962184277, -0.008880764440158917, -0.016535785119329422, -0.0052777292530479, -0.021571707445800104, 0.02981158480151128, -0.042109982105606854, 0.029910538772164916, -0.007796195878486141, -0.006641531341487456, -0.0022665021024428638, -0.005411996208580051, -0.019413640485591036, 0.0011182000720724736, 0.04352215775743668, -0.016478316858894622, -0.009521310014919375, -0.031209531123683097, -0.013717429429753453, -0.005390537922153124, 0.009316567201618014, -0.0009735238453172952, -0.02348174225397108, 0.023449249950003335, 0.022863051441630405], "b2": [0.001655501913666017, -0.0812386918514601, 0.06340460832905853, 0.039062759668841505, -0.03986962064940157, -0.023810804893829602, 0.007136887716711238, 0.060299023748788545, -2.2418177366477443e-05, 0.021241007580123032, 0.02548004843987842, -0.02315331848873892, -0.059023104329754265, -0.05126345022251193, -0.025931663706740594, 0.039054364937932975, 0.04034400741660059, 0.02753558227262937, 0.05927516644885455, -0.0068301900115616525, -0.0326203447280988, 0.06984478869228444, 0.05081330899859515, -0.0715484699443767, -0.008567585065465283, 0.03018289490979912, -0.012595656276787857, -0.010054322936021114, 0.006055044159550182, 0.015069383131483758, -0.023061479876713545, -0.054164306945433234], "b3": 0.6555120399250183, "hidden1_size": 64, "hidden2_size": 32, "input_size": 49, "replay_size": 28, "sample_count": 8208, "updated_at": "2026-05-08T21:41:26.892954", "version": 1, "w1": [[-0.050201267084154455, -0.058108937902035064, -0.022757736417613174, 0.0364688019113658, -0.04588527672747285, 0.002593122261422431, -0.0011941682716596876, 0.03352907615429737, 0.0013682418857063551, 0.012888169562618148, 0.01355858744656553, -0.01680331299659801, -0.05222600520050795, 0.01334446101818809, 0.050387645073782884, -0.03747659036191516, 0.03534429377103404, 0.032571066883418154, -0.03393707359745145, 0.03929183158060752, 0.025841063983488947, -0.04794153741812818, 0.03125991788119089, 0.046591020241198856, -0.050795980368574085, -0.03978567170653839, 0.0008866404959646471, 0.03130108253172321, 0.048558043808430464, -0.04291467028139825, -0.009467457765466463, 0.04833227489875673, 0.056773873412228296, -0.03867769821298352, -0.007607000909651079, 0.031713164437422704, 0.009619741853707162, -0.014388469186812365, -0.03287776079806575, 0.017466481745482154, -0.032670869313645746, 0.05423483636259037, 0.03901584152762212, -0.003692042935228372, 0.04455431781035056, 0.054517492376621776, 0.05356530063215312, 0.02935877448697947, 0.053518651782519765], [-0.03237051542897666, 0.03692521670852335, 0.0009085714847541759, -0.0387838518677224, -0.023899854897815792, 0.022965954414585828, 0.02136244445346307, 0.06380104246252805, -0.07998825321636405, 0.06112506652816808, 0.014339281793307979, -0.020260542391168097, -0.07061739179146136, 0.0034085978095067617, 0.03509357128947381, 0.013804707723247538, -0.06964033543247372, -0.02645249296133713, 0.039499855490161884, 0.03156252192339761, 0.054294792045909965, -0.0649448885132881, 0.0321757553141998, -0.07889260023080051, 0.02690844134505165, -0.11555672168465109, 0.06797404711698345, -0.001205736458489721, -0.002079145543342803, 0.06417026141176235, 0.04630727691376557, -0.1044866132007521, 0.018784944268891275, 0.06714185719489492, 0.0014931041125880729, -0.042556612618794225, 0.011785100699446119, 0.019936888255111723, 0.046465426540299566, 0.03920057764870867, 0.046903102911496554, -0.016860528559448335, 0.044985767781714606, 0.06896769957813453, 0.008014439821094552, -0.0072877857171218165, 0.01148309328411981, -0.03875161699808829, 0.08828992529971018], [0.015071460634826919, 0.01885500389498734, 0.038508255167522876, 0.03506418640231214, 0.046200356647535086, -0.02632217307068305, 0.04798674141035337, 0.00014697550413404788, -0.03546277067760891, 0.017671359707313317, 0.0518527707966622, -0.054744957579608636, 0.03288291529877766, -0.06485147484287845, 0.0238244203406759, -0.045613225220617705, 0.03964910574442803, 0.038863611871855316, 0.027790626981571157, -0.05285750966095851, -0.028798527828777343, 0.03610242486948146, -0.06186898111145355, -0.03762115314495266, 0.0189388691661413, 0.01903346619463879, 0.02638039011490936, 0.0233123017036786, 0.06427288832423458, -0.05858618109043652, -0.034572955854033145, 0.026867381414507664, 0.017085435400668023, -0.0018095230104548687, -0.02042979769303898, 0.00562164356366471, -0.04627063649033342, 0.04095318407399158, 0.029591312764634968, 0.012509690674157761, 0.02014322736515076, -0.0577320971343827, 0.02831582716521429, -0.07535401674989604, 0.03073514498819714, -0.005854386659567953, 0.02019267813546835, -0.012949990975988559, 0.02455304433108535], [-0.0011534838978562174, -0.04244205939649056, -0.028433430021929097, 0.0014111713043895935, 0.01835452928357825, -0.012400218560746098, -0.006132416002360401, -0.027565163539119645, -0.021594687496593417, -0.032869643466747644, 0.05376950887502139, -0.04301320551649221, -0.03157756522068126, -0.0036481921059517385, 0.03428855534795759, -0.0583918291722288, 0.026485488383401926, -0.038284914152236366, -0.021900724797943624, 0.004782071945256304, 0.0467813365872283, -0.023144878165077338, -0.018946594644938357, -0.040455601687238656, 0.009529148183091538, 0.0047228290551474235, -0.03934596308780478, 0.06870921803934682, 0.02513059279055933, -0.03766641718157036, 0.00999931107392329, -0.01049850692535856, -0.05143486127588083, 0.07339147223633719, -0.05256375906910573, -0.0280701521151619, -0.0008948073233919079, 0.0015229923647735108, 0.04214392138801432, 0.006433162693813971, 0.047063014826613805, 0.027072873116997964, -0.014198492457328939, -0.01092373555724317, 0.055895956670669364, -0.02929951271871367, 0.0017840311980422477, -0.02301045199687778, 0.032691249708059054], [0.0203271749846215, -0.028419334141972178, -0.023272605079443388, 0.04526448088032012, -0.03929605847521053, 0.07235842689405363, 0.02020072091732172, -0.051143910768409365, 0.02621369819667307, 0.028306160895716623, -0.02141135278598715, 0.05428892389907402, 0.0008578231626327354, -0.09526401467518507, -0.004078381848254205, 0.05943264359289563, -0.012422275282968175, -0.015392222047922524, 0.05641713225935058, -0.045041188799923706, -0.04394203130772703, 0.03141624568368883, -0.03258659388602078, 0.03235983181804791, -0.021523875054421538, 0.14795528922781076, -0.027409128916607035, -0.1108876477183426, 0.05743320643546624, -0.04641723147765917, -0.004878807505882612, 0.07110043632902552, -0.04568545601208674, -0.13395189143550137, 0.016059813845989798, 0.011891183921591286, 0.05681537907722291, -0.04907337176793166, -0.06404087006807739, -0.027301595622322032, -0.0757987011326415, 0.03617008884350517, 0.04237230976997505, -0.06893045476035649, 0.04654290133233922, -0.03241432800419273, 0.019584574266772556, -0.01959969234986118, -0.08413426095055034], [0.0245592053691631, 0.047166942863999924, 0.03196075732490387, 0.0574506516834978, -0.021365471516188745, -0.0433106808488633, 0.018807443192992858, -0.037267402526031966, 0.014245047653332397, -0.057726327970235684, -0.034982668819860965, -0.01759215993245276, 0.0728041790597609, 0.0005941470871818437, 0.03291118449356306, 0.059621585839532705, 0.051022441640586044, -0.010316512354922001, 0.057169591450373175, 0.013025696180945866, -0.06866216237445201, 0.0041710198548379354, -0.0020593754968542613, 0.06902169784263669, 0.05244010237372861, 0.05690744019084994, -0.044588217656544187, -0.0992783722831342, -0.014421680612325993, -0.08192996728253031, 0.03842758848643393, 0.031539573029796986, 0.022267525805473122, -0.07295725884948735, 0.010775267870628172, -0.02677356121665195, 0.05083711525023621, -0.02026911971550808, -0.028093354240387437, 0.006381444319460014, -0.0356461062005838, 0.05129700789619235, -0.028106715912698838, -0.12114948960014431, -0.05905395069156233, 0.04337434591014281, 0.04214619538578955, -0.06570195519901872, -0.10347828604898644], [0.024825739917228105, 0.03043182789121926, 0.012636516567697507, -0.05291526582016842, -0.041096912827502746, 0.058187563467188494, -0.043939909314220024, 0.024809929152113518, -0.029207181586965843, 0.04424099899462254, 0.012544171193489927, 0.004928338661427999, -0.03670558313142134, -0.06693450822218712, 0.034432981705323336, -0.010183943602747136, 0.019649354061183212, 0.013703219047343021, -0.028245008380826407, -0.053125767378168515, -0.06408647354392435, 0.023471733163877143, -0.07823046870039131, 0.012337564580413038, 0.023968648662957552, 0.003263287876220352, 0.02420195904900551, -0.08590155027416585, 0.045632619071547524, -0.060922260896565175, 0.05279028351249054, 0.04936790429352644, 0.05555345372506558, -0.040662846813930495, -0.022032604182145525, 0.004871318781795657, 0.05321097691313638, -0.0035853697588786038, -0.02659401457686963, -0.019315570929467528, -0.01947423802443046, -0.05446684606162445, -0.0392069903919557, -0.0644017462758486, 0.03834279215000838, -0.01983959542272294, 0.04233897088300834, -0.043102021785591096, 0.027553019919549723], [-0.021751045929339026, 0.018759383242121064, -0.008963807443526088, -0.014133764045538061, 0.026940381579340134, -0.020405028538554505, 0.05321622159011449, -0.0447594212461692, 0.058674216337689884, 0.03155802566675999, -0.04361135905238509, -0.01418023862870226, 0.05753748470138545, -0.05243153584454444, -0.020962738077422487, -0.001039671357700752, -0.021169623460754825, -0.020595251884573028, 0.02087927864939955, 0.0566003429574671, -0.01694750038880358, -0.02025198705362377, -0.056201863394819175, 0.0009005848831932049, 0.019936691197152814, 0.056386596844076264, -0.013909895330118334, 0.031450658926796576, 0.018119312720147975, -0.011707094266109231, 0.022001262141593668, 0.054136437449814626, 0.06089572018829903, 0.033810352575894195, -0.0490653409288589, -0.06095528528174476, 0.048454136511863824, -0.04119855231795471, 0.04926616689064016, -0.0033961087161840653, -0.05880489991441638, 0.016166709497237336, 0.04315636378930829, -0.053428735658044325, 0.046167809376430044, 0.0010117690469533792, -0.005596775321917068, -0.055359574231227664, -0.02120144051633963], [-0.017125863050061047, 0.04290442892897411, 0.04882071179209265, -0.037529392911379696, -0.007218366950667061, 0.0099244548389969, 0.025677422302237997, -0.03658402721199367, 0.022982578769496755, -0.017775910726703283, 0.014302992517373126, 0.053881855358282126, -0.04495255167515612, 0.038772185012760536, -0.017311573013963105, -0.0036757445049989805, -0.02575139444667726, -0.04357495651661327, -0.002011250997094989, 0.043981057616727784, -0.029974211398934768, -0.017740433493692923, 0.01035341069606083, 0.021871278335376367, 0.03488590583457903, -0.02671241072487458, -0.009202411394556293, 0.05312151444674246, 0.02821324505317424, -0.011715490583442892, -0.05351964932324741, -0.04711455061943548, 0.021158666345991412, -0.0048240386670909425, -0.0015515651583763723, -0.010955161988376557, 0.042796409882758166, -0.023059190317755898, 0.019453060051515328, 0.004556134727424013, 0.05510768942722036, 0.022444206179494483, -0.04943909810739596, -0.02000214481397852, 0.05267897454611849, -0.04548869781041536, 0.015546711566870569, -0.024524852845395295, -0.012398116850889247], [-0.0026089587879700032, 0.04177803160614871, 0.01547922643875904, -0.017812457245292228, 0.005206946071855563, -0.04631354863965045, 0.02364195975929413, -0.03307680026100453, 0.036865055162240416, -0.011733555078610056, -0.04303108322471916, -0.04559062083852651, -0.055811594042108476, 0.06378920769253817, 0.028887605657910587, 0.055703491943359135, -0.042072811410992055, 0.047255366663444, 0.006113363074913808, 0.027147657107597558, -0.03307490448982322, 0.04003256270151246, 0.04815194205273015, -0.014920942354224252, 0.046496416916240124, 0.023047233737690912, -0.03118843419349832, -0.008941484222315027, -0.029216836003802513, 0.03717232629276902, 0.01646173421273992, 0.014820340834201716, -0.03231222291831889, 0.041923671463857066, 0.04571083698269639, 0.037475130656034826, -0.012245373889729863, 0.04054873621975735, -0.05074851438529772, 0.02670861881717436, 0.022098920131849602, 0.05412060469163284, 0.02385121949000721, -0.005037466924799471, 0.02993166300213511, -0.010063476123281895, 0.03054384874307617, -0.02469824472895708, -0.03470859328627801], [-0.058730681728035056, -0.03627022819919639, -0.00867717471166967, -0.017521768852829703, 0.05379250702718925, -0.0591471388067646, -0.029029639332069253, 0.05357741017482388, -0.021081550794144036, -0.03777969476491424, 0.0371959318139511, -0.025323662345802543, -0.03701657358302334, 0.062379872874766484, 0.008418567224037872, 0.010501336334932021, -0.04663773459481412, -0.016460713767414148, 0.005979285590718572, -0.015838087764513092, 0.029688773144912098, -0.02039095684469883, -0.029884643277981817, -0.07518168545447984, -0.005240302497764314, -0.07422436013208603, 0.0395489173404328, 0.05325454413028684, -0.02201050512634408, -0.028759588951534302, -0.0017465676708277756, -0.01874622839092451, 0.03716381980792471, 0.03127677654562491, 0.059954566099229986, 0.04578315090301808, 0.0042858475540336755, -0.03970368198499552, 0.056418527611650185, 0.03857447659102506, 0.043502143655649035, 0.02568013112200805, -0.026545287095843216, 0.05752074709847419, 0.04722390814661993, 0.04374846218937152, -0.018521563732768642, 0.0047327118554546625, 0.01700188951520467], [-0.05056290537314412, 0.047262056620910264, -0.0442142761549606, -0.03326385599103285, -0.035861680945938765, -0.009912797789143741, -0.0473063358418207, 0.0025538555704524334, 0.04717179978392648, 0.0514496059910932, 0.036534946031119335, 0.03732200788312408, 0.011122659571102806, -0.01237385930847779, -0.007123856384507245, -0.043426172543594564, -0.035807495913194314, -0.009726622639957869, 0.013869464657660105, -0.013935063574221095, -0.010214019068408926, 0.056258837963799775, 0.020900578623421654, 0.062051488434724314, 0.0428721861916486, -0.03338641535018981, -0.055467052391824936, 0.019586647580794755, 0.06379537661356774, -0.03009603311821275, -0.05342858692180313, -0.01743139198309691, -0.04467061970171857, -0.039449460046932755, -0.01586312738093567, 0.048294221949056394, 0.059185713833311976, -0.024861796136032815, 0.041307533102992615, -0.038445069798984426, -0.001296405295342161, 0.03241102264331541, 0.049926709851130846, -0.05892456851569585, -0.03336414999337199, -0.05802687985154854, 0.015803639733814143, 0.02938323315605243, -0.06569091133246424], [-0.013063584008508272, 0.048193610510055475, -0.013330468920110179, -0.011968260024495215, 0.05072853534577135, 0.002502314982489116, -0.04194119127684651, 0.05242515882508647, 0.059480846423457474, -0.014708066813036106, -0.07324914788699204, 0.0022627923301925396, 0.018961172575323107, -0.03927796139995193, 0.005692095364122893, -0.001402463269624681, -0.003855251543407906, 0.05732587352233774, 0.05957349673319293, 0.008336007631639266, -0.0648743531764316, -0.0061029552307960136, -0.05476106911773905, 0.04843973819176726, -0.008694084554856575, 0.016783313768567943, -0.04420188508107621, 0.01827255552838926, 0.009159584354629314, 0.016488935228472668, 0.008661810336499204, 0.0865987250425312, -0.060208687433824404, -0.08636431864081061, -0.029072551380077322, -0.058945036728279686, -0.04712317398323082, 0.00361174175892226, -0.030280415001828185, -0.04244063235117457, 0.0033329385908676015, 0.011370178449183782, 0.04598287395126199, -0.059610127057350866, -0.01361801228672687, -0.013417336094741546, -0.017531801902233184, 0.049310367921249536, 0.024263952590237295], [0.036348232516690136, -0.054903801460591706, 0.01338460904754099, 0.04546305935936601, 0.01942403372536127, -0.014993069853099405, 0.06856513597482969, 0.04537871946018385, 0.003322657390099711, 0.02871142059439049, 0.0345351261317657, -0.007442219193095558, -0.0023847173175766093, 0.06385377832913997, -0.041266990909481896, 0.012977046614502583, 0.01838364792141114, 0.0025012099284461575, 0.006011472501045473, 0.002577906025721537, 0.08317527089218262, -0.05659639592986777, 0.0905244700806223, -0.020704271422473136, -0.019571424393543157, -0.14443412065886688, 0.08098709264672095, 0.09881945037780424, -0.09011647757985572, 0.060498913916548325, -0.017039959160393366, -0.1412183964075369, 0.04438694070733599, 0.052379625516272135, -0.04071382201150734, 0.005887672585026607, -0.025290651015797416, 0.022545669069066493, 0.0011640999818380042, -0.006758095541202672, -0.0299961754152296, -0.05678555832156083, 0.031080383028075434, 0.18698591238293955, 0.016981814728774677, 0.02382113136492101, -0.012639236962792427, 0.03189616884395653, 0.054505011633583705], [-0.029337020264361333, -0.014817078333333313, -0.056836752230600945, -0.011159074191133411, -0.04136535133943325, -0.00554369944181288, -0.017514435261788554, -0.04952503022779686, 0.01412498117453054, -0.05496285498906645, 0.0012178507479344352, -0.05420616842875422, -0.012900343124411425, -0.023282366920520124, -0.012618783815116484, -0.009890490728479563, -0.009317196554487076, 0.0473154848822885, 0.00664036388668382, 0.019637665495953457, -0.12087592772000642, 0.013372008154482026, -0.060860056210315504, -0.006164286317991307, -0.0332507830657457, 0.09758233619511401, -0.032868425642405344, -0.10950524186113325, -0.02385357835469127, -0.040023834747414846, -0.03150597887576308, 0.10414909033379853, -0.013653684142128008, -0.11922349098045612, -0.007526664601225919, -0.0034717511272363342, 0.009982621529585525, -0.049547362206769696, 0.0013621688483456626, -0.04154268591886004, 0.019791199849546633, -0.054371794663151896, -0.03199618133582913, -0.139507172976682, -0.04979593008023382, -0.03170672055863838, 0.05920369958121026, -0.055380072970015494, -0.06286115425821927], [-0.030189594750053048, 0.03343225363809147, 0.004853320990229572, -0.002221375739665663, 0.040022797770620004, 0.04608917433248168, -0.0517976262025873, 0.056024122491664996, -0.027070057994941193, -0.028555334842887095, -0.004737252371875668, 0.052298950476763514, 0.046264268348734726, -0.04669628841382578, -0.018599454476816976, 0.016063098239154496, 0.05196873314541366, -0.0004930151362899232, -0.055782711920696046, -0.00044929113127434084, 0.03209818653287187, 0.01767011376706036, 0.04403636971955085, 0.05226720243372075, -0.01029858798026027, 0.037963314350288706, -0.04769954869340243, -0.04093202138724989, -0.020027628583153982, -0.03134528468243709, -0.05215552961363736, 0.04051914802663251, 0.04511962769001858, -0.05897043347704166, 0.018111229068697415, -0.009196496363626924, -0.03805302262042172, 0.058153868157235736, -0.023259632035121925, -0.002545004529424015, -0.002587399345755073, -0.04380544134048241, 0.04689529807857043, -0.03586279352781127, -0.043014798767261886, 0.047384089338107324, 0.03929551719557342, -0.004966463091782593, 0.041783753895627135], [-0.0012479198233028128, 0.050281634612173685, -0.013128186878126512, -0.0382003108536314, -0.0020246778951555676, -0.01973289659968366, -0.009725712588114506, 0.04815503097587122, 0.027206386998395338, 0.015390294704343721, -0.042195764153946914, 0.0032930465622243365, 0.07054238583496326, -0.03214124821476107, 0.048271578326714686, -0.02510593265388173, 0.025174532198441506, 0.04617484019247595, -0.0038812792933824655, 0.03750554958104996, -0.0868491128962268, 0.039964931395047476, 0.018838526413836376, 0.032439969577640504, 0.03334424455974522, 0.07531066762956455, 0.00029274956405653333, -0.07443263284710583, 0.0627938293832526, 0.005960393268563541, -0.022331845055794223, 0.0808398883126883, -0.02392156763135677, -0.09021923928416903, -0.04521316976778845, 0.010434217215069576, 0.005752278380717998, 0.019298735569736852, -0.05420255138311933, -0.033127164610767715, -0.030769035729062356, 0.0022743603129811857, 0.004027695990250241, -0.02278729096798039, -0.040270474643700274, -0.04270742534918942, 0.0013257373674140302, -0.06026623315495393, -0.06710713523885511], [0.04712443245474411, 0.016287612836556765, 0.061695925074352544, 0.010243959894843335, -0.028740602656583028, -0.06117802974315513, 0.04759205722437143, 0.011053247332368225, 0.028231489693044887, 0.01870484152644289, 0.060887289209224024, 0.012026049606159014, -0.030542577363633715, 0.05215901311084337, 0.03964741393625094, 0.03459556044966172, -0.02135345270519353, -0.03339231043293163, 0.027550017739612936, 0.028532979135662547, 0.08426526988790176, 0.011057038435053223, 0.06550894784632864, -0.0039027038653077703, -0.04883074933081866, -0.10190682258915122, -0.020999501467627905, 0.1038542507144917, 0.025182587129191598, 0.10586652140626601, 0.005204866998927553, -0.08990746118249862, -0.0379534202435915, 0.052836796326158626, 0.055107548178977256, 0.02322624845969677, 0.0549419037292075, -0.03414453776150171, -0.04063315421317375, -0.03476335496686861, 0.016404083756370813, -0.02317708432347708, -0.008429813097364701, 0.07966976612841754, -0.044016469747771826, 0.05343113350124329, 0.04530871726294991, 0.0683261610904325, 0.0026027577510041107], [0.0219083693643581, 0.0038574747248251275, -0.020563561045077162, 0.0386698821262602, 0.04028961476756546, -0.00341278532934318, -0.03355381084888584, 0.04152074427798969, 0.020436976521558396, -0.01097462989817509, -0.025244839822379603, -0.007306056501205976, -0.00023379248755195397, 0.00805608754293127, -0.03290911020136503, 0.04482272219966327, 0.017563359438123514, 0.037865395645543004, -0.0037807588519737784, 0.05337309624442511, 0.039476070424305044, 0.0032751953925464054, 0.03318112491926297, 0.026825704195008675, 0.019335108629610544, 0.0021950648097316186, -0.03337699531730921, 0.0518297573254815, 0.0003701305458786079, 0.02067836902247605, 0.058734371300153916, -0.0010017406542599883, -0.001568544488420058, -0.03853628370505956, -0.026918351613970062, -0.0018807818229739774, 0.02572315958104096, -0.025110713863502276, -0.006983873839406923, 0.03641598531617621, -0.042521528093301626, 0.023447863387723353, -0.04086257888622835, 0.016227716200134024, 0.04221283090380243, 0.02503257598727421, -0.03501520612254917, -0.00044812671960284896, -0.030336414294980404], [0.04047137993952722, 0.03667593511162301, 0.047998840316571076, -0.04095995222221131, -0.027573522026951416, 0.0235134309868389, 0.012097755677236527, 0.01728522833760538, 0.016959660688125565, 0.012986898772500342, -0.0012453240366253964, 0.05074294465516578, -0.0007793130332487962, -0.057217466598219725, -0.050388837492634383, -0.012545139535195838, 0.0034160426064679407, -0.007487684502522074, 0.056108042526122795, -0.045970282713946986, -0.07249047839465049, 0.01774804896129301, 0.003197340696570084, -0.020602802469688774, 0.020110717238397236, -0.005196547532815901, -0.032406400671365715, 0.024779852433805347, 0.034050616335614306, 0.0001772877032106366, -0.033475232157680196, -0.01419532435279935, -0.04083837060109908, -0.0483508395376822, 0.05766075155513034, -0.031337939901277076, -0.022423514042783796, 0.021427263340416294, 0.03058237131157759, 0.04421778916883341, 0.01988312113158512, 0.04555022495802223, -0.0594202554044294, 0.018120837970328246, 0.004043871620418429, 0.05816635596193471, -0.029366076215145063, -0.06251403810471573, 0.04233387606801681], [0.001611662159356516, -0.005553936027115829, 0.03243331748134713, -0.01886590131237751, 0.046507012845260896, 0.03200644546031891, 0.005503963687025256, 0.013237003655569636, -0.04508793206909481, -0.014282304349854228, 0.04762523854060619, 0.03318643620307001, -0.04725925074406686, 0.04363069987552773, 0.04647516970230922, -0.031773430310047944, -0.06610498387568821, -0.038987881996370086, 0.037881137478465304, 0.04281015922710009, 0.09012792940575076, -0.06630457543263128, -0.013838412184806546, -0.005335751607750592, -0.002059283784979043, -0.05771532277682829, 0.03431296767820737, 0.04801766441928368, -0.06173601693933076, 0.0018173234968073286, 0.04962362059181072, -0.03941234959674799, 0.05720711496184234, 0.09687020731651542, -0.04523249415934178, -0.03020209931370083, -0.007150622919832858, 0.05245551485301758, 0.029188822134261164, 0.012292216003428794, -0.040406008379708175, 0.05294707778835776, -0.052982007166122135, 0.056903293064840536, -0.011090374749380079, 0.035624593891469894, -0.019191106170505866, -0.03345051464552869, 0.038284525006426665], [0.0237113730756818, 0.03421654266090571, -0.008242596948212215, 0.00884379487076752, -0.02477231102835566, 0.007784410849161155, 0.025533725070117832, -0.04271147702381047, -0.012690828599962317, 0.004202548412351983, 0.053781819034201324, 0.02850670275282454, 0.027472074075993065, -0.04222986763097679, 0.037324658213838846, 0.012090295010234694, -0.019684933896316762, -0.01681738758217416, 0.01777678003795248, -0.053331370162910174, 0.0015346079281338863, -0.006594574911267383, -0.0100359225830569, 0.022302945005155148, -0.005141883762634134, 0.0649888592808437, -0.05775536326101343, 0.012401439939106518, -0.01802743160682923, -0.05124409866816985, 0.04649946523756611, -0.016934457742028276, -0.008002586690080127, -0.003213497209246209, 0.03424336074786706, -0.01777323644387938, 0.015752563919372076, -0.016876636455336144, 0.019719775058614736, -0.02596011958972539, 0.03214317419142445, -0.007132757365665453, -0.04492449399142027, -0.04410047105788626, -0.00572782151431727, 0.01435022441800066, -0.02093222086892576, -0.043458035565857006, 0.030250310531138476], [-0.015369021203385244, 0.02577806066156477, 0.01715659553985126, -0.011776321228272213, -0.04299008450139975, -0.036139617528980615, -0.006299873003039897, 0.038488112865222315, 0.013576945855811356, -0.009083775256440439, 0.0013626786407697302, 0.005613815749707359, -0.02435047841734991, -0.05938657024527467, -0.01660869768003009, 0.0027217208541922776, -0.04096461217427742, 0.04231927699334434, 0.002307226143155594, -0.005307063040261208, -0.03777107621240562, -0.015880012146349473, -0.08588573850887952, 0.02910750502420414, -0.004963469728049543, 0.03446328213903444, -0.03388630959120174, -0.06563889470749686, 0.08559707711020301, -0.0508726819498635, -0.04008199700338414, 0.08829541594467061, -0.021556775864560052, -0.11149128192989499, -0.02843129567649913, -0.031694251753339536, 0.05436500102750262, 0.019874725236609783, -0.006107627891448473, -0.03443370100486911, -0.06079789632721537, -0.011436846986242137, 0.01389061358926956, -0.046219302506708845, -0.05933514866443929, -0.022001413830726176, 0.031240365909402074, -0.06624681947134829, -0.03364760254610964], [0.057017916629940775, 0.025351403219873864, -0.005601542346568418, 0.01977265655612504, -0.041619584193658174, 0.018615847781630078, -0.04155494396233796, -0.04529620804328389, -0.041929080246772894, -0.014892269662275914, 0.031242345082507308, -0.03794844327631212, 0.021572847845029604, 0.04695903278656487, 0.061691464386908125, -0.013675102609722876, 0.04754465368710272, 0.055096842535457616, 0.059096113386644555, 0.0395739897660521, -0.007342562705066301, 0.04365650769005295, 0.0518956768314879, 0.023806371024544217, -0.027094718792994847, -0.0966651099921571, 0.02118395445286917, 0.0007923449307703206, -0.03358298949525638, 0.01848442368677256, 0.05641344702751106, 0.024469790193691242, -0.010802778312367638, 0.07204161011576198, -0.00015066731173262599, 0.0039324835551963165, 0.015928455923838875, -0.025273135784024417, 0.0318453842552556, -0.02966899803212579, -0.045890588136596654, -0.03796384338083844, -0.05827580503718811, 0.03275124054736222, 0.030096600637800217, -0.05654098818614997, 0.02667421707533149, -0.04105487698220509, 0.002223683855141711], [-0.014669888561041487, -0.02060592273096405, 0.02493973268106464, -0.01641095034056059, -0.0480237969584, -0.027214066600059476, 0.043337359624646, -0.04962692377291936, -0.02211283783839217, -0.02748392788318127, 0.044575602163061494, -0.025046256468032886, -0.05950812646257718, 0.024475218830188196, -0.00989020446678325, -0.041183484051484406, -0.057586990792910145, 0.024128592064178736, -0.034122201781022196, 0.03598075635175351, 0.008280854600694576, -0.05182779298514542, 0.024995859215850194, 0.010732477985539998, 0.05247002396513239, -0.05022573018462194, 0.03734528950145663, 0.03557306640184403, 0.0012478417173960726, -0.032133642122511345, -0.04597495748343379, -0.04213331378887563, 0.027682886211356717, 0.07617420452515895, -0.02056102301416033, -0.018878960040021507, 0.04171249420093352, -0.056782607105151754, -0.041583248182486904, -0.02303736168918632, 0.003499168790653333, -0.05386490873740363, -0.03552812265412626, -0.03347799791827254, -0.05107553328400552, 0.04898229037601743, -0.047076658353248556, 0.061573407244070025, 0.07461816459701866], [0.04642715865436857, 0.05611838443237952, 0.037795698329268726, -0.02288171692744276, 0.05445729728507852, -0.020409687067825623, -0.026124133577380016, 0.039419660912072954, -0.03771147616208283, 0.03350554792444192, -0.004997062263739003, -0.03091214368661012, 0.0013597793478809601, -0.03220493981736921, 0.031207955604310493, 0.0395936560567452, -0.015859768710102733, -0.03727674725746334, -0.03527585270771987, 0.032875463105464756, 0.06897486574092712, 0.02563440475340353, 0.08066223740277617, -0.05853391466733486, 0.0010055364532756811, 0.009272778998705761, -0.048561988191738736, 0.06941118551269229, 0.017027708956461083, -0.006627884590491036, 0.004559934049504634, 0.0009221862434273963, 0.0029909058301537364, 0.045452359500532946, 0.006287195553914424, 0.043357027861223606, -0.020154358052362854, 0.027242956440811122, -0.0010140646096241462, 0.05364742952481337, -0.048181265564764014, 0.0251867898698276, 0.033443484506987864, 0.09942386807654983, 0.01921114446713275, -0.034434592385025276, 0.028843412183809466, -0.041510863436635945, 0.011016982616162208], [0.007014004126727596, -0.029581705412374263, -0.01840529770852076, -0.05416646239584692, -0.02414730310300352, 0.055337120491176096, 0.01462207360694794, -0.04794001755755988, -0.03447779516934587, -0.04474101883146004, 0.02976976574462413, -0.05882319545160366, 0.04492653311900926, 0.03801844165362107, -0.038070802006912874, 0.013212712827956268, 0.058006248922662505, 0.04344692209036417, -0.051515920634870996, 0.05828930187777625, -0.01437392604486936, -0.05131402434143387, -0.006577561558365859, -0.05910522324894995, -0.004074613785247524, -0.01623066293324742, 0.04496954931294221, 0.011988186059525846, -0.04832836105905628, -0.01030124423524459, -0.0242289781222079, -0.008817209632853033, 0.009030514913234308, -0.018094006104874553, -0.05765242177966998, -0.04849611095056562, -0.03997844377384256, -0.030804409532805485, -0.04348714178939158, -0.04020507193870833, 0.0559509400755715, -0.030827197301017146, -0.03525122269364736, -0.01960150082144772, 0.020141615071382346, 0.048857043557336326, -0.019782652977214266, 0.02423079901207272, -0.023275858789120408], [0.04434804930726771, 0.028619702958441212, -0.03827004330888804, 0.007850252600170755, 0.03918190932366399, 0.0006518130221684653, -0.022068544908432703, -0.03981765809406256, -0.016760142019796455, -0.01165459608286902, 0.025660645770922485, 0.04500740916334783, 0.018201304476591244, -0.037885090381531525, -0.051737139129683654, -0.05373503473066952, -0.0011295357049826836, 0.05655363453627213, 0.025569020592905903, -0.047906833040343204, 0.04471489507867872, -0.038534299571197195, 0.03942078600683134, 0.052505273053785995, -0.03984875890601967, -0.00847671082764212, -0.05587450350216231, 0.06156580740094142, -0.04988488670937787, -0.03583567421949917, 0.0007260311523596479, 0.0028815094272434043, 0.0008119051996866872, 0.04078494688741387, 0.014243224122409456, -0.0017825017080623058, -0.014166048806175204, 0.03962156776385377, -0.015020191484705318, -0.014302050942082443, -0.0375680298899081, -0.05405584788585216, -0.02902837150297642, -0.039708884140239945, -0.05673965092246641, 0.019805448754627544, -0.0038068331420077137, 0.045862217891860665, 0.011222702222880378], [-0.0041960903416420475, 0.038409772744309484, -0.018703015790213533, -0.04406381579748186, 0.010412729232753453, -0.03274510536820238, -0.046013118064884, 0.03153597229638038, 0.056490933768551715, 0.038136429735547525, 0.027246929222119545, 0.03220223012258075, 0.07970923229541156, -0.012172059959052973, 0.012065624925823245, 0.06484691476398467, 0.006185148817091486, 0.01740487337332361, 0.03711815295512784, 0.026062328913159953, -0.01682715883516796, 0.026716497730927748, -0.038785945952936995, -0.0006972803535612834, 0.06148294940955198, 0.06670158094195676, -0.01060891687523675, -0.09413450292427791, -0.03347323929926935, -0.07403739817927224, 0.0413219844236723, 0.10578679264179688, -0.053967257988269624, -0.020326026546837975, -0.04951123041343692, -0.06755272960892988, -0.047770368754287584, 0.05935474018584172, -0.047260340405513815, 0.04541143111912831, -0.025491672345160962, -0.050520251336891676, 0.04476906830493475, -0.09495313456474062, -0.009248550989177706, -0.024511089965930256, -0.03431255337408948, -0.008264413536048657, -0.030306976070894], [-0.0236497867665833, 0.042064961095050826, 0.02143558742425938, 0.0012349680053852178, 0.058121972311695545, 0.016010558292810766, -0.03139859541622193, 0.025828660344233912, 0.034744871989811583, -0.060541905974513095, 0.037049034170996344, -0.03601815958453072, -0.05055747861030622, 0.03668528409638233, 0.03386604569927545, 0.05825133435292299, -0.009208616190863491, 0.05677398021193633, 0.017063582429335214, 0.01865140940705083, -0.01606003580270532, -0.0327986008792494, -0.05483174732676932, -0.010059697030415957, 0.021797114476038774, 0.06586526329883165, -0.017707405532601198, -0.0613974302196277, -0.03929653260761614, 0.04013239788056718, 0.03711305009541719, 0.05415882312349883, -0.05675192492351006, -0.012368461239568812, -0.0141865149952905, -0.019205929330959343, -0.012987168154250099, 0.052992045015964065, 0.020520372261475732, -0.04668802566051118, 0.05101654501633096, -0.052765564732691186, -0.047734532263587426, 0.0019223807242855263, 0.05851392812998553, -0.0025469311774837253, 0.027378755910354657, -0.037574636642549855, 0.033472719490748475], [-0.007692464517649635, 0.04212280633352462, 0.007317979630526304, 0.02047910393990919, -0.051664397737529656, -0.059081576447086157, -0.025181207599753994, 0.04967838836471303, 0.03611834443063391, 0.05070763151392132, -0.02968942648124403, 0.003567073956840627, -0.07640735886265926, 0.04366088930275087, -0.05299806477946503, 0.022593618328656462, 0.025222366952942877, -0.01757012611711744, -0.03062344447697547, 0.007322786095525733, 0.015628892950829674, -0.03630632637737165, 0.06567353108091138, -0.05824537347450352, -0.04066737313130102, -0.11591517623165036, 0.01093834777359838, 0.07209682168899738, 0.033343421299198824, 0.08480352827221696, 0.04076235179372594, -0.11065818500562898, 0.06396956234008501, 0.005441768895677353, 0.023760324201674343, 0.019249132505560228, -0.05876375507130568, -0.02629383546651272, 0.0580548955358369, -0.022066144538249788, 0.016137649572437775, -0.003715732745710569, 0.054462956723655906, 0.11521570155577823, 0.030802584945238604, -0.018886254312046567, 0.025177551474496726, -0.019702432747543745, 0.03229220779587975], [-0.028520496906035933, 0.042192616994964086, -0.006288939544047878, -0.04127980819998632, 0.028417152749106542, 0.018161368254661938, 0.037320772592031336, -0.015978957539795786, 0.005432214997811465, 0.0017884041852344143, -0.010302721361839427, -0.02859836196039228, -0.014248994886901786, 0.024044376201799462, -0.025826880666719638, -0.005239332948990285, 0.018562219701588403, -0.0074395561744704936, -0.045332717227166995, 0.04306051857485966, 0.07726885881586797, -0.05706852812914316, 0.04076846926911991, -0.05090404725985343, 0.04348865714184647, -0.09737219936309117, -0.011167369093079634, 0.07352111883743251, -0.049379468499472, 0.07578454251201876, 0.01782691876936238, -0.1125297390153221, 0.05331164495890213, 0.013634474900871342, 0.05598861261516093, 0.02151045500621879, -0.031448485286181105, 0.007795578024606162, 0.026073923817590168, -0.021284735482692572, -0.029929908417679344, -0.050655831714435634, 0.054978555406751284, 0.1464409430455405, 0.0016473915013971926, -0.026646837143022455, 0.024037248267267622, 0.007893844891346298, 0.04941798334481448], [0.03882632114886125, 0.021211644260724246, -0.08684367059684768, -0.009185339046262026, 0.006233235119579905, -0.027193050719110927, -0.040956102556244836, -0.04663950774139611, 0.05409375622438024, -0.061112114764555255, -0.004939599351678952, -0.007939744196320743, -0.011225969964929073, 0.02209911259090498, -0.003322476276230312, 0.03861630666542459, 0.04480974543111541, 0.026851436889970368, -0.05284535849861355, 0.03492771609363516, -0.11970269816764026, 0.04036725298534119, -0.01447325325112873, 0.061093874519493344, 0.05756835737955172, 0.10582371381906751, -0.07607530290570902, -0.11138810813237994, 0.0061159395633411575, -0.09244435655603794, 0.001741649082878288, 0.12787400461909626, -0.01780588414609202, -0.08632484428243836, 0.010953233809498628, -0.028170098216030438, 0.036281492382494396, -0.017144392256984282, -0.026374320034515487, -0.05490329837206376, -0.05180675094310633, 0.039755420459482965, 0.03932269838698611, -0.1017955293252942, -0.008490471530396712, 0.05388662153431759, -0.03996170362750273, 0.005122281990454158, -0.09639872223602146], [-0.020955132055932385, -0.001708854729021841, -0.01358669779160541, -0.03153001523847234, -0.05540839761861948, 0.033330891672385184, 0.034891326716379165, 0.019747001553838347, 0.03796181732056248, -0.04782699200582303, -0.028444418360079545, -0.0008493299519086069, 0.025423857695218773, 0.059017180534348165, -0.01768996171399585, 0.049934620816737184, -0.024226233436598934, 0.034224611316171175, -0.036586366130840736, -0.019232720992890587, 0.0547336695378727, 0.031162344007464166, -0.04320485908926257, 0.02228455823570499, -0.040974495854448685, -0.05527769355905332, -0.04466752966322332, 0.021189752900160935, -0.009595357333528001, 0.00839225608870628, -0.05696646710126849, -0.03278105556031481, -0.05943090883442893, 0.03616684774939208, -0.0033893075959489996, -0.0006811854970753313, 0.025384866680488616, -0.05824213193413562, -0.025659470222549576, -0.02362897896894388, -0.016586597756122562, -0.03992153794611234, 0.01999861405111114, -0.029123860835589176, -0.01674906155614113, 0.05672735895871272, 0.009276013637966304, -0.05560110105052016, -0.015501226010554597], [-0.0025221300864005213, 0.020802125491919128, 0.026698882897580753, 0.04941810209899051, 0.04025071209960519, 0.00047935945752268115, -0.03684680556675402, -0.017872611413651783, -0.031019397371945083, 0.010439662384433914, -0.039712734765780286, -0.01677162911959258, 0.06103966805249806, -0.08811665640317645, -0.05669718899087039, 0.059489355607802365, 0.012225261902232557, 0.05049514671190873, 0.02246056879821111, -0.05352108225867621, -0.006839953949600245, 0.03955522380345523, -0.09611708107510727, 0.0295964582455936, 0.058621545208946385, 0.05981672916697508, -0.03553251736941402, -0.03912256802804589, 0.03831582793192693, -0.03201402921696224, -0.03938394211646989, 0.050305679280133984, -0.048369625034135624, -0.11019015919277309, 0.014736157704704725, -0.007439590154910756, -0.0229528179503682, 0.018375574154441576, 0.02954978238957653, -0.002879850875046268, -0.0606501947675643, -0.017873988336480996, 0.01617484820166923, -0.15027345113684504, -0.006487563146014674, 0.045031920609687845, 0.0547709735998973, 0.013232335495844851, -0.0013725055993347745], [0.05446349116994701, -0.006158569483309695, -0.032806254329556535, -0.006127414102911744, 0.0035598550335962822, -0.01588166206865097, -0.012019192699676114, 0.01701291153788086, -0.01884020057556159, 0.02931779287238259, -0.033229057863925944, -0.02450067691561533, -0.021860241850062995, -0.022840122041933097, 0.04711881656842664, -0.06555836703940596, -0.014274045398613459, -0.04908538860469011, -0.043080680455805806, 0.05895015710815688, 0.042956563181353824, 0.032803646846363894, 0.03037723609549471, -0.029648040689841646, -0.050143264775938945, -0.02901728672660722, 0.04498148130152739, 0.10160791532098638, -0.06658047883471009, 0.04657164101355001, -0.026359587182761702, -0.05459117695760545, -0.02751353960132943, 0.02760152797924854, 0.02487388246305168, 0.06148040891691819, 0.007650589279318984, -0.0365217222052448, 0.04448897151156203, 0.05526055014928609, -0.043154203967758924, -0.014159933743482164, 0.052723823052963095, 0.014484396078050368, -0.011388363624823594, -0.054495169677895784, -0.04788395908032479, 0.006082274132353642, 0.014014217320721563], [0.02859234833761023, 0.04156141125299508, 0.01143965574680736, -0.026329008162162354, -0.0403789038613289, -0.028973084217424352, 0.012247813237575874, -0.017757690102495102, -0.0278913852609021, -0.012126190047158803, -0.052455940867355916, 0.02056775651356111, -0.011517714615746697, 0.030330150494731922, 0.03290937277255104, 0.02551972527692686, 0.05025007928905373, 0.05324394936188147, -0.04798637321457549, 0.03992192443866437, 0.03787922346393769, 0.008307416350962996, 0.017684003946495098, -0.019900224886132425, 0.048806683193760074, 0.059409181998492565, 0.04034775072720802, -0.020930971643979678, 0.021584883271742378, -0.05162316246810783, 0.0042869981950821295, 0.05081173247948939, -0.036222994078957745, -0.01390123152412162, 0.013691670235211659, -0.051002948362953465, 0.023281037310303232, -0.043627479385745946, 0.027971904070533817, -0.046391216535419194, 0.04958295774875557, 0.012828848052108863, 0.01712295698907726, 0.0042210019894431475, 0.046565973065045244, -0.014317030256250687, 0.007727345647315753, -0.023657475638973826, 0.023450883337951763], [-0.03142849580280427, -0.028004776883986972, -0.06222882808202916, 0.024653581221624893, 0.0342957487777435, 0.05130415594414942, 0.03981903107319442, 0.036126861532564385, -0.017255003556138092, -0.011081367472604617, 0.00860372524591706, -0.005269831572822802, -0.03305741664982071, 0.015226302050321406, 0.01478705023265807, -0.03990629364727679, -0.045138144832510545, 0.03931953390617693, -0.02989782808572818, -0.044541648487331914, -0.06787731522633828, -0.03673820471292362, -0.03158937304600825, 0.016437803675056296, -0.00228446054405586, 0.04876848519266497, 0.03004438193313792, -0.06118235916002418, -0.0320230011288564, -0.08868876286949175, -0.038937526012150364, 0.06437478150467212, 0.02350810310574015, -0.07469145970387346, 0.018170096512908476, -0.03529334829350947, -0.027833100329518766, -0.048015981056724076, 0.0013669908589983568, 0.03725889053204963, -0.06573238556970858, -0.003507617247126789, 0.02610104647106322, -0.11814679422007376, -0.0001472413035442724, 0.0584209187479417, 0.05901562741546783, -0.021715630868931166, -0.06279821649683809], [0.02024296818747015, -0.028452907131383, 0.01960838200211034, 0.023009604778777448, 0.037129514780997776, -0.06372727993228275, -0.03129879629141747, -0.006710577352008691, -0.05522274475914494, -0.025147266851918263, -0.023587543446331592, -0.04509596802194083, -0.08824624966173167, 0.06033627918627264, -0.0002446873177039578, 0.041157581608677746, 0.025956200152323392, 0.03241221546686439, -0.008465875712239786, 0.049707687543738, 0.059236645660418495, -0.034235362478189, 0.04330649590631762, -0.03196351069821128, 0.009325330283363176, -0.1183997031322392, 0.07030123278653294, 0.08071569132686025, -0.06045478873564855, 0.07765330309853251, -0.016848946570381693, -0.03682936063381007, 0.035479504474406016, 0.11726255674306646, 0.009428619594853138, -0.010481577767685492, 0.054291861835591815, -0.048986926454760826, -0.024638663012375304, -0.0466702813301139, -0.009758541773658565, 0.00929403422020908, 0.04136275999205451, 0.11840061044049166, 0.0006284140482786041, 0.04978815752133721, -0.022516002710197276, 0.0039059407043868367, 0.0030754030410729332], [-0.03304934035042148, -0.05464689505408393, 0.002301870416832469, 0.04500970469804083, 0.01940393668106606, 0.004608424933889607, -0.0047308273871835, 0.023435581114517105, 0.014210675183930018, -0.03525160548254527, 0.005640644942284254, -0.02647531625566476, -0.0057338320537616665, 0.040162089847609043, 0.02906296991776178, 0.030816680302411626, 0.0436971316087081, 0.04598136833256569, -0.057849453274261046, -0.03874906871319053, 0.018540617280916515, -0.04699446534737915, 0.06156554170815343, -0.034425966097980765, -0.06439979614283647, -0.08022623191140887, 0.03605109554702006, 0.008728657260024413, -0.02979532298955252, 0.06863200255020845, 0.023853199492485874, -0.055660491873777224, -0.049805382952847664, 0.036382802578503584, -0.010930338842101796, -0.04587373739232464, 0.03900742191225266, -0.011902427410322436, 0.05499974563319079, 0.02641346329092309, 0.03682283393652462, 0.008868504332482333, -0.009175385054051292, 0.11044877894601883, -0.025854675158015032, 0.058153810373149345, 0.027287413377003175, 0.03791940324321198, 0.07628516978697568], [0.049103572764253645, -0.01022879855737993, -0.03827219982860791, -0.029568054484819375, 0.057438780589652315, 0.04161150697286292, -0.005521739357527062, -0.05591707117189733, -0.014544405452085187, 0.003783774563955037, 0.039390778142653314, -0.021108344283928916, 0.012776226247255345, 0.014314450738646836, -0.01678096431454634, 0.048857124483766494, 0.059055072699421333, 0.01551724606279499, -0.0011247051379309758, 0.0017076834685125196, 0.03762254453042865, 0.05420579379504032, -0.06791872085468646, 0.022072899856324584, 0.022053537317419398, 0.08767105155612458, -0.03191590416173772, -0.06504106768160169, 0.02676736683706754, 0.005391098378455251, 0.019690824042216393, 0.05678980550300346, 0.03450767122259748, -0.07189241559745416, 0.05817588668228958, 0.033238391120530716, -0.0038005145302877283, -0.0012661433418361262, -0.03286263079270212, -0.036492131167163724, 0.020212513595911093, -0.0352579216818813, -0.016701480976332873, 0.007391105127043433, -0.044467341759887535, -0.03991108586634331, 0.05516368426458894, -0.0449552963296726, -0.011495814566709684], [-0.03462131436126638, 0.013977006526288128, -0.06810165100766105, -0.05134588643340395, 0.017695673854478348, -0.020797057216270023, -0.05583233535894578, -0.012441933209162905, 0.01719555895545909, 0.03956520550548931, -0.07212145416909281, -0.03763353364170474, -0.006844567917576253, 0.04740868901087643, -0.02151340656050261, -0.033619800377671524, 0.01978428135313868, 0.03752423806471794, -0.059044957502636136, 0.041139272084850506, 0.015746253036403264, -0.001931737981749736, -0.052379478537323866, 0.032692869599781293, -0.03215208909424074, 0.04879643699284974, -0.07014466977635592, -0.030856494943086062, -0.00845550673492604, -0.0863054729075052, 0.038062706876892116, 0.016437677211308076, 0.049095373800855414, -0.045906863087406664, 0.025664200011633734, 0.002674205742779915, 0.006585653210119502, -0.010498769464874914, 0.0460521822443789, -0.01388563834720738, -0.048793334531797225, -0.02490071104488007, -0.039055420658953545, -0.10956248350657061, 0.059163903081973404, 0.047381538075439274, -0.010053485759179498, -0.036842714525646206, -0.08158717118396847], [-0.00712772413617619, 0.030310793667161978, 0.06673194877727165, 0.002999458936221265, 0.008066650626498152, -0.018527437500699545, -0.016445147195335484, 0.020031375955026857, -0.03781739222366509, 0.0177371458378853, 0.06906292184775163, 0.05659170757149343, 0.02901486409759002, -0.002490896650175333, -0.026905612643878966, -0.015208804143384387, -0.004989565875544052, -0.037735205755300594, -0.0035734939496955553, -0.03150569510572449, 0.02426244800496948, -0.0737083177214314, 0.026481360640537577, -0.04820260617383233, -0.020299683826922665, -0.006038678434619767, 0.02137343495272098, 0.07193290725861101, -0.036054996510916405, 0.002372885409721377, -0.020672030541408995, -0.08196799683580513, -0.03140852377734622, 0.09272440052657632, 0.01155821560433215, 0.041748635478034195, -0.012543045002706317, -0.03999532812326119, -0.00022982331507975876, -0.03242309790633166, -0.037427026468500865, 0.010581538691629325, 0.03764476552298275, 0.08520374930751047, -0.052250724030417924, 0.0552241357160144, -0.039514520695230246, -0.049230129204348966, 0.048571148763219565], [0.04270596950183821, -0.037914840555936205, 0.019969626165527207, 0.023190136411370806, -0.0004457248781094144, 0.012272062125195486, -0.012039137428089791, 0.04247087562131965, 0.06379177792784381, 0.017397676356158066, 0.027801221748150067, 0.04758866016034378, -0.022240539730535535, -0.0462782212203974, 0.031226427664909566, -0.037606820341585676, 0.02372864140044355, -0.014225487048082783, 0.056460129168161066, -0.03057610235949995, -0.06935705712553125, -0.02293065146687505, -0.02161521756653626, 0.06268521242581837, -0.01253054505403963, 0.051271180741790406, -0.025964805476518537, 0.04119232954724663, -0.034571675170309485, 0.004846807457160882, 0.04032788886652413, 0.0006131851460037971, -0.04927460769014768, -0.02821335096646851, 0.02135413515962159, 0.003578723614994259, -0.023053454605050268, -0.055064136359012715, 0.05389466272408411, -0.058278939775217836, 0.024798660820820984, -0.008049842189165955, 0.013604073188099197, -0.07575593651130387, -0.006018407195299481, 0.05016614224734445, -0.018234568635123793, 0.026099578710923575, -0.021140620809499636], [-0.04296804373826388, 0.05576845862031561, 0.06261425527144862, 0.02542504528518962, -0.05214477964465261, -0.05274531936716897, 0.03704033749122365, 0.01718382658882987, -0.06214022943355318, 0.03200418009854929, -0.03111913225691179, 0.015998426239495094, -0.026310872240132382, 0.00592052345946675, -0.02840342446733659, -0.050443751656883265, -0.05830388777330782, 0.04847270944820667, -0.03850152853337624, 0.02264398285514776, 0.012850587984540633, -0.08325338762906268, 0.08651256161676193, -0.06088873037219778, -0.024953201912968785, -0.02314695651276184, 0.06312129533949973, -0.003236429313821068, -0.04377377848128151, 0.04612504077721943, -0.031000141682780393, -0.049466066025073474, -0.010575800885544514, 0.02284505810323892, -0.00430483741647316, 0.0713534767200088, 0.05212528151554695, 0.007148719710418486, 0.05850763373056911, -0.019366646774647105, -0.0479761028498986, -0.04432058515490765, 0.03912844471590071, 0.06542323347117034, 0.024879767747053583, -0.008463514756817775, -0.016931059333700815, 0.04219544445848283, 0.09348686815472605], [0.03161279699351486, -0.032015263709898156, -0.0037348815080111317, 0.0204649856019441, 0.045131089789397755, 0.033685159663179295, 0.03543030591343556, 0.010991055973571457, 0.06143584900280778, -0.021795471331479445, -0.0668190745100366, -0.020364315405844602, -0.03262179733230039, -0.08605433324000093, 0.016042562444445865, 0.05476417047679936, 0.061306443290994585, 0.031300565069343464, 0.03299121204375911, -0.014961256427928012, -0.05965290343352142, -0.0261523691531059, -0.035882642038682876, -0.027820210011999753, 0.003966513372373719, 0.09999269621299778, -0.015337078077064312, -0.07500065455693364, 0.031039152188006503, -0.05506783042319944, -0.007415016993669996, 0.08545487121857122, -0.051394761318099925, -0.04886123650087927, 0.05567427992753382, -0.028723645490869084, -0.04187232180861089, 0.03205518028432687, -0.020300361833139265, -0.008819751381872305, -0.047249211989019525, -0.04483714623285903, -0.04762685893486031, -0.06335875383702089, 0.028562185694542983, -0.018601557263833376, 0.05825678247934185, 0.0090345544231732, -0.07244517209520444], [0.015415059933771994, -0.031880850976509625, -0.028279814333401015, -0.041553015242707145, 0.008220399164040357, 0.020437774473174054, 0.025051082020145818, 0.05155762510980402, 0.01775156803789015, 0.027798167173883788, 0.037158786534744734, 0.01555309464432899, -0.06781756518745942, 0.011144407514877335, -0.027082374441515494, -0.037498996242768534, -0.009229992673306518, 0.03756058182791579, -0.01733813618900451, 0.055859060438650396, 0.05783806115278604, -0.015942170044521153, 0.07573519856122016, -0.041176259879627586, -0.05260343654796823, -0.01628089617687021, 0.051646962216513444, 0.07068580648304236, -0.06163397897349846, 0.023413233659998308, -0.0059290984182273606, -0.025648080743247533, -0.014789462426565312, 0.028019240918654754, 0.04208009206724318, 0.02504140192400478, -0.004092326538949004, -0.053682991557726246, 0.05497000069526718, 0.050523204425475324, -0.024505033274849618, -0.027279824474499614, -0.014317506127301538, 0.12253759298557812, -0.03822831279146457, -0.05390166359443749, -0.0493559891308523, 0.05484033243761447, 0.07107251656521547], [-0.02710661745442893, 0.060275664860145274, -0.03350133974805739, 0.002161529364991041, 0.02240700600324452, 0.045506789086167565, 0.04456542061764924, -0.01670382436474424, -0.01839402338901396, 0.033958266573992944, -0.013194629013523506, -0.0549186954355797, -0.03943774124415669, 0.042901921134008, 0.04750223270143046, -0.040391024307973256, -0.020295475082959206, -0.015592327930664583, 0.04119580620517829, -0.027219795706748928, 0.04759913835552426, -0.02713529329209711, -0.04852079469115254, 0.01899938378403072, 0.051315356187050125, 0.03613326450823031, 0.05562065961429147, -0.03723272066439667, 0.040297670599508326, 0.01859821507442674, 0.002018522655998518, -0.007579199125108701, -0.012719994602686985, -0.015596541555146932, 0.02036059155198898, -0.05795974349986706, 0.04067290722611738, 0.03952659904824339, 0.03689429285973344, -0.05984414276142828, 0.022393594646179422, 0.044077831944420165, 0.05665262939566251, -0.02050148478936211, 0.03912793315431781, -0.02557876178539652, -0.006548890673888003, -0.04808502702207237, 0.0424301631581171], [0.048892840732444875, -0.02562224773409693, -0.03416909498766438, 0.04471923144138726, 0.0018591610994275678, 0.031924388760256626, -0.04698936470304347, -0.023214173963393953, 0.033643692674734764, 0.0032581249124163016, -0.02308216360264672, -0.01750767128392486, 0.0409930088844118, 0.0037454074190468676, -0.05157946907779317, 0.060040301470893204, -0.02739759307994197, -0.0564372705029078, -0.01059562383508468, -0.0023532974961739377, -0.05821806765356094, 0.05295513394777662, 0.03896382639084484, -0.030557899566271775, 0.04090656971860146, 0.01246120483774316, 0.030654829070991697, -0.05150024728782319, 0.0036844523778879045, -0.04011343934704474, 0.004737769393130843, 0.013630476823314091, 0.046067310701805655, 0.016137161406260515, 0.01023411270396811, -0.02974622646314076, -0.04034162882479071, -0.058565518917737265, -0.020231185060536505, -0.0037906451844777825, -0.056235014310815845, -0.03426487095464721, -0.04093836535548405, -0.06694895487530092, 0.0339689510033825, 0.0014876047220528836, -0.011464455937482014, -0.021974317550499584, -0.012772216025026813], [0.034265423767266184, -0.014802527776155323, -0.040782654394323624, 0.023215990119446462, -0.02506683872587464, 0.04428096585038755, -0.024838533582638267, -0.02333611809418912, -0.04632606301731245, -0.042526421741938075, 0.030099892641195065, 0.00034644211909466065, 0.05095790082219133, 0.035874537592865276, 0.04253007753714542, 0.04292323833105952, -0.03297138620202083, 0.004308534604024139, -0.012328262452008992, -0.027253610256686198, 0.0203315268715604, -0.054078784256264875, 0.06921407720865068, -0.04104480787398522, 0.01929416499199839, -0.040321979868149935, 0.05262679815486288, -0.022400505156327383, -0.023774489236163227, 0.04266260160494868, 0.011533767595426476, -0.009594549756792624, 0.0036447126245601033, -0.04452996277247322, -0.03585338431805334, 0.028549761295716222, 0.0112723476816671, -0.03980081977936095, -0.05409865063112269, -0.051128351204782645, -0.04039763337996833, -0.05815506420178486, 0.023392482900015027, 0.005936934377977163, 0.041703082895341095, 0.024285990475142998, 0.039142120207132564, -0.005843712938135867, 0.02972159302350497], [0.013361980695878864, -0.03658507965398686, -0.045308126902662164, 0.053892059458141676, -0.0070951726493238745, 0.015112493223046319, 0.05366514695674656, -0.05294690147453202, 0.0016503969323176664, 0.018545573670839696, -0.07077984042241299, -0.06005557811833167, 0.07183716720138318, -0.0651416402892088, 0.05542779331748768, -0.014474222943953317, 0.051382581072275016, -0.03706578428034583, 0.0045447287652266855, 0.05058681847588296, -0.013371124337626206, 0.06530205334445403, -0.06464276734721525, 0.04541009422496209, 0.05536413915307302, 0.03746045968008186, -0.04138083190342641, -0.09028465481689026, 0.01491971126007059, -0.08131793787675255, -0.03017093180329189, 0.09206726676599743, -0.0645880409673993, 0.00865011144793024, -0.01127321327626668, -0.06631433660636338, 0.009408534346652161, 0.011267967241992874, -0.043710994269559406, 0.01607629132552929, -0.0019456330501295739, -0.012436281915089623, 0.037166784600775674, -0.06256133915250423, 0.05945575443567434, 0.04439288235316803, -0.030900174622397216, 0.0008787759081282168, -0.030146713086037336], [-0.05204597231814315, -0.019201934250637275, -0.06246956141224089, 0.023794601768183404, -0.01875962584070689, 0.048488049854060626, -0.015211764516240877, 0.0033646752923683068, 0.021715761916304442, 0.027318864061076583, 0.01613016241806125, -0.02040609009614729, 0.03380032434955814, -0.05673082588047294, 0.04152965866071409, 0.0009273366067733748, 0.006668074178471794, -0.05318327774934291, -0.05380884349625102, 0.04767159770875917, -0.03338076225382165, -0.0027923572630106407, 0.02832171860797173, 0.019772165163313815, 0.01180857513389101, 0.0759996107107259, 0.0068655546923412965, -0.07208002172327992, 0.03255014315000499, -0.024849350592096864, -0.005649477553955121, -0.0013120706968694866, -0.008486799342306164, 0.014504623851640969, 0.05988163812089915, -0.016202788031211373, -0.0395546157426776, 0.04112005900253776, -0.017836267193780404, 0.03386751367425009, -0.025357206884745784, -0.005200430699713508, 0.0594456128571311, -0.03806346477031966, -0.05177977149128169, -0.05578104787974074, -0.04266809519772989, -0.05278594481685417, 0.028157968612474667], [-0.04182687175492838, -0.016038668138999644, 0.02654588595306766, -0.0071809585912673175, 0.006269994670503526, 0.009895790113534217, 0.030621616190028362, 0.01513603132601082, -0.017867755463587015, 0.04343722840554435, 0.03748587524748209, 0.04183105901448313, 0.013046299579131063, 0.0016832674038998522, 0.03609218802382416, -0.015502749067449752, -0.05004579467568142, 0.04846181914738776, 0.03477862223999725, -0.010649390805325324, -0.006773637544966401, 0.038938149691969216, 0.06908146834876494, -0.0313423685888883, 0.021332956597128815, 0.041964683342666745, 0.007465550080089604, 0.06181392476870311, -0.0016475406569114344, -0.00475584285472004, 0.030025304384266354, -0.015401342639493137, 0.0017392083101387607, -0.0041665896519763376, -0.0441220074294022, -0.05022868834564258, -0.024194147051728537, 0.038422836404969546, 0.050628354542557964, -0.04554688367931781, -0.04762020223239522, 0.004640660130327823, 0.015479753561672582, -0.017990912045776505, 0.055059743095516867, 0.05455931789149458, -0.02482727999289038, -0.019518398368005143, -0.03013485311150205], [-0.0035345853823626305, -0.03883540546560935, 0.06006744199710449, -0.03314759479877449, 0.010656682774648605, -0.051425938471378274, -0.03774088424103972, -0.006325276660812615, -0.03544520593627116, 0.039602680142378194, 0.013510549206759526, -0.012539756694488102, -0.024706901749749124, 0.00012505213988441163, 0.026456408935288007, -0.027280245326413623, -0.002450970076581986, 0.03855140689291785, -0.04211137965512433, 0.03691890962741075, 0.0669545735268294, -0.05853641598208967, -0.0044673863333996346, -0.07558933762026983, -0.02239687182796077, -0.04376303306581181, 0.07493147738024562, 0.1071842991551138, -0.04249428187663705, 0.032196305835481207, 0.017762380548176415, -0.04727491684726914, 0.010763389653726661, 0.12847269044055717, -0.052724370615058094, 0.07182351720706709, -0.03037546167925474, -0.02896929316762964, 0.022897868873020224, 0.03756952541788723, -0.005751078077807558, 0.040849531615340204, 0.0017813755828573752, 0.08581493446825282, -0.025025944993428743, 0.0053862173203776675, 0.05691911054423884, 0.011267623536758012, 0.09345655690426423], [-0.003673487111635191, 0.015611390255855478, 0.05248215479324959, -0.004909528638431868, 0.03543925251074562, 0.0261138223191275, -0.05596035624676291, 0.05618807466418796, 0.021579943975828474, 0.01810080837277303, -0.04259628869272187, -0.04319100844228134, 0.007333587882481345, 0.02422314881592141, -0.030538870326709214, 0.044143986993543154, -0.045919747616693506, -0.014983814529897832, -0.015886013001717394, 0.04298908148796949, 0.0015073337556952991, -0.060262717724828614, 0.010194750056806645, -0.03764793859564305, -0.03822037759528468, -0.02909624001170248, -0.043988747722783925, -0.061891468905759126, -0.0071626746896060545, 0.0444953967080276, -0.013117854181681434, 0.053624218073596595, 0.004861354557286286, 0.03352487031870854, -0.05170543635993213, 0.0035399876995014633, 0.01596986474889843, 0.004792385692248033, 0.050003260715382504, 0.005641002987273047, 0.03068119937865744, 0.031634676693961375, -0.018359061272844632, 0.008028448790624866, -0.038405051955021946, -0.058540120382801986, 0.016676883962034164, 0.013397351533772235, 0.017819725759007424], [-0.017947519220417516, 0.059704957798903786, 0.02084333820164249, -0.012018089441559313, -0.011415306453343068, 0.022456561398553024, 0.04601539606541059, 0.008943485775353487, 0.02182873076410547, 0.01683202295807389, 0.011113100248761842, -0.035430434189756915, 0.028339549907678143, -0.030739120220556214, 0.00310273089311509, -0.04483383556278438, 0.028623102065552714, -0.031042366903899974, 0.025819285317465038, 0.00795318612900721, 0.02288994622364272, -0.04262277381835751, -0.039616205695213166, -0.021412772573096567, -0.030480943334810003, 0.0213332611067386, 0.037111851152331864, -0.02026156977310168, 0.019264435699341515, -0.022562899675124943, -0.03747121518267964, -0.04756393967743694, -0.05731939620126972, -0.05915383455600847, -0.04817518835720572, 0.0035623432493713477, 0.043781917940953666, 0.040732688447275886, -0.054330692366230296, 0.002714574511404791, 0.005263193992295006, -0.05473780385735993, -0.01072979486359378, -0.02207734307914489, -0.05766931471770742, -0.026785470667301494, -0.015857021569967787, -0.03463547265269445, 0.045061410136614306], [-0.02262154158860864, 0.02172594861510293, -0.0036288852679353415, 0.0459534018080615, 0.05343472873728148, 0.06195498933693822, -0.033859312682189405, 0.011453450021866306, 0.01015678864077168, 0.035540974218272216, 0.024485411629416705, -0.05454677087066468, 0.03705689352007314, 0.03557092013643739, -0.03698064956536684, -0.016440750977949985, 0.0008982518030947929, 0.02427663567708764, -0.02496437067383256, -0.036084018547181025, -0.0411846347623416, 0.04815878944496494, -0.04161250913703502, -0.027718889308961422, 0.014997439227803309, 0.09023274037383118, -0.04995852923816349, -0.0882572154217261, 0.061369534317484604, 0.026171157184714716, 0.017953380204639106, 0.059031319472649176, -0.02830658494876267, -0.04588943462110582, 0.04469723238319996, -0.0362075691848355, 0.015388529380703661, 0.038445584927211826, -0.006562436316447683, 0.054460037266935934, 0.04451288645455422, 0.01797933163052305, 0.051699666182202675, -0.006461742163301588, 0.01996369649378657, 0.01833279596385342, 0.00013598522687507247, 0.0015191076310703167, -0.08446284109836241], [-0.005104203693664775, -0.04747911944286856, -0.021763079390174602, 0.008257340638828353, -0.04719623612596424, 0.022138682257423322, 0.034178396389304325, -0.06466648269279246, -0.015725675399947365, -0.034129537297682436, 0.014072994196992353, 0.00472948348903109, 0.06574727268932394, 0.0055027110513237104, 0.004726962026777453, 0.0140296903865219, 0.022808099004327717, 0.030953617527953323, -0.047376748255028925, -0.02573620662008244, -0.07790527104059682, -0.03916095057965727, -0.022111826249210865, 0.023218397975339988, -0.04032753624532311, 0.034526790170639435, -0.011209541940206593, -0.004135345895748845, 0.02426722485176679, -0.020816192562006664, 0.05961669118776954, 0.003212039153691589, -0.047137020345878446, -0.002974398367948193, 0.02425742368336284, 0.050157509150389995, -0.0530265379504775, 0.012182823059940673, 0.04264013281482297, -0.040460169713422464, -0.05610945511566437, 0.04042716282463939, 0.0002858923801559998, -0.051966818675586224, 0.047604024665221636, 0.003784389541822078, -0.033795515281498656, -0.05536899366355023, 0.01916683943043676], [-0.01622325790716267, 0.026939600140336327, 0.0015382591388773438, 0.05036047320478691, -0.05550934751321232, 0.015656287420124596, 0.045631614408498014, -0.05720007722468867, -0.022007510710247195, -0.028257576639161952, 0.04794804941945087, 0.013555400031444549, 0.05415802323319737, 0.02691120445944397, -0.033307143735544845, -0.02465355817373763, 0.011046479593880333, 0.0338489184256051, -0.05713337182278984, 0.0012928564590852507, 0.00542818184701196, 0.026453422317564295, -0.019628626584917205, -0.016085638855730004, -0.05344725810489514, 0.051871803251489046, 0.04065218077625316, 0.012587922255670576, -0.01545380891633411, 0.01576063711187078, 0.00812497980635472, 0.037347086298783305, -0.005465869819289646, -0.03912592518873189, 0.02964830125451688, -0.008399615771001005, -0.04560907406994266, -0.022737453175178522, 0.01515396218851753, 0.03937520675322455, 0.04078188200601952, -0.031012398223453315, 0.0234142447942898, -0.04099736222274437, 0.0343380159203375, 0.0076860643005597406, 0.00854028584976381, -0.05014818257021065, 0.015230334737521027], [-0.057578666380652066, -0.052892075650859696, 0.016768978560834962, -0.006867239427048139, 0.009894966788219455, -0.04745026433350962, -0.010185843355169914, -0.028414549460895392, -0.06119348912306541, 0.0010130771608680136, -0.004687990986128422, -0.024573231698874404, -0.018834172799674195, 0.06614972072499559, -0.03560108243005619, -0.012053842319619293, 0.040283199915735736, -0.009697989453880979, -0.04779910874832986, -0.008609509461098, -0.01508242766431006, -0.04575064020786114, 0.01854486924545547, -0.015192731558314397, 0.04088460079395796, -0.059230491922247094, -0.040765958785890725, 0.010990539236015845, -0.0023807011220590957, 0.06334806227723835, 0.0363806762481607, 0.021178232632628212, 0.06156937409132699, 0.013569688762337995, 0.05866624148707324, 0.009525459939026062, 0.047603770887359176, 0.035495909062146475, 0.013253594695759313, -0.051260140677580425, 0.032358000445992116, -0.010584581483372886, 0.0321522514421847, 0.03863861060877812, -0.005389164155949769, -0.023050085686587188, 0.040259283356612524, -0.002538859018769373, 0.04937679769739555], [0.05397781690837062, 0.046187108740841545, 0.03543401769798621, -0.024046891536928065, -0.0004416888941732908, 0.01678389692338613, 0.05223495628073642, 0.03650951788582742, -0.007658661321272501, -0.04874285264764227, 0.00652109428277835, -0.027512861640470444, -0.017916408400411157, 0.009904374055659415, 0.005626025938988173, 0.010111161995012765, -0.05538931600641594, -0.0006864440333870236, 0.0058558971238365926, -0.010668224982451506, -0.02826066675951136, 0.04191785054370977, 0.03622347822756268, -0.03899013435339526, 0.026194666889588707, 0.022898871414608047, -0.04145566383676669, -0.05046511867813741, -0.029289021883779114, -0.007932245408456965, -0.03315131985136184, -0.002207772681783085, 0.020804628680924926, -0.01679869233880913, 0.04023615250429516, 0.02861102642579999, 0.0028456624705481964, -0.03339929735898664, 0.0338428160315553, 0.02558688035363603, -0.01683375070768925, -0.049693144545649326, -0.02946691685428218, -0.05944824294087709, 0.0037693974957548892, -0.021520804803501162, 0.05250459510087911, -0.007363991134907055, -0.00791045781306867], [0.01911289358281856, -0.031640344474175595, -0.04693693178466308, 0.015501199308295037, -0.03194553188869972, -0.026018865973049355, -0.039328343068474075, -0.05225815884495793, 0.06077472319723486, 0.03406115690633244, 0.03450517450124443, 0.037024118082729665, -0.00643333473529858, -0.017942757253032862, 0.031227479384157094, -0.027156560748121478, -0.03054223465437786, 0.025079371645369206, -0.0512760752899816, 0.03171452405441006, -0.08736362051934918, 0.04322181955517507, -0.09825323689897035, 0.015968707866288255, 0.031089684233306505, 0.07295305490165091, -0.07603066006715295, -0.10340998798519985, 0.014171917101233337, -0.010350580623685808, 0.05948753652944405, 0.06908100026768788, -0.0474041490038727, -0.015352119743169865, 0.009082633001029461, -0.037793413826524354, -0.03525142442508862, -0.03642654720890832, 0.02058135469742966, -0.008244803234088362, 0.018783145615201367, 0.0022601615059105185, -0.02365956365348875, -0.14054751849906505, -0.02338234237928139, 0.040710537907050294, -0.033129639384596184, -0.056753209113602196, -0.03180074649446469], [0.05892204007889108, -0.03797366249034271, 0.024439799225910865, 0.028167583691041845, 0.043850380898426904, -0.029326227011817817, 0.026320021483364806, 0.007568466548204524, -0.04879566445609914, 0.0338249572200205, -0.001878967372061555, 0.023364519665290084, -0.05353631710910585, -0.005806654779986088, -0.01972601746841283, 0.002449278280601539, 0.0072009124689118315, -0.0011698314581998909, -0.05411524170667373, 0.031713990944905256, 0.015921462920891433, -0.02558270019564467, 0.0810369096450656, 0.003999120543624362, -0.01363755468940034, -0.01803037564615508, 0.0424737372389597, 0.00393542391624217, -0.03322043372923619, 0.013930755265647287, -0.023009855498284507, -0.08888202176582319, -0.022170128541946058, 0.029363616297841847, -0.027914080760779517, 0.036925314244960816, -0.030428384316563233, -0.039882765950278495, 0.050984579251297846, -0.024383316899666226, 0.01440508025218273, -0.03990292284053069, 0.009461868716082969, 0.07407625179831279, 0.013034939277307409, -0.01697114389936837, -0.0494851385868748, 0.011466015201784772, 0.05499610082894982], [0.010103597875162868, -0.006084258710758576, 0.011636684799014314, 0.03833028702174595, 0.06070592095693646, -0.002222364082860495, 0.0179572345658759, -0.0008616554229337854, -0.04537329832923515, 0.003070401098479981, 0.0316467372627296, 0.01678881272741795, -0.0474402655869981, -0.010821219913291323, -0.006316064631384958, -0.0098852198759915, 0.026072818601063134, -0.05949431250669182, -0.04234175716872559, 0.025955634945054963, -0.01917245397151626, 0.046904612968935104, 0.06701175066839632, 0.011274594060190641, 0.0047223203480266755, -0.02412760539994264, -0.011249173560753448, 0.08145325336312242, -0.038007853703079436, 0.01618658747013157, -0.025413632441653223, 0.007213467663320547, -0.001807558141462057, 0.04959964902590702, -0.03414347328629921, -0.04668185041883555, 0.03408299988940906, 0.005024570506873938, -0.0027984586514104804, 0.01939993182463451, 0.011948032139792078, 0.019240331247585923, 0.0009718058180332931, 0.016019633711580782, -0.054155936643943296, 0.03402545044493968, -0.016210904314683257, -0.042756478461068934, 0.024266860983834636]], "w2": [[0.048947099464368996, -0.03853177481791394, 0.0357887891396553, -0.0591216910926313, 0.04697443708317653, 0.01023136895201572, 0.03866247399441895, -0.0024594412970429086, -0.03933504714116012, -0.027821563292096427, -0.020894644970804895, -0.010874657070033078, 0.035383717640664974, -0.02731846030875454, 0.05550465930650994, -0.04964135420792263, -0.013189396380334404, -0.02628605825367411, 0.0574568726011504, -0.009203650890541726, -0.0017417679450076435, -0.03518619346919786, -0.0054567946211363915, -0.03945437079921679, -0.019514488104113912, -0.012252155389972607, 0.010786930951265665, 0.04985533349153771, -0.04383833397060792, -0.04334848609594862, -0.016535236706261325, 0.022609360656181292, 0.009928076752696004, -0.029543347039217085, -0.04444561269794457, -0.004642847715738244, -0.05404869906945021, 0.002342781334864382, 0.03589193829373082, -0.031543530548933475, -0.02368374366532468, 0.018657427162707716, -0.04646882681975207, 0.05114349275604295, -0.05962129856912151, 0.05453292017600559, 0.03342374644069591, 0.018670563099187184, -0.013675890950849815, -0.0544949645208183, 0.004374359002996276, -0.04632049637092588, 0.00967095813300748, -0.007920536709132871, -0.039677297483625355, -0.013122914505084165, 0.014056502489026805, 0.047347832106628046, -0.002866872378132525, 0.03180584278585175, 0.06019762475295728, 0.04913757962345899, 0.0013648841690861407, 0.020048648102032645], [-0.02092059536990533, -0.11115434449879395, 0.001063234014388642, -0.006816490151563721, 0.0915561830656057, 0.03534320816605232, 0.07186021400061617, 0.06730446267199564, -0.043414385720952534, -0.044818921225043294, -0.007241100805485014, -0.017805416422133204, -0.004811795655645911, -0.10877876627198077, 0.09234716224089781, -0.036446211696751954, 0.04319702294464732, -0.08016519701201591, -0.03674155205309625, 0.015239438918518361, -0.08234123230482623, -0.008518723410781666, 0.051997962372476385, -0.03569675176841487, 0.0030514566210911114, -0.007470200853193787, 0.04607403590711939, 0.044126471008106405, 0.0584173693417416, 0.04691844018129822, -0.07134509996331204, -0.06401016613580553, 0.06483800269565979, -0.00335681130723184, 0.020304712529203184, -0.06496077362984387, 0.037743923742901225, 0.08607065031990187, -0.09302814496831407, -0.09628417902665166, 0.07923315951670934, 0.07061984093461747, -0.10336127911541686, 0.011539696668355588, -0.08505087465290255, 0.047403909182832486, -0.02406614884548048, 0.045502656825249885, 0.07367857952799688, -0.009787481928789015, 0.01655954509547913, 0.04301145792650916, -0.03741779929992269, -0.04037932300140284, 0.015998910049948755, 0.033775074223794256, 0.06222261960965432, 0.0672005755738169, 0.0608984926451022, -0.005070575800237341, 0.04782719430000854, 0.07606988927305826, -0.07062655415920975, -0.048906197831032235], [0.014965750469802983, 0.05372576669716923, 0.006173064258488741, 0.01249328941380098, 0.007757373823841978, -0.0372322382420435, 0.007950627013435827, -0.05500360384452253, -0.034848971480671544, 0.04496359630719872, 0.03908328746911954, -0.04694274385974234, -0.07897020729879431, 0.11643326058399688, -0.04680891865326838, -0.0436256287830901, -0.03963593403234807, 0.058693753110011015, 0.05432707974137984, -0.010595285210394096, 0.03908347873509155, -0.07132574040429042, -0.017834249521456794, -0.04845260040799382, 0.029337549280542035, 0.05786813173506403, 0.013169553763834947, 0.00372031820422032, -0.07266799143911355, -0.018902099053797274, 0.09892196133529697, 0.06471100010955845, -0.06007010678525056, 0.011547037989572071, -0.05416015026892134, 0.03877242408718469, 0.043041294383145585, -0.07628070454442107, 0.10885330264755731, 0.05945044232322413, -0.0196873505905382, -0.00866205951891986, 0.042304135652770636, -0.05252827011093701, 0.03576650431025809, -0.06907149751174618, 0.08966481261145176, 0.04573875686911355, -0.0005214179361160732, 0.029122837502407285, 0.017512044563170855, -0.0013931650296608335, 0.0432792145354956, 0.05330441492829219, -0.03588251268627628, -0.0016217224366537122, 0.0183272088763581, 0.03432091168492914, -0.021022128091324345, 0.04084702159804231, 0.04599876984692075, -0.026561811548730174, -0.0077302548097902485, 0.05300419813949006], [0.041884908839914727, 0.0648491926303907, 0.04226246029574953, 0.017552512667075124, 0.022514955966301764, -0.02381916190209764, -0.03515900475807133, 0.042948028779431435, 0.026988414868436818, -0.0265370799347431, 0.044891158910978, 0.0323318973883462, 0.043733155061818074, -0.03333108543724584, -0.046845692260070834, 0.02294648535696086, -0.003092853596094239, 0.03898012409587317, -0.042983070570599004, -0.01967353179610943, -0.046443404572723744, -0.020550837219817413, 0.042769209982337505, 0.040230074260124184, 0.018955949411562503, -0.02422025130414912, -0.049121529915610244, 0.02432889466488601, 0.024447708677701963, 0.026533348676776782, -0.01645310012249232, 0.02666118172128881, -0.006059363098229121, 0.05654335369422462, -0.06663097291870992, 0.009877125233227535, 0.024424529095299113, -0.0659681156431436, 0.043531734847915476, 0.06413677093589891, 0.037085344601790506, -0.06509700214213851, 0.03393769941542021, -0.05281292460443389, -0.03653266211993264, -0.06425755564445212, -0.0012713271082115047, 0.025488624572988998, -0.024692211421902494, -0.02322793786463776, -0.07004118658659085, 0.014259358778703345, 0.02319613518170319, 0.031169778331824122, -0.0023253017286560505, 0.0409363265630305, -0.029565900094678656, -0.05412414371860739, -0.03305020622309858, 0.06767403436311577, -0.03513176925169467, -0.039605415720420686, 0.054287099164190195, 0.05978514950903699], [-0.011718736162464051, 0.004016302191393234, 0.027198594131698766, -0.04782499530817612, 0.06889213682163743, -0.012346244526387648, -0.002373173839465465, 0.01046977428099733, -0.0013168906844284241, 0.041057187708704375, -0.04696355432608805, 0.027395447704749207, 0.06554789893764018, -0.006474353734001024, -0.03763062585275016, 0.027388637569215692, -0.04011656342929704, -0.030125341610292202, 0.05484746289560843, 0.027215450898144533, 0.04138837095204455, 0.06335291693259597, -0.012527083592832665, -0.013795669472934481, -0.06066049997331046, 0.009465658779777746, -0.029143448759063238, -0.03692066387284068, 0.013666172806283652, 0.015525715255193641, -0.02497363015949508, -0.010170524257374792, 0.07022636120866843, -0.028119768338203056, 0.0705930285255729, -0.05434903886032674, 0.05303808876570699, 0.051674104026526974, 0.005232794605766417, 0.03335139074162622, -0.024680064991250184, 0.02497380248027903, 0.023461522752595276, 0.03680992320730577, -0.05942875273985713, -0.042665290018392935, 0.04442623770247538, 0.013983589086165994, -0.006265389830904946, 0.041196133698113015, 0.06516203106142794, 0.03710419562485288, -0.03946942141009091, -0.07643290033219793, -0.0456312618379674, 0.0434926813975624, 0.0537072846029383, 0.05313915524671927, 0.03893474595707744, -0.02323105178411864, -0.029215829133744403, 0.07192434040335302, -0.0008574048637066513, -0.00966472909552526], [-0.017316481197564862, 0.01770336005123449, 0.008311035894903871, -0.03423043178912408, 0.04115411407693762, -0.0027890167243357616, 0.06625955552378598, -0.026733092047730504, -0.0002766334924510843, 0.03666667590980362, 0.04604977750711677, 0.055736154943412025, 0.03586388249691496, 0.02224875491857214, -0.021611263399564467, -0.03050376309650791, 0.054019340997108874, -0.042176501449357404, -0.011519740017150214, -0.014321346769770068, -0.058274321378152784, 0.05469460865953225, -0.04185224033493947, -0.006784584499730744, -0.04786534047172287, -0.015977850565283197, -0.012520315757760145, 0.032018577002893726, -0.012980492405248595, 0.031168127428130764, 0.030068207441875505, -0.027258423643414274, 0.02384541722656663, 0.056751016343303796, 0.06487306173546899, -0.03930967997835465, 0.02785049660488143, -0.021232894630931868, 0.0018985308342490737, 0.04198073480325455, 0.06421797468249918, -0.04163311395229185, -0.004845005975935191, 0.011989364427963464, -0.06699308489470664, -0.0441895276349622, -0.06467924450503723, 0.0005876010404415897, -0.024105458592297537, -0.052635655859039635, -0.0007014012372028864, 0.040315671831342575, 0.03798219306984256, -0.027776897630560408, 0.022115728442329813, -0.014783519170495094, 0.02697400096806028, -0.008191301646860138, -0.05398397922290244, -0.045103427042542076, -0.036819265096592696, -0.016216879824572053, -0.05126074892564369, -0.010201638034909345], [-0.05321827529574392, 0.007027442891347025, 0.042397996050216144, -0.027676118606451666, -0.0494439710882168, -0.02917382947927495, 0.03341033908258653, -0.05445406371738413, -0.049757635948378065, -0.026678627547676498, -0.031348056104165856, 0.005741804171711503, -0.026114538444834984, -0.0484579999046804, -0.06067657624074578, 0.00507933363749972, 0.013619700686858112, 0.054397513868532296, 0.030680536687002196, -0.050255085192349655, 0.0468790371775837, -0.021308652793506477, -0.0032904756738958867, 0.05305032796349788, 0.015032733411876456, 0.013797579790168582, 0.017726196503909202, -0.04665962505142434, 0.029760554003079625, -0.007373135664595537, -0.0014197305449381817, -0.028362976896481994, 0.04942133515542174, 0.05377471085900686, 0.01957419213080961, 0.03360256214901217, -0.03333810999655229, -0.060114592476269484, 0.020926540504690047, -0.04611671257501957, -0.028389228639483344, 0.0090879597005658, 0.04654337398654923, 0.018914868830554536, 0.036758962541858384, -0.03960232463848532, 0.0343783032566613, 0.04864400675947982, 0.030591603320028457, -0.04467582637620983, 0.019089817386899643, 0.03168774022519002, 0.050814296572078615, -0.003976579646761415, 0.033386472490143565, -0.011185261304755868, 0.04041959660414017, -0.03620266519041893, -0.0507049765165715, 0.043193520527622695, -0.014480995239114872, 0.05382323130288001, 0.0250762286485619, -0.002485061159403759], [-0.0176980892682581, 0.07469753721899595, 0.03507726454593367, 0.035081207155834356, -0.06198328368302007, -0.07032829389138379, 0.03986401372753466, -0.059144026095535616, -0.0006865747714593131, -0.007207068162076978, 0.057596162654371306, 0.03882150687839182, -0.016599711680562505, 0.003507435871498773, -0.07033951650864807, -0.003491820085863497, -0.03776738500955998, 0.047141269992148134, -0.003923078393319446, 0.013549226096119707, 0.06971849395295614, -0.002591997397501842, 0.0012173264903503544, 0.061706665691630545, 0.0026796495180337076, -0.018063704014430856, 0.01895764793785493, 0.029192193577309386, -0.07495188980527062, 0.030405315784450493, 0.09024296096677803, 0.0015262685106515975, -0.017452595590306066, -0.0413922678051093, 0.016678111846716307, -0.026627134987565602, -0.010557700232441432, -0.07970432091347636, 0.06418303245572371, 0.02020962843039945, 0.032033955944044075, -0.0404314146721737, 0.07945996152540766, -0.0607473390012431, 0.0363299110207907, -0.036384291132967476, 0.033086709237425835, 0.012677327120131582, 0.04778659070630857, -0.03246209570734227, -0.0666100608344864, 0.03172824291354531, -0.011174627765013616, 0.07667152864909661, 0.04226308951412942, 0.030832028763960802, -0.0760489994030119, -0.022729872395023262, 0.04074769285629751, -0.007112342673285107, -0.05489821745432037, -0.05569511005816991, -0.012642459213052699, -0.012204411093755472], [0.03732147696973761, 0.035897372282878336, 0.05382593294286186, -0.01946306933095861, 0.0005746379879764027, -0.01063521591662613, 0.030289776597755294, 0.004615434829378246, 0.039010128480883734, -0.027939783897903768, 0.0041622956704873496, 0.025252808174467282, 0.024451224753116813, 0.04774377096657191, -0.03751250220175427, -0.020622823372920696, 0.009023494015001595, 0.047475346960728346, -0.01681387387238744, -0.005261654217031382, -0.03140774931187197, 0.01044239075154112, 0.0018427783714759355, 0.011062103703677073, -0.026447496452167842, 0.05660475527844183, -0.0315158356415525, 0.024578499874574403, -0.05413119914871016, -0.034975046099237045, 0.0456890102284783, 0.061625486279726686, -0.0476781842053944, 0.02579955915362732, -0.027839872003888867, -0.01563641141670457, -0.04007208764798606, 0.014467133556499876, 0.037602385832224215, -0.013659101234661082, -0.03358666712540876, 0.0387650563656379, -0.009687650902516687, -0.012421796976144527, 0.021517930305208342, -0.04978156120516676, -0.03756443735640469, -0.014082275640250429, -0.007689972918145463, 0.014030689727406702, 0.03316132334027021, 0.0031310288629954872, -0.03358964110457968, 0.0030201153821238654, -0.01782200565862013, -0.0006259614053675876, 0.037459416630146784, -0.008569680531862457, -0.02779658292611295, 0.05319777752308614, -0.0134758803296546, -0.04281255925188415, -0.03039734389628059, -0.04699390147355763], [0.03033896761650027, -0.021910125283459543, 0.022709897287918317, 0.06441886853279448, -0.059276734917543865, -0.08384331406251626, -0.03788572757800354, -0.05774052034178814, -0.043524496353171446, -0.05543482142815039, 0.06913751192043713, 0.005463005951531613, 0.0360090223634114, 0.06247505070160697, -0.0358003980023272, 0.018372731023058225, -0.03758340653674951, 0.07491546024381164, -0.056316632386422566, 0.020144917317926368, 0.06003604680676334, -0.03822085170389305, 0.04785319538925432, 0.01887440800426866, 0.06763256286791929, 0.0412462910046811, -0.0346450239759286, 0.04969000668288119, -0.05877500661795301, -0.00525813465367274, 0.03220379671889691, 0.05334910419239163, -0.05797229975363796, -0.021116799408728897, -0.05959241139224809, 0.042317750404706166, -0.0006559185257479028, 0.027004418642346012, 0.045561665451936344, 0.015662169595638088, 0.04274469697713165, -0.044665502551367225, -0.0030531645164069187, -0.06276466508688977, 0.028547351777824644, 0.003927760539281084, 0.04349132298002188, 0.014047164816770236, -0.038490902695667635, -0.01692234062472437, -0.04088714980427367, -0.06305516417977422, 0.055360880651588826, -0.0032447513768036726, 0.04569665177513709, -0.01284678596168053, -0.02018481924453108, -0.021841005757979, 0.02088651034165269, 0.06836248277539561, -0.044219617748609975, -0.062422553553608956, 0.031457318753405024, -0.005240637376515257], [0.03318301644353076, -0.01432106891526678, -0.004351557319918417, -0.015419444670707737, 0.0015181228318935883, -0.04562165108945526, -0.04866311705328941, -0.057126858651377226, -0.04600838557267448, 0.01624108537490138, -0.0139565869720042, -0.03572905975056373, -0.049315662607298846, 0.062183562134376806, -0.009453785302051433, 0.02576777772101188, -0.029977173623019788, 0.0203051505860754, -0.03408579460534089, -0.022887195400982916, -0.00341965732277911, 0.028073022582651992, -0.06359236626092406, 0.042429722211978015, -0.04405561907492213, -0.03780313957755815, 0.04674740676738394, 0.03018186677605937, 0.011730747046763013, -0.03727640529428401, 0.047577512066250265, 0.013843131827498807, -0.06166588970844735, -0.05536427028651571, 0.016885154058587263, -0.015861001865414538, -0.0370778407567025, 0.0180490267766288, 0.0399286096552196, -0.0026290087749054145, -0.0482187415870332, -0.0410946512008331, -0.018329483467003038, 0.02061140685924906, 0.05943073947775827, -0.03173269294987801, 0.055685481668988894, -0.005703519676426766, -0.04982280821511485, -0.053030816371489514, 0.04615325317718258, -0.05591586932795156, 0.0028283628326717645, -0.02876944035473018, 0.03778973901003069, -0.005726923674723085, -0.040493792545491424, 0.02407032981050758, -0.05629668259213698, 0.04015501233792537, 0.056130033174626545, 0.00752557130349617, -0.020817041323748918, 0.04813333074565072], [0.03525661240855906, 0.04032981972081589, 0.04621278142967897, -0.02884075069742716, 0.06490804100501615, -0.050090195655381635, -0.004836379599109042, 0.022331042927353863, 0.00586000391250671, -0.009896597271112226, -0.007243804878177524, -0.005088682133723169, 0.06443074825273916, -0.027937556183112448, 0.02398602148114801, -0.055539120002631996, -0.02438585627175254, 0.04828931484226278, -0.031001357611081307, 0.01721749926924024, -0.02129607600962747, -0.03216107981633938, 0.06018807183380032, -0.040259575825360494, -0.015437598143361009, 0.01616926299829794, -0.0466866728397738, -0.025805851535247854, -0.007531411297729655, 0.01859161795245035, -0.04111379868770579, 0.04542641568155566, 0.048467896409747406, -0.01008294761226799, 0.011558159467453859, -0.022146830983375682, -0.03526149198590615, 0.06044183668233893, -0.01091588810884835, -0.032220213996142937, -0.01638646953631476, -0.03670583528151579, 0.034009435066268134, 0.043302110158708856, -0.009066750029912023, -0.026701682021612546, 0.041862821465560994, -0.04419067878961301, -0.041979801231176485, -0.0030988389839001784, -0.031552245025106555, 0.0009207382967360754, -0.03263801560371288, -0.045139549345032455, -0.020313912361770686, 0.046055179226799345, -0.007238838406149329, -0.03603253802915746, 0.017607777422344654, -0.025531941522789366, 0.034100727912944793, -0.04603523633885433, 0.028464672505978592, 0.03360462952662876], [0.005880975925668672, -0.0931958497694261, 0.0474464661658398, -0.03878580632911552, 0.07362136223320884, 0.09043943073749024, 0.040069033034884495, 0.01192107407510903, -0.023255766920960885, -0.02513106812132631, -0.01930893531398646, 0.014328160759579276, -0.031074955137129486, -0.0871722390417236, 0.05595533133965885, 0.025468608194916715, 0.04372449476982524, -0.07110483790174442, 0.03961702913430642, 0.03772788730222345, -0.06928928062491056, -0.04309366301638865, 0.04883018009523768, 0.03968172471384655, -0.0031710935672953026, -0.07060073584498387, -0.04945680004609627, -0.05049321437268747, 0.069326224592793, 0.031112487470628693, -0.04640149326561145, -0.061859151323183564, 0.102044296146944, -0.022256193751657466, 0.008703304837122176, 0.03514372575911534, 0.051508429436797815, 0.08154021980914536, -0.04245181337062506, -0.04756277517457389, 0.05698483712174868, -0.008165050098029362, -0.02408803288925822, -0.03434841138774077, -0.05019003250231784, -0.0017281694018498666, -0.07991294007824862, 0.030056116440085833, -0.0451597383634734, -0.03515636487075736, 0.0880626479562318, 0.007080990109457536, -0.024652480036858014, -0.06339365663159559, 0.015360612095977711, -0.03857420345959049, -0.02322504116416189, 0.031664036442470574, 0.047737544676217644, -0.02582500174403746, -0.003997210993018515, 0.028329702620247085, -0.034260878461865575, -0.006480999261660216], [0.038451999308869715, -0.09142488370052744, 0.014505350571055625, -0.06716170985660008, 0.10089067722639909, 0.03461218381546878, -0.020256604347273777, 0.0580701296087812, 0.03974169533608515, -0.005585462295598795, -0.06424827815262224, -0.009550736585914162, 0.033288325356538945, -0.09541388565324738, 0.06304150528834966, 0.06602220186221809, 0.03601794262109507, -0.04784369172860777, -0.014895513564667343, 0.011662030855292802, 0.010009694543106016, 0.04288817408207638, 0.03765226926732311, 0.032385045665988474, 0.021883299341460688, -0.049698127257201546, 0.00386786311312875, -0.035106819887853434, -0.01021530344795076, 0.021246232597997496, -0.06340371528236051, -0.07093316498784416, 0.0744906437445939, -0.05944971177859296, 0.08294406179580491, -0.041440714839669136, 0.05921601720745074, 0.07251017746330374, 0.0021642639061753327, -0.045756724427295704, -0.018941576776814722, 0.06371260542064616, -0.06734213837419013, 0.02998473966936054, -0.050519930697990746, 0.08664758134622655, -0.056092339283072695, -0.013951792048928813, 0.06589276306016835, -0.04580124524398136, 0.022560636706387246, 0.036279971350830595, -0.024977898152810856, -0.09069521916378674, 0.03400257271968393, 0.021305411306089525, 0.07273120367775857, -0.0007683275887446219, -0.025539051557053574, -0.07156667947232034, -0.020199422543764896, 0.07955777838012482, -0.07557482848913412, -0.015231481805061299], [0.03740106602484144, -0.0802627430786949, -0.02907413851779031, 0.01221018429692475, 0.007217688859150057, 0.004706039902906461, 0.0586482003036685, 0.008118693674588185, -0.050366989264457575, 0.011599522589104032, -0.040853369081579334, 0.0005306284005599342, 0.05858336961738596, -0.04371147285797301, 0.05710227168046937, -0.03051007255922661, 0.03326225815275514, 0.017684145308897413, 0.04133178884229464, 0.022357344788575876, -0.050493708969444974, 0.028626946987921745, 0.054040663735838386, 0.01037633337294025, -0.008466871381652688, 0.020135918932813506, -0.008518984808935969, 0.020624055605260604, 0.04920465249975264, -0.03281065992235707, 0.01203687444303933, -0.07933383801449297, 0.030234585736236167, 0.008681662985479843, 0.070391296480455, -0.03500322487077253, 0.03299425061269158, 0.022019734765500218, 0.03036957168558713, 0.03966358900035008, 0.06537529069884011, 0.04002120544707463, -0.023596104210334944, 0.06310321920003101, -0.027892838152486398, 0.06346479422729302, -0.06203058334975589, 0.012393578362876597, 0.04218651891962193, -0.03126111640627236, 0.06522371531388269, 0.058189387737818836, 0.005118410069222498, -0.07300569285029403, -0.03032973839231394, 0.023642743952880567, 0.0025735621884666114, -0.007405435872813755, 0.008143717025079579, 0.01070324392197798, -0.031202270294115906, 0.010878790699241574, -0.026673991372577484, -0.01989268358888328], [-0.008050692108492876, 0.007769215572163615, -0.0018488364509227923, -0.01417199663654125, 0.0003844243177658247, -0.0064475566428344455, 0.018797735939694117, 0.0014205495511502263, -0.011156775190348118, -0.011968571878718139, -0.005098707893427469, -0.05577225142319409, 0.046036961566115864, 0.0537233587743153, 0.021895940379719727, -0.06561998647132367, 0.024413648500417863, 0.03703608251455041, 0.04454444117678004, -0.0436064268730659, 0.07517506971034087, 0.007041976179127896, -0.05632306527570644, 0.03484922479928198, -0.014252130040079778, 0.019755273179612367, 0.0042623601883202905, -0.033924245516114185, -0.045143760921197006, 0.0020944457813121477, 0.00023820787498011036, -0.003137724173694592, -0.07544455194805053, -0.006475140233868505, -0.08076989742763728, 0.05308600495223301, -0.04241028639349128, 0.04050192210515925, 0.018375718244062793, -0.03568022988220798, -0.030137907393574703, -0.06449056908884762, 0.01641646977170261, 0.013948199728757332, 0.0676215338251122, -0.04998804887629052, 0.05298658009158824, -0.022565813685930858, -0.05195487842220086, -0.055314643870705275, -0.034578579742316054, 0.011263824814117225, -0.023745418576447568, 0.06407028020649484, -0.02843742816997895, 0.009681986517476949, -0.06859195708074882, -0.04238045723864534, 0.02535164205861852, 0.0697726374189311, -0.045100218881403545, -0.06111037340565628, 0.060874535449935444, -0.0538630255065953], [-0.015171918733805016, -0.018846396585794723, -0.06582714893309019, -0.025302075411099918, -0.09063622134624214, 0.02572970690238037, 0.03455276947591449, 0.04001870261046501, -0.012417368497192173, 0.02015784574435155, 0.026145565097637345, 0.042623714257393246, -0.06822917417338109, 0.024665023289420406, -0.0027616885435533456, -0.02611983002038679, -0.06425362929081826, 0.02665751240333341, 0.01736589395343732, -0.0015466256871959978, -0.01104339416211248, -0.06519112873844898, -0.07495284219717895, 0.04032358239846229, 0.0004018168305024979, 0.06128778758664202, -0.058990216511305954, -0.01968886226546716, -0.07456317489437012, 0.03686496281503292, 0.05357050909255946, 0.08764446191068863, -4.547227862449014e-05, 0.026479095732136276, -0.0874875655227332, 0.06512139929813997, 0.010649669338886843, -0.04254794830010984, 0.0447476506578809, 0.05010287566693005, -0.035014074653619186, 0.035314876215774, 0.036587041786985075, 0.01771006278747081, -0.0013257667011726273, -0.0025235050704474297, 0.03806918491170458, 0.053058027122621136, -0.03940262626355463, 0.027797708947064993, -0.0698782078301372, 0.00422408237659417, -0.015623701772844919, 0.05753051105807346, 0.019759869770334424, -0.02775678902446935, 0.006317645036841653, -0.014693255812655182, -0.05563959737292492, 0.013408895492774377, -0.03323171879339163, 0.004685888450401205, -0.0199883801941977, 0.0473504681961238], [-0.02549726741947741, 0.06263602306234059, -0.027072326476176467, -0.04417100050580453, -0.0636922658745562, -0.06297102441540249, 0.0025002020093594754, -0.03898155602182456, 0.007637454151670168, -0.05824843161327021, 0.02414618608176039, -0.006058862763367834, 0.04231557348063406, 0.053554459168175104, 0.039907540107974815, -0.06147962797828747, -0.030947838843777924, 0.05741563288985467, -0.03852984932044005, 0.028870086397004287, 0.017902503870047028, 0.028241952323504828, -0.012894387108036788, -0.018083279304577773, 0.009261155105730137, -0.01200503141982242, 0.03678160530922819, -0.030196299946773676, 0.02361552485798195, -0.02129199691198939, -0.024005337300547044, 0.01766828583387485, -0.050957783303141595, 0.003085955595072954, 0.04537634450710883, -0.022239872237244242, 0.050978828663497504, 0.03308818572984822, 0.04401383595677911, -0.04195101654085403, -0.0329566941468365, 0.044096287997803386, -0.04379755494090045, 0.0313769892263077, -0.015286022650164393, 0.04373460093854773, 0.04439426196864255, -0.028821305452566153, -0.018364784598592823, 0.022811881243162854, -0.01805902076622281, -0.03459433691957687, -0.008220437691825098, 0.058535032261714436, -0.0033725723510520094, 0.052042022338840935, -0.030200963194855972, -0.014386722030057749, 0.02832780017972066, 0.05688063283333798, 0.019569061510870577, -0.061485874829870904, 0.06551077791366439, 0.023212874258250492], [-0.018630513993452783, 0.05993520600526568, 0.015672268642977202, -0.0135404534685852, -0.08834635538815526, -0.10802123071720156, -0.065951984360327, 0.033830567155102485, -0.021548705945971833, -0.029762396434144918, 0.07287212828369649, -0.06313189176645505, -0.026731792943037968, 0.03696189857603972, -0.11068586707270826, -0.04956254170968564, -0.08025173695010748, 0.090944499678572, 0.026333447083945864, -0.003559879403932047, 0.08334592066027838, 0.02556500925935059, -0.05593061661876613, 0.021026539983179483, 0.08464695149275116, -0.01702333191604866, 0.05187361046152922, -0.03417859078595663, -0.032984543189436964, 0.018910639158736014, -0.006353889608282812, 0.07894913747346692, -0.10252794275029457, -0.03656924145365782, -0.061663487029053554, -0.01344872249398666, -0.002434306288172451, -0.0838632240890883, 0.005751156504855232, 0.05059270625737192, -0.06390766802205008, -0.04071475408237561, 0.04502233692434143, -0.012840390031314278, 0.06909861285635299, -0.039551100439881484, 0.05480797141075233, -0.039649767917559385, -0.025985106065950034, 0.05253394440753223, -0.08255059410925797, -0.06202970189462331, 0.046692523903548444, 0.01792640289011495, 0.030092227848638534, 0.013410076880471524, -0.01015130938383322, -0.032267042360577335, -0.022779018837661473, -0.019907447770503458, -0.006992231977694769, -0.08497234955640755, -0.002801258848450162, 0.0064196715103901365], [-0.039087573988891657, 0.052905760721818615, 0.024695681862325815, 0.0041677531608436515, -0.05424045901401698, -0.0059546352862377685, 0.012672732489067983, -0.011668046175155645, -0.053923561545008145, 0.008427635866674325, -0.03528069907010819, -0.047540088568012145, 0.0002851366786319556, 0.039560529183790986, -0.032392631277770347, 0.013666364253867355, -0.04068403365671218, 0.026783567398513276, -0.027162560989960637, 0.04599018546019379, -0.020072073513310626, 0.0457154205690076, -0.0014878997614506874, -0.01877546357857678, -0.048207466408737604, 0.012180288958891249, -0.03128338892661847, 0.010888582039865041, 0.04759876376590229, -0.016531292737698617, -0.029677719718678035, -0.04366355540049553, -0.002768187187956486, 0.04869057213667642, -0.005842975967066287, -0.056120434888809, 0.03333333163287069, -0.04535488515802907, -0.06070319700356961, 0.01845197311164505, 0.03533978093722875, 0.010836887225327834, 0.035218676107296135, 0.039116376457419944, 0.005713615361387723, -0.006161940390822621, -0.02909365131951772, -0.044676107234922276, -0.020571496924367424, -0.030816095137839658, -0.04877754527962619, 0.02863564300878644, 0.014046080976104913, -0.047746765169239085, 0.009864632571226193, 0.028322503769217185, 0.006460076844710974, 0.016133748552358988, -0.006532731620677083, -0.04305770626712943, 0.03920721525979023, -0.023841481514811413, 0.03204694215908448, -0.03133156063429205], [0.040368507864581106, 0.02696380925423189, 0.039627200243095094, -0.04439397862829552, 0.06541753297538469, 0.07253568568859235, 0.04677179731451064, 0.04087121860346764, -0.037105955842228325, -0.03906146438877693, 0.02324403048599187, 0.03788076100955601, 0.011684660457132654, -0.07121671223712357,