{"architecture": "mlp-49x16x1", "b1": [-0.0037675495138878128, -0.01428709246445596, 0.0033631272545928854, -0.012064912636909782, -0.018846347566992102, 0.0012940331522634865, -0.0188454027616234, 0.0034588269741357876, -0.01564088018922011, -0.014133889332203286, -0.001964815305983688, -0.014091411382679655, 0.009205153759881454, 0.017744441745740278, -0.012749014266357089, -0.01770892474494784], "b2": 0.0033231471749096166, "hidden_size": 16, "input_size": 49, "sample_count": 0, "updated_at": "2026-05-14T10:40:37.005555", "version": 1, "w1": [[-0.07565418998365951, 0.007046627199680119, 0.06878107842685195, -0.07583041537373256, -0.06202949062164839, -0.07968874975712881, -0.028777477996608243, -0.05413481330742302, -0.06783112246550357, -0.050692909525140134, -0.022450134336849795, 0.019761922339311233, 0.011894472769272663, 0.07544625385455213, -0.03264627547819723, -0.01214759761382772, 0.04261635281667597, 0.028961905158863738, 0.04695383851061609, -0.002477677579638335, -0.008404867172162295, -0.07803741912445501, -0.007005859671335546, -0.019094395545450206, 0.032747479618220846, -0.0702410216894673, 0.05219933123168856, -0.043188714085365607, 0.06630271857077129, -0.03847572667058591, 0.07675437692029242, 0.005487401650459703, -0.005514347874852471, -0.07847490775116885, 0.012679953693965906, 0.016409292314032153, 0.02235583583767646, -0.005639164733169208, 0.049875640907568256, 0.06911441720731475, -0.0671146695675869, 0.07758681463209617, 0.010508533374912088, -0.07493998446625239, 0.038407126927762075, 0.07720445690961254, 0.05985982708575509, 0.012202575002310048, 0.06280628386492683], [-0.00562156575436519, -0.030329475005992756, -0.013366713447104828, 0.008640809342227829, 0.06983279761726956, 0.06559655001845698, -0.058804111490634595, -0.06935073784507889, 0.019688370427582258, -0.010034788888086593, 0.0752674906660339, -0.06502989927461096, -0.04939321108210741, 0.04663338928814016, -0.005044234283819907, -0.029593849445344968, 0.0760298660525323, -0.06857845486835284, 0.0477625345930978, -0.036531411064539124, -0.028151602760729165, -0.015486589500874462, 0.042878534416994366, -0.07557198852424145, 0.06277759465095527, 0.04033243654962508, -0.017262007867404436, -0.04591040417147152, -0.008745171116754491, 0.004467318629498507, -0.061406566600992266, 0.04428230758329445, 0.042739685181721776, -0.002122297567724432, -0.01470939951715236, -0.008051459240462147, 0.01787659325512682, -0.02744053823281499, 0.07213741412123519, 0.003782750410834493, 0.07205983022898456, -0.04634477971452098, 0.07252696200933952, -0.020213867987298482, -0.039905151205286364, 0.009095477659129686, -0.06822142632542566, 0.014263696791870117, -0.050415150328298394], [0.04207568513349927, 0.05314537878464555, 0.01870624573625064, -0.015355764203827144, -0.03808164365725435, 0.06560890546359029, -0.057850855920199715, -0.06019713882583602, 0.07395882643905581, 0.03088029638372032, 0.07463955808380583, -0.06650606198506041, 0.0315654746954646, -0.006760464846131797, 0.04346428208552208, 0.009922938206632037, 0.022943261148104493, 0.011470366187092504, 0.03400413655717324, -0.06619936379723125, -0.019587756467366248, -0.005573092360919268, 0.022388633885883635, 0.05215192493123032, -0.015065914035972586, 0.04772938630351577, -0.019575131063517652, -0.06774479123440828, -0.04117267244510311, -0.027215332994105522, 0.01893977270131371, -0.013962597178606498, 0.07862919629727476, 0.029797451850336568, 0.0220854453510944, -0.06627104581806628, 0.007151535882598967, -0.05953058321613622, -0.06271561831001442, 0.01604876705877556, -0.07470289309994158, 0.02464775512975055, -0.025090630849098336, -0.02031540210282879, 0.05541305249328414, -0.07541895427168929, 0.030915359551516294, -0.01792442459916039, 0.04561746756581099], [0.07061812816896214, 0.0009031832255702588, 0.009943491624278836, 0.056567261353937456, -0.018865802662763616, -0.07145236843157891, -0.06330752537859183, 0.003987514618991897, -0.06282782616843698, -0.041178182366755536, -0.010552498803859278, 0.04702634107187663, 0.0032646876407025904, -0.01155695003853835, 0.01869402718744581, -0.07727268583656949, 0.06740168954617017, -0.041552799570487124, 0.0037591827351992207, -0.044856154396706704, 0.0030449468850462236, -0.07594853264199011, -0.005843914338512626, -0.016051800942087482, 0.03169322117040789, -0.06355685350259771, 0.07096998307313164, 0.03862196196292002, -0.0034352231391478055, -0.012309779850753613, 0.049224424535746394, 0.004755120899442092, 0.05469164388269675, 0.0390999673701147, -0.06334503704354331, 0.03863573971266358, 0.015137648104411539, -0.010999050681754066, 0.06504648606386422, 0.06785867082226481, -0.019867301901314353, 0.06706775763700533, -0.04236170983951828, 0.001960794718083317, 0.0766704621195854, 0.023204362976168028, 0.060850555606662846, 0.03567190763335258, 0.02868824293729494], [-0.035790487518872476, 0.016077390846504114, 0.030974425562328226, -0.057302166656471684, 0.009856777403165373, 0.0005062063965844688, -0.05066584255660022, -0.06317819421048544, -0.020734996510682675, 0.0564657494969389, 0.05873176229779441, 0.021250933450254722, 0.022794424961429624, -0.07949922602383659, -0.07965943154223552, 0.07949307235761464, 0.02431746537847719, 0.030695481343393158, -0.06466479862244075, 0.07172296146481223, -0.03514498744955274, -0.07568089572442474, -0.0029477211098446615, 0.07441332792348411, 0.06961782363285089, 0.07296106137717877, 0.05405419996071946, 0.06663068353917788, 0.02957514860769661, 0.004104353289195131, -0.06792384974355883, 0.012135329149419671, 0.0773389275609956, 0.06348205021896201, 0.04655124804519788, -0.034950960173793906, 0.05173033335869272, -0.07158201106602488, 0.06630621514474676, -0.02307218460189729, -0.04131084209254318, 0.035658078157938644, 0.013751992434630794, 0.014091627642749086, -0.02679095342781384, -0.050684406799393275, -0.06572996408650184, 0.056759531538164196, -0.0766691481287853], [-0.02041593803559065, 0.011753051058208133, -0.035289441995559924, -0.07014013152617818, 0.018590592810660417, 0.04196853462670724, 0.03021483206283404, 0.07949854936043894, 0.0781244350270602, -0.049759947867171805, -0.018923986402873967, -0.060626409589171995, 0.05518158097992683, 0.026207093886818744, 0.06717270984003267, -0.0641346687120592, -0.0037478775895987554, -0.005204702059128083, -0.04057203853968762, -0.06680510830021975, -0.013187939370266827, -0.07729528202379307, -0.00024916407150785136, -0.07652965351067437, -0.001968938747418922, 0.04803862501213528, 0.01193711810206663, -0.06570948532736148, -0.041871277784560144, -0.016459602793415726, -0.02445010953176524, 0.005929010766785939, 0.046361373456330776, -0.022379466914049857, 0.06660280398477629, 0.07169334596431352, -0.04853822818634601, -0.04685215661343907, 0.07348539363461519, -0.03911136243667771, 0.05404067517591511, 0.0445932797715894, 0.032948591018015866, 0.07705614420143227, 0.0425665027882607, 0.05230747097285558, -0.01827764500838132, -0.004867837149969495, -0.013472743719378927], [0.010338435331275306, -0.005583488074657958, -0.008597879738269795, -0.06504706004108718, -0.029102498707669733, -0.059344921924991426, 0.05032735913450932, 0.06980430648551768, -0.01904868689310163, 0.051993196921152326, -0.023287140330851344, -0.047059314123091806, 0.028547177219636524, -0.02415451074282661, 0.04787695438271604, -0.05687706344775405, 0.045889180219602935, 0.013627675105002374, -0.0010596307993569615, -0.07533449253701396, 0.05770581479856936, 0.021648296199859945, -0.059006995208862795, 0.059191885833416266, -0.019892373249443603, 0.04938750490068057, 0.012388719297127954, -0.008963271571006015, 0.03986767462942063, 0.04194220126781387, -0.05474908531835736, 0.006158044085985026, -0.05600611125103212, 0.0394353554555129, -0.02906483845070145, -0.01869413884315245, -0.04138277349726579, -0.0657427018574405, -0.07209755635363928, 0.04057660138748906, -0.021399838588949366, -0.06814333365981566, -0.028033622935740736, 0.010578456117989757, 0.03154690759594246, -0.06111484436121842, 0.01973372049795062, -0.00019004259500250698, -0.029060421038039554], [0.010816124605139893, 0.012170046036003454, -0.001935556081686357, 0.01298088297233406, 0.07109907723799862, 0.063974513830159, -0.015630940484203257, 0.035871339029469276, 0.04066748328442529, 0.027826604718341308, -0.060872327247802414, 0.009003131344386975, 0.05770659072588159, 0.00025110711141505815, 0.026852629230376956, 0.021678606108793033, 0.0623972490786187, 0.06481309222987698, 0.023895300637746197, 0.006870012515026128, -0.03210714286588594, 0.027572477436622014, 0.0017632712301869219, -0.035529120394156934, 0.00847443352040965, -0.05418626234944211, -0.024073107157148645, 0.07759070567944072, -0.02074290959754132, -0.05483868370210024, -0.07919793452915623, -0.008200399594810434, -0.013832842964410813, 0.05764901157767076, 0.06999073720168249, -0.028617492795051158, -0.055766178945696174, -0.005584533364739228, 0.03833993860414649, -0.0005381929292239129, 0.036338977618014426, -0.027463655857579358, -0.0198527684701437, 0.0071227428757310585, -0.07351341911921448, -0.03080593031858589, 0.07161669239851377, 0.04211517736410687, -0.003721471263745821], [0.06630595368122195, 0.07542354164715297, 0.024872300796041233, 0.03786693393438387, -0.07559779783625535, 0.028054563140650468, -0.01967648857430785, -0.026990838784376428, -0.027914567127834307, -0.054860588200074306, 0.052099172137015384, -0.07904989264861186, 0.007224156116526187, 0.02521501065521138, 0.062459539807935935, 0.046994071858322065, 0.01963708386026035, 0.04580629701926338, -0.07979200085610538, -0.01015836647336582, 0.0011145728664007787, -0.05634873091423272, 0.0642210415825394, -0.06237375039790319, 0.018922602223823748, -0.060160168512770354, 0.03279760837561438, -0.04990230886919568, -0.07117253361073692, -0.014913032355079417, 0.047780726455361175, 0.04417980033672983, 0.03018160970559558, -0.05378165711778157, 0.06897044922084454, 0.029765621827098757, -0.018610683842185644, -0.01984886187310661, -0.0180358407705363, 0.07277244999977443, 0.055408949201977406, 0.029395945657823344, -0.07947495600207033, -0.07746207368731112, 0.07240283206289237, 0.04984732417578462, 0.07151881489111107, 0.05887742231026934, 0.04910215328037125], [-0.02592798442663552, -0.02149307439719452, -0.015105030853707152, 0.06663956450514237, -0.06656050499955316, -0.021404234666883945, 0.04368634656032419, 0.05137472745516404, 0.05820015930224744, 0.011136438407761698, 0.01907103091810053, -0.012437036318116393, 0.07285154194425682, -0.059807934907929586, 0.03510572041882093, 0.06010225606813184, 0.07573033218722018, -0.054767251933119585, 0.030885997526249584, -0.05196086785630462, -0.02179456400427368, -0.060066955498283295, -0.03356166520418059, -0.020269288767248227, -0.03837912494293933, 0.02039686169365673, 0.031757069042407396, 0.048058219937468935, 0.005416370360149525, -0.04225002835303874, -0.006700921743117233, 0.056770302086681754, -0.03723873272087097, -0.04865049696409138, -0.041942037028253644, -0.052641009393474096, 0.06345490454460427, -0.02026873028932711, -0.018356170498625667, -0.0726465896449702, 0.01736765609218409, 0.05217530396943658, -0.07073617984863882, 0.06750443912851124, 0.015963105557317683, -0.048251538128915285, -0.01261336575424804, -0.01030959167596325, 0.01190257157367397], [0.06807611486913843, -0.02378487444656198, 0.030151048866618402, -0.026352808833751455, -0.052110327424809526, 0.06061333178657223, -0.061879886131953124, -0.05848811389995316, 0.02382403008846551, 0.07189759896304514, 0.0770634047343653, -0.025706727119368472, -0.043726996532444676, -0.05326155609735384, -0.07345963854248089, -0.03638545712151364, 0.056213033025786965, -0.04429164491156296, 0.04654692883313748, 0.03509680312889257, 0.011681069429323787, -0.052080046748482385, -0.05274973521302963, 0.055354445429265056, -0.030153705557164054, -0.0725402751426045, -0.042747206492603156, -0.07174817520818248, -0.03181586117562603, -0.03903875576444289, 0.06946207715525783, -0.06846462798476317, 0.025732206651098877, -0.011742914303757152, -0.020179780199445593, 0.026281506010742375, 0.04358349779295008, 0.027933162391654415, -0.03756166653455594, 0.05370920036314768, -0.011823996894310282, -0.04081669538597533, -0.005718485764781636, -0.00518614348584015, -0.07340806254385646, 0.03276835946055014, 0.006836124190561607, 0.0033334838331846445, -0.020080665372936277], [0.014340736506157761, 0.052920809805489286, 0.07740463833631524, 0.00933441400391942, -0.04467575058745165, 0.010005079845482642, 0.020040648748165857, 0.0376478581655393, 0.07112178308481941, -0.060185995807919834, -0.04696744269036995, 0.07824284085322071, -0.07488628234322156, 0.0039497359969321855, -0.013615280201605129, 0.03489744817926148, 0.00562707226487856, -0.050189312267937713, -0.0008895841276065353, 0.004495014470693837, -0.004113172662310552, -0.05776255282689827, 0.015922059051818108, 0.05726325973381001, 0.06944520533215491, -0.02974116332979586, -0.059341568817860076, 0.04147458254340404, 0.02335638036159436, 0.029085380630653662, -0.04546603754182344, -0.024140753198631, -0.05359998409981378, 0.04212868556088502, -0.013730781616381638, -0.05059330536309105, -0.023593188674924694, 0.06883821697108676, -0.010958640308616735, -0.049323376774190214, 0.04382888130724752, -0.05752394079863177, 0.06580158258799952, -0.02826893926491888, 0.03111587444624235, 0.0049297753615589746, 0.0165737235486849, -0.06371962571250565, -0.027000469397677897], [-0.04261369579638284, -0.025099236274996564, -0.05233450527504126, 0.014424495070983492, 0.03995858248309596, 0.0533784735533545, 0.07924291017429595, 0.024079298105701738, -0.021330240697427526, -0.0021714449274760905, 0.0773821906649974, 0.005428292196065956, 0.018004460035843037, 0.037631353567468176, 0.03177557021730695, 0.007725671334826115, 0.052743835891753424, -0.003039229490534312, 0.0027484119604036655, 0.01124939614721901, -0.016603055752262272, -0.010196178046631754, -0.03772981783953176, -0.01970521777480016, 0.047797902977469955, 0.0430690890627725, -0.04942189668861602, 0.07251639072942624, -0.018288924420896094, -0.03476497790161291, -0.0700568498783876, 0.07750663888772664, 0.012303065833377064, -0.06390346575137462, -0.030366733300406637, 0.02951808530230228, -0.007132500234866793, -0.022718075261519532, -0.036257941340031866, 0.03225694489962709, -0.02935595107390654, 0.059313168682051845, 0.05239836187590487, -0.015871269941462554, -0.06597118185119946, -0.06630491692734682, 0.06308125262896051, 0.01985832161336265, -0.0035265626083406665], [0.05979033947086891, 0.011997822697287733, 0.03314803323661815, -0.027239505084280767, 0.012819708986612971, 0.05930491884289897, -0.01574335937645259, 0.01632728913813422, -0.04336039111805284, 0.013434072513293524, 0.05636422017154359, -0.013168708629422293, 0.07561603097522508, -0.06464043519739238, 0.025314468648246352, 0.04454439931735529, -0.008378725204759366, -0.05624645970151988, 0.07330729473450016, 0.01280209776218183, -0.005855135049947252, -0.04196684260262261, 0.03671137303882377, 0.01615554930059343, -0.06557043002746457, -0.006102858600690986, -0.0257278096199844, 0.0002350628644277597, -0.029191402735601266, 0.062614364407871, 0.03917186503215361, -0.05719350572265064, -0.05590147502237208, 0.06509839187315829, 0.03410891301248681, -0.06659950653778832, -0.0015261883608749527, -0.0018451467306791064, 0.0321022768882947, 0.07744477320382383, -0.04423874149016021, 0.04409795829171943, 0.06158897483762325, 0.06661498708166098, -0.028440948619739836, 0.06282383440410784, -0.057473244673154, 0.04046963137594303, 0.06950314612611842], [-0.04372750471608759, -0.05050405956737235, 0.03472460784921019, -0.07517551355167515, -0.035940493479594215, 0.07786557097012832, 0.03892030616041206, -0.06232658931549603, -0.037167709120038826, 0.06625940548994443, 0.05786478384307307, -0.06488352765538183, -0.00020934839633859892, 0.026753003402917933, -0.019638791726017554, -0.04297242517218578, -0.06106533836653151, 0.07527127713014374, 0.07973860418639771, -0.0763311034375836, -0.026581288228738183, 0.04872318927033405, 0.04531696203383111, 0.00320034743893588, -0.02588581971922462, 0.052870632991487546, 0.044702205273588355, -0.014431315187187738, -0.05132054332614928, 0.029702262777689448, 0.02668018407473531, -0.049959314374841704, 0.027646226475667376, 0.07542495914805904, -0.06378824474348624, 0.029371922553215163, 0.0679855548381489, -0.06857076496262461, 0.02101560876907238, 0.0741021696013217, -0.005391348773346238, -0.05112120831736384, 0.0577715226828429, -0.02974158548351026, 0.04148625835210605, 0.05327222565456062, 0.042999787128024713, 0.0334815146106075, -0.02398716333527357], [-0.07058466172488399, -0.012777696773446312, -0.07825238286767278, -0.003420274666939685, 0.028610451013389493, 0.04935698675356913, 0.0032186664304007656, -0.01668678918897179, -0.07977057292624462, 0.035212469924278705, -0.07294951933562333, -0.07016582259682685, -0.0672561993604406, -0.05994505870432299, 0.07235069795662828, 0.004380726687743308, -0.0547100868941844, 0.06561419989192237, 0.06896652246153724, -0.07703772037157652, -0.0030215345713550806, -0.029830960998316433, -0.02047389589662716, 0.07394961343419239, -0.07373699105972262, -0.043556136636713594, 0.0465870883134759, -0.03501732531148704, -0.019207021737728827, -0.04831615938417899, 0.022765027099917012, 0.07059864577353551, 0.0016110413893564574, -0.044287567874782885, -0.048291311459385436, -0.050471629999673265, 0.054609783042894725, 0.016875836954461057, -0.06771345656383679, -0.04853108619221576, -0.05770607416302491, -0.06067953008544798, -0.02222001922809206, 0.051071987192333926, 0.06323672147012509, 0.06043320567426751, -0.06713330480800073, 0.031213432715207268, 0.04589357259105466]], "w2": [-0.05402879532844279, 0.07822609113221084, 0.0034307242753265077, -0.07934504381293361, 0.05025473089063763, 0.02424266076476375, -0.04593471829350761, 0.059908948040701335, -0.07026568292926227, -0.053044726907533236, -0.04736464869160537, 0.005272961240783761, -0.059994334783641995, -0.047847970166798856, 0.06053828799141979, -0.04968984237035619]}
